-0.0769982,-0.0931801,-0.0634012,0.0629864,0.0804485,-0.0448031,-0.0277901,-0.0378693,-0.0858965,-0.0324826,0.0507082,0.0390113,-0.0535167,0.0454138,-0.0773488,0.0248464,-0.142201,-0.0362636,-0.124459,-0.16839,-0.13153,0.0150666,-0.214175,-0.0644945,-0.102576,-0.0484344,0.0242027,0.0502033,-0.0479434,-0.0055101,-0.0965615,-0.115756,-0.0864955,0.0312689,-0.0568631,-0.0905763,-0.00361783,-0.092083,-0.0123887,0.0717344,-0.0138836,-0.118511,0.00984024,-0.099926,-0.0458091,-0.0850605,-0.0710694,-0.151024,-0.028211,-0.0208631,-0.0137501,0.063218,-0.116471,0.0371716,0.0521211,-0.0618279,-0.0729753,-0.0210339,0.0189881,0.13972,-0.0354558,-0.0476329,-0.085856,-0.0548063,-0.13537,-0.173068,-0.316505,0.14919,0.0133627,-0.195598,-0.0794886,0.252827,-0.0835372,-0.149655,0.061232,0.0157363,-0.11257,-0.0748325,-0.0742065,-0.046479,-0.0362766,-0.0662349,-0.00141975,0.0511682,-0.0012903,0.0601073,0.00532151,-0.02307,0.0412965,0.120471,-0.132139,-0.0281276,-0.0441309,0.0459548,0.0347641,-0.0732551,0.0200189,0.043067,-0.144256,-0.0695654,0.0800624,-0.0989185,-0.0444103,-0.0109753,0.0532671,-0.0340905,-0.0697864,-0.0824307,-0.151182,-0.147293,0.0908737,-0.0870287,-0.0820411,-0.146398,0.0488182,-0.0836944,-0.0481122,0.0766022,-0.0290484,-0.0766144,-0.109212,-0.100698,0.212107,-0.0781191,0.137438,-0.0805813,0.055833,0.0549431,-0.106762,-0.167831,-0.14069,-0.0724159,0.0432774,0.16571,-0.0461273,-0.0681036,0.053858,0.0185794,-0.0272605,0.132787,-0.138257,-0.0574943,-0.0926699,-0.0255523,-0.0447276,0.0948905,-0.125399,-0.101807,-0.124111,0.164427,0.0288671,0.0368447,-0.112347,-0.109565,-0.00422499,-0.0646187,0.0705229,0.128199,-0.0267932,-0.0909032,0.121668,0.0463862,-0.301492,-0.0981774,-0.0928583,-0.05307,0.190312,-0.203488,-0.206116,-0.0857924,0.0307815,0.111649,-0.0369026,-0.146782,0.0638516,-0.123792,-0.114017,-0.0326753,-0.0845997,0.15114,0.0590714,0.00197731,-0.0553125,0.227021,0.003967,-0.0974005,-0.338561,0.00766854,-0.0270123,-0.023239,-0.0286281,-0.0837275,0.116821,-0.0276358,-0.0278131,0.0272529,0.00759046,-0.144599,0.0521012,0.0643132,0.0667792,-0.0425008,-0.093503,0.178794,-0.0336913,0.0178777,-0.0306065,0.0462897,-0.138318,0.0826638,0.0597349,-0.129301,-0.0951721,0.0163615,-0.0376755,-0.128498,0.0323348,0.1118,-0.0589792,0.0644675,0.0736313,-0.0986008,-0.113465,-0.104531,-0.116972,-0.00177366,-0.0362478,-0.0665542,-0.0898643,-0.116852,-0.0917839,-0.0336981,-0.117122,-0.0437899,-0.186031,0.00381302,0.0552924,0.0863876,-0.107362,0.00460711,-0.0513444,-0.0536846,-0.128621,-0.0816565,0.00580984,0.0500751,-0.139645,-0.322127,-0.124255,-0.20061,-0.0799741,-0.0452984,-0.125379,-0.0748112,-0.103251,-0.0504466,-0.0459704,-0.110328,-0.153697,0.101311,0.0661995,0.0822146,0.0465017,-0.0882801,-0.0426905,-0.554588,-0.14291,-0.074553,0.0771563,0.129231,-0.0261751,0.0157558,-0.133141,-0.113275,-0.119082,-0.230907,-0.124084,-0.0690298,-0.154219,0.00969541,-0.0487551,-0.000589435,-0.0286173,0.485646,0.0529572,0.0289743,-0.0901655,-0.081024,-0.143334,-0.165703,0.0898198,0.0230195,-0.12831,-0.152915,0.286492,-0.0030757,-0.105829,-0.123158,-0.0913376,-0.0879875,0.00735426,-0.210812,-0.00247659,-0.286112,-0.180801,0.0861323,-0.0286831,0.0814032,-0.057131,-0.0881899,-0.00652066,0.0642674,-0.145186,-0.113181,0.0722433,0.00547466,0.114753,0.093377,-0.0877203,0.0895184,-0.0972313,-0.115728,-0.120699,0.273871,-0.13948,-0.059255,0.0684837,0.123589,0.0656847,-0.109984,-0.19607,0.259637,-0.00871831,-0.118173,0.0155612,-0.122756,0.0246604,0.128739,-0.16191,0.0984668,0.0802252,-0.157045,-0.0459294,-0.182671,-0.121033,-0.0817994,-0.0765051,-0.0766304,-0.0186608,-0.179504,-0.0465175,0.090779,0.0543658,-0.216422,-0.149659,0.0185753,-0.110541,-0.0548612,0.0697243,-0.079188,0.0767398,-0.016566,-0.0917598,0.0751562,-0.157972,-0.154783,0.132157,0.0140892,0.0297105,-0.157709,-0.109726,0.0716181,-0.134293,-0.0770992,0.0302043,0.0193782,-0.113077,-0.045641,-0.0710401,0.117615,-0.0544297,0.109253,0.0353346,0.036731,-0.11847,-0.185322,-0.099517,0.11022,0.0317897,0.0794486,-0.113964,-0.0423575,-0.109714,-0.0290338,-0.0308927,0.231694,-0.0808061,-0.120212,-0.0767993,-0.0980501,-0.0873105,0.073267,-0.0483951,-0.144312,-0.0118146,0.189562,-0.099274,-0.106567,0.00484519,-0.0575614,-0.134903,-0.10359,0.131627,0.068794,0.0766224,-0.117722,0.147513,-0.126929,0.0969237,0.0112563,-0.16441,0.180071,-0.0843105,-0.485395,0.0156719,-0.00762394,0.0324234,0.121325,-0.0444263,-0.111809,-0.0960616,-0.0339608,-0.0879867,-0.146611,0.0431292,-0.136531,-0.155285,-0.0889018,-0.0769167,-0.00900547,0.273741,0.0580512,0.126083,-0.103151,0.274643,-0.14276,-0.0596173,-0.020372,-0.0722817,0.233361,-0.181251,0.0446944,-0.145317,-0.138309,0.0172438,-0.107726,0.0500042,0.0544614,0.0633702,0.256399,-0.123422,-0.0181259,-0.0478707,-0.0815331,-0.104102,-0.0298141,-0.138272,-0.152261,-0.0930465,-0.024097,-0.420422,-0.133425,-0.0192691,-0.00924809,-0.147166,-0.121756,0.0936797,-0.0422546,-0.114885,0.00420893,-0.0502578,0.13085,-0.0160014,-0.144745,0.0851902,-0.104282,-0.145779,-0.157083,-0.107086,0.00344574,-0.48501,0.0882415,-0.127883,-0.0121919,-0.144306,-0.0274119,-0.110526,0.031356,-0.134987,-0.028585,-0.103079,-0.0783085,-0.173111,-0.0670301,-0.158032,-0.0575523,-0.00451957,-0.0625762,-0.0817745,0.0123976,-0.0151812,-0.126923,0,0,0,0,0,0,0,0,0,0,0,0,0,0,0,0,0,0,0,0,0,0,0,0,0,0,0,0,0,0,0,0,0,0,0,0,0,0,0,0,0,0,0,0,0,0,0,0,0,0,0,0,0,0,0,0,0,0,0,0,0,0,0,0,0,0,0,0,0,0,0,0,0,0,0,0,0,0,0,0,0,0,0,0,0,0,0,0,0,0,0,0,0,0,0,0,0,0,0,0,0,0,0,0,0,0,0,0,0,0,0,0,0,0,0,0,0,0,0,0,0,0,0,0,0,0,0,0,0,0,0,0,0,0,0,0,0,0,0,0,0,0,0,0,0,0,0,0,0,0,0,0,0,0,0,0,0,0,0,0,0,0,0,0,0,0,0,0,0,0,0,0,0,0,0,0,0,0,0,0,0,0,0,0,0,0,0,0,0,0,0,0,0,0,0,0,0,0,0,0,0,0,0,0,0,0,0,0,0,0,0,0,0,0,0,0,0,0,0,0,0,0,0,0,0,0,0,0,0,0,0,0,0,0,0,0,0,0,0,0,0,0,0,0,0,0,0,0,0,0,0,0,0,0,0,0,0,0,0,0,0,0,0,0,0,0,0,0,0,0,0,0,0,0,0,0,0,0,0,0,0,0,0,0,0,0,0,0,0,0,0,0,0,0,0,0,0,0,0,0,0,0,0,0,0,0,0,0,0,0,0,0,0,0,0,0,0,0,0,0,0,0,0,0,0,0,0,0,0,0,0,0,0,0,0,0
