0,-0.0248273,-0.00352307,-0.00607355,-0.0357461,-0.0112293,-0.00419088,0.00599083,-0.00827692,-0.0119094,-0.00694634,0.0146403,0.00965128,0.00117653,0.0178819,0.00556681,0.000412744,-0.000567401,0.0176517,0.00605319,0.0127043,-0.00624387,0.0120006,-0.0109121,0.00748422,0.000770691,0.0217838,-0.01261,-0.00871102,0.0071242,0.00336003,-0.00863974,-0.00764606,0.00728186,-0.0100264,-0.0136509,-0.00291774,0.004403,0.051865,0.001935,-0.00146451,0.00391421,0.000411542,0.00763834,0.00522343,0.0014808,-0.00478598,0.00813081,-0.0260945,0.00600165,0.0111196,-0.0118665,0.0011977,-0.0197404,0.0135342,0.00433507,0.0058331,0.00941451,0.00268146,-0.00768857,-0.00208762,0.0118948,-0.0218687,0.000586432,0.000678065,-0.0118451,0.0375022,-0.0473138,0.0209467,-0.0124325,-0.00357743,0.00600633,0.00777824,0.0170758,0.00631673,-0.00190523,-0.011655,-0.00677705,0.00518157,-0.000400443,-0.00626427,-0.0613202,0.0144736,-0.00765363,0.0115093,0.0084882,-0.00878939,-0.00219113,-0.00982328,0.00279803,-0.00402566,-0.033783,0.0155906,0.00121604,0.00564397,-0.0164269,0.00945036,0.00574821,-0.00192261,-0.0349561,0.00421377,0.00767128,-0.00126019,-0.00551823,-0.00651076,0.00992219,-0.00513712,0.0138978,-0.00998914,0.00431542,0.00961603,-0.00224309,0.00889589,0.00294881,0.0165005,0.000166643,-0.00114055,0.0019169,0.016226,0.00464399,0.00824897,-0.0382654,0.0106485,0.0169642,-0.00467965,6.03104e-05,9.21889e-05,-0.00446353,-0.0328589,0.00397943,-0.0402769,0.00403003,0.00726065,0.00176871,0.00306987,0.00519215,-0.0073833,-0.00746014,-0.0141896,-0.000507385,0.0112623,0.0171225,0.0132855,-0.00118017,-0.0264905,0.00657928,0.0348258,-0.000554379,-0.00819858,0.00280641,-0.0158027,0.00061838,0.0029239,0.0254951,-0.00606742,-0.00683452,-0.00714127,0.000319498,0.00105517,-0.0157929,0.00456741,0.00167437,0.0189974,-0.00838816,-0.0102059,0.00311279,0.00285285,0.00772625,0.00291177,-0.0619874,-0.000182883,0.000326076,0.0132713,-0.00389592,-0.0125628,-0.00539968,-0.00241392,0.0123437,-0.00223221,0.0199671,0.00396615,-0.0219751,0.00525398,0.00741645,0.0214646,-0.00303333,-6.91094e-05,-0.00364054,0.00314297,-0.00561865,-0.00446452,-0.0121397,0.00819296,-0.00307309,0.0322425,0.00723883,-0.00273783,0.00794693,-0.00233634,0.00161693,0.000540999,-0.00276401,-0.0123873,0.0157998,0.0381864,-0.0155751,-0.00645811,-0.00184868,0.0103052,-0.0107022,-0.0539904,0.000849406,0.00157193,0.00746708,-0.0106915,0.0177569,-0.00692155,-0.00382757,-0.00030074,-0.00524007,0.0216952,-0.00741151,0.0150894,-0.00729646,0.0179624,0.0196075,0.00485866,0.0152548,-0.0212581,0.00104726,-0.0234512,0.00676322,-0.00364217,0.00325498,-0.00787487,0.00524883,-0.0164414,-0.00438852,0.0425901,0.0148643,-0.00663339,-0.00795382,-0.00418675,-0.000696952,0.0415382,-0.00959668,-0.0199676,-0.00106144,-0.0129488,-0.000691082,0.00422567,0.0167131,-0.00179067,0.0116832,0.00838957,0.0126085,0,0,0,0,0,0,0,0,0,0,0,0,0,0,0,0,0,0,-0.0180674,0,0,0,0,0,0,0,0,0,0,0,0,0,0,0,0,0,0,0,0,0,0,0,0,0,0,0,0,0,0,0,0,0,0,0,0,0,0,0,0,0,0,0,0,0,0,0,0,0,0,0,0,0,0,0,0,0,0,0,0,0,0,0,0,0,0,0,0,0,0,0,0,0,0,0,0,0,0,0,0,0,0,-0.461099,0,0,0,0,0,0,0,0,0,0,0,0,0,0,0,0,0,0,0,0,0,0,0,0,0,0,0,0,0,0,0,0,0,0,0,0,0,0,0,0,0,0,0,0,0,0,0,0,0,0,0,0,0,0,0,0,0,0,0,0,0,0,0,0,0,-0.0268043,0,0,0,0,0,0,0,0,0,0,0,0,0,0,0,0,0,0,0,0,0,0,0,0,0,0,0,0,0,0,0,0,0,0,0,0,0,0,0,0,0,0,0,0,0,0,0,0,0,0,0,0,0,0,0,0,0,0,0,0,0,0,0,0,0,0,0,0,0,0,1.98379,0,0,0,0,0,0,0,0,0,0,0,0,0,0,0,0,0,0,0,0,-1.45109,0,0,0,0,0,0,0,0,0,0,0,0,0,0,0,0,0,0,0,0,0,0,0,0,0,0,0,0,0,0,0,0,0,0,0,0,0,0,0,0,0,0,0,0,0,0,0,0,0,0,0,0,0,0,0,0,0,0,0,0,0,0,0,0,0,0,0,0,0,0,0,0,0,0,0,0,0,0,0,0,0,0,0,0,0,0,0,0,0,0,0,0,0,0,0,0,0,0,0,0,0,0,0,0,0,0,0,0,0,0,0,0,0,0,0.142972,0,0,0,0,0,0,0,0,0,0,0,0,0,0,0,0,0,0,0,0,0,0,0,0,0,0,0,0,0,0,0,0,0,0,0,0,0,0,0,0,0,0,0,0,0,0,0,0,0,0,0,0,0,0,0,0,0,0,0,0,0,0,0,0,0,0,0,0,0,0,-0.339857,0,0,0,0,0,0,0,0,0,0,0,0,0,0.890931,0,0,0,0,0,0,0,0,0,0,0,0,0,0,0,0,0,0,0,0,0,0,0,0,0,0,0,0,0,0,0,0,0,0,0,0,0,0,0,0,0,0,0,0,0,0,0,0,0.199764,0,0,0,0,0,0,0,0,0,0,0,0,0,0,0,0,0,0,0,0,0,0,0,0,0,0,0,0,0,0,0,0,0,0.203311,0,0,0,0,0,0,0,0,0,0,0,0,0,0,0,0,0,0,0,0,0,0,0,0,0,0,0,0,0,0,0,0,0,0,0,0,0,0,0,0,0,0,0,0,0,0,0,0,0,0,0,0,0,0,0,0,-1.96428,0,0,0,0,0,0,0,0,0,0,0,0,-0.695887,0,0,0,0,0,0,0,0,0,0,0,0,0,0,0,0,0,0,0,0,0,0,0,0,0,0,0,0,0,0,0,0,0,0,0,0,0,0,0,0,0,0,0,0,0,0,0,0,0,0,0,0,0,0,0,0,0,0,0,0,0,0,0,0,0,0,0,0,0,0,0,0,0,0,0,0,0,0,0,0,0,0,0,0,0,0,0,0,0,0,0,0,0,0,0,0,0,0,0,0,0,0,0,0,0,0,0,0,0,0,0,0,0,-0.899156,0,0,0,0,0,0,0,0,0,0,0,0,0,0,0,0,0,0,0,0,0,0,0,0,0,0,0,0,0,0,0,0,0,0,0,0,0,0,0,0,0,0,0.52923,0,0,0,0,0,0,1.687,0,0,0,0,0,0,0,0,0,0,0,0,0,0,0,0,0,0,0,0,0,0,0,0,0,0,0,0,0,0,0,0,0,0,0,0,0,0,0,0,0,0,0,0,0,0,0,0,0,0,0,0,0,0,0,0,0,0,0,0,0,0,0,0,0,0,0,0,0,0,0,0,0,0,0,0,0,0,0,0,0,0,0,0,0,0,0,0,-0.305944,0,0,0,0,-0.957135,0,0,0,0,0,0,0,0,0,0,0,0,0,0,0,0,0,0,0,0,0,0,0,0,0,0,0,0,0,0,0,0,0,0,0,0,0,0,0,0,0,0,0,0,0,0,0,0,0,0,0,0,0,0,0,0,0,0,0,0,0,0,0,0,0,0.819005,0,0,0,0,0,0,0,0,0,0,0,0,0,0,0,0,0,0,0,0,0,0,0,0,1.15351,0,0,0,0,0,0,0,0,0,0,0,0,0,0,0,0,0,0,0,0,0,0,0,0,0,0,0,0,0,0,0,0,0,0,0,0,0,0,0,0,0,0,0,0,0,0,0,0,0,0,0,0,0,0,0,0,0,0,-0.711493,0,0,0,0,0,0,0,0,0,0,0,0,0,0,0,0,0,0,0,0,0,0,0,0,0,0,0,0,0,0,0,0,0,0,0,0,0,0,0,0,0,0,0,0,0,0,0,0,0,0,0,0,0,0,0,0,0,0,0,0,0,0,0,0,0,0,0,0,0,0,0,0,0,0,0,0,0,0,0,0,0,0,0,0,0,0,0,0,0,0,0,0,0,0,0,0,0,0,0,0,0,0,0,0,0,1.32044,0,0,0,0,0,0,0,0,0,0,0,0,0,0,0,0,0,0,0,0,0,0,0,0,0,0,0,0,0,0,0,0,0.329026,0,0,0,0,0,0,0,0,0,0,0,0,0,0,0,0,0,0,0,0,0,0,0,0,0,0,0,0,0,0,0,0,0,0,0,0,0,0,0,0,0,0,0,0,0,0,0,0,0,0,0,0,0,0,0,0,0,0,0,0,0,0,0,0,0,0,0,0,0,0,0,0,0,0,0,0,0,0,0,0,0,0,0,0,0,0,0,0,0,0,0,0,0,0,0,0,0,0,0,0,0,0,0,0,0,0,0,0,0,0,0,0,0,0,0,0,0,0,0,0,0,0,0,0,0,0,0,0,0,0,0,0,0,0,0,0,0,0,0,0,0,0,0,0,0,0,0,0,0,0,0,0,0,0,0,0,0,0,0,0,0,0,0,0,0,0,0,0,0,0,0,0,0,0,0,0,0,0,0,0,0,0,0,0,0,0,0,0,0,0,0,0,0,0,0,-0.215363,0,0,0,0,0,0,0,0,0,0,0,0,0,0,0,0,0,0,0,0,0,0,0,0,0,0,0,0,0,0,0,0,0,0,0,0,0,0,0,0,0,0,0,0,0,0,0,0,0,0,0,0,0,0,0,0,0,0,0,0,0,0,0,0,0,0,0,0,0,0,0,0,0,0,0,0,0,0,0,0,0,0,0,0,0,0,0,0,0,0,0,0,0,0,0,0,0,0,0,0,0,0,0,0,0,0,0,0,0,0,0,0,0,0,0,0,0,0,0,0,0,0,0,0,0,0,0,0,0,0,0,0,0,0,0,0,1.01287,0,0,0,0,0,0,0,0,0,0,0,0,0.935906,0,0,0,0,0,0,0,0,0,0,0,0,0,0,0,0,0,0,0,0,0,0,0,0,0,0,0,0,0,0,0,-0.000499187,0.000132604,-0.000544484,0.000119818,0.000239843,0.000790632,-5.15177e-05,-4.84729e-05,-0.000935783,2.66008e-05,-0.00115993,-0.00044642,-0.000168921,-0.000246405,-0.000509972,0.000289321,2.92982e-05,0.00123982,0.000141481,1.36434e-05,8.62503e-05,0.000181335,-5.63605e-05,0.000115971,0.000122494,0.00106897,-0.000577615,0.00037479,0.000167322,-6.17342e-05,-0.000134491,-0.000209257,-4.44572e-05,0.000295037,-0.000418509,6.34869e-06,0.000312896,-0.000584177,9.26138e-05,1.41237e-05,-0.000132095,0.000396086,0.000614616,1.98313e-05,0.000201844,1.60467e-05,-5.59783e-06,-0.000364613,0.000214551,0.000189671,-0.000499156,3.28147e-05,-0.000276661,0.000742334,0.000105274,0.000125185,5.2555e-05,0.000460995,-0.000500604,-2.13657e-05,7.28082e-05,4.74783e-05,2.15364e-05,0.000380212,-0.000656697,0.000197184,-0.00145203,0.000661154,-6.18187e-05,0.000145936,0.000655175,-0.000138044,4.62594e-06,0.000191909,-0.000627833,-9.79699e-06,0.000111001,0.000270441,3.20002e-06,-1.5791e-05,-0.0045973,-2.02718e-06,-8.20858e-05,-0.000561075,0.000325846,-0.000223067,1.65277e-06,-1.50119e-05,-6.77635e-05,-0.00010595,-2.64097e-06,-0.000679035,-0.000353359,0.000832893,-0.000371822,4.72377e-06,0.000362214,-0.000217455,-2.24952e-06,-7.54309e-06,5.22431e-05,-1.23754,5.88858e-05,1.6761e-05,-0.000250617,-6.55889e-05,6.55186e-05,-0.00197819,-0.000168527,0.000186263,-0.000262892,2.29926e-05,4.4888e-05,4.94251e-05,0.000453463,0.000134973,2.99982e-06,0.000278229,0.000205018,-0.000670354,0.00106615,-0.000485598,0.000415867,5.51277e-06,0.00047363,-0.000175363,-0.00027569,0.00105875,-6.0659e-05,-0.000721681,-5.20252e-05,1.03013e-05,-3.64497e-05,-0.000503263,0.000604431,0.000121483,-0.000201375,-0.000214013,2.44099e-05,0.000127215,1.19627e-05,0.000412576,-0.000153838,-0.000501384,0.000118231,0.00098588,6.85681e-05,0.000168928,0.000366719,-0.000278997,-8.59361e-06,3.63584e-05,-6.82995e-06,0.00091145,8.33246e-05,2.27742e-05,0.000129519,-0.000342079,0.000745578,-1.16644e-05,-2.51481e-07,-0.00133159,0.000113176,-8.65092e-05,3.16575e-05,3.93132e-06,7.38015e-05,0.000744209,-0.00228248,3.12693e-05,-0.000149175,-1.15492e-05,6.33649e-05,6.91289e-05,-0.000327192,0.000111365,-7.5674e-05,0.000150263,0.000408113,-7.52308e-05,-0.00380139,5.88916e-05,-0.00013146,0.000120461,0.000593761,-6.92718e-05,-2.89092e-06,-1.61982e-05,8.53025e-05,-0.000242879,-0.000817499,1.97839e-05,1.39286e-05,-0.0010106,0.000226051,-0.000214134,-0.000499942,-0.000758671,0.000703356,7.287e-05,5.22057e-05,-8.73171e-05,-0.000356371,2.90302e-07,-0.00017654,-0.000137335,-7.53015e-06,9.01816e-05,0.000667582,0.000568924,-0.000210834,-1.19785e-06,0.00166437,-0.000127328,0.000856698,-0.00100381,-0.000703237,-7.8275e-05,-0.000165836,5.44874e-05,0.000121479,0.000101834,0.000368323,0.000830046,-2.36327e-06,-0.000227939,0.000540653,-0.000947725,-2.55567e-05,-0.00057867,3.74011e-05,1.4778e-05,-1.90204e-05,0.000259968,0.000211767,0.000342234,-0.000686754,0.000616493,0.000125035,-0.00146574,-0.00173319,-9.14925e-05,-0.000279366,-0.000134878,0.00103771,-5.13716e-05,0.000612817,0.000183229,-0.000143307,0.000258729,4.01301e-05,-6.73818e-05,-0.000120143,0.000225297,2.6947e-06,0,-0.000419878,0.00121805,0.00115801,0.00148784,0.0129768,0.0103241,-0.00101033,-0.00609856,-0.00473754,0.00113904,-0.00130756,-0.00672776,-0.00214123,0.00243427,-0.00556739,0.00481081,0.00395757,0.0148333,-0.00274923,-0.000538012,0.000461617,-0.000729036,-0.000729698,0.789379,0.000960084,0.0235727,-0.0170535,0.0120689,-0.0118788,-0.00048788,-0.00236103,-0.60601,-0.00539508,-0.00939687,-0.00425257,0.000215815,0.00855747,-0.00030072,-0.00161266,0.000431805,-0.0016638,0.0125692,0.0224524,4.76733e-05,0.00496227,0.000231879,-0.000511198,-0.00191934,0.00306602,0.0111555,-0.00600672,0.00107684,-0.00947828,0.0252778,0.00292895,-0.0022641,0.00194941,0.00534872,0.00699981,0.000639662,0.00208709,-0.00029512,-0.00394146,0.00766625,-0.00703098,0.00772536,-0.00842677,0.0114469,-0.00774681,0.00185985,0.519051,-0.00568712,-0.00418036,-0.00578838,-0.00274453,-0.000167897,0.00355091,-0.00391213,-0.000626931,0.000770894,-0.0326981,0.00177301,-0.00566236,0.0115764,0.00668144,-0.00438186,-0.000718053,-0.00031407,0.000765144,-0.00541266,-0.000125378,-0.00100837,-0.000824856,0.00927884,0.00883243,0.000946756,0.0114678,-0.0178497,-0.00133701,0.000207581,0.00191531,-0.00013496,-9.75911e-05,0.000486534,-0.00472328,-0.00120854,0.00369218,-0.0120492,0.000457411,0.00277578,-0.000904717,0.00136541,-0.00095593,-0.00190165,0.00363003,0.000388003,-0.00115898,0.00357171,0.00173411,-0.00706129,0.0151838,1.59416,0.00192316,-1.96818e-05,0.00255899,-0.00358065,0.00132962,0.0120843,0.00320475,-0.00114154,0.00229475,-0.00111041,0.000750978,-0.0186203,0.00682696,-0.00904326,-0.00359136,-0.00306333,-0.0023443,0.000343388,-0.0039207,0.00883011,-0.00210785,-0.0117202,0.00376097,0.0236904,0.00224562,0.00686108,0.00438418,-0.00114147,0.000707816,0.00445927,0.00027681,0.00383627,0.00598488,0.000230926,0.00113979,-0.000614943,-0.00350139,-0.000519403,-0.00136763,-0.00866078,0.00150948,-0.00462069,0.000409452,0.000242901,-0.00505762,-0.00666964,-0.0176269,0.000341354,-0.00278637,0.00858425,0.00194261,0.00212833,-0.00241917,0.000758118,-0.00233303,0.0019239,-1.15127e-05,-0.00219242,-0.0182353,0.000256031,-0.00048182,0.0044405,0.0188174,-0.000931367,0.00296409,0.0046021,0.00282681,-0.00721028,-0.0294174,-0.00274644,0.00051382,-0.00872111,0.00063338,-0.000853484,-0.00854896,-0.01856,0.00650537,0.0049298,-0.00241148,-0.00175408,-0.00186094,0.00109837,0.00961051,-0.00166486,0.000439615,0.00645607,0.0017954,0.0068854,-0.00936699,-0.00565583,0.00928447,0.000304438,0.00570132,-0.00961758,0.000476866,-0.00282153,-0.00267966,0.00272257,0.00226144,-0.000896515,0.000760529,0.0018306,0.000301219,-0.0058477,0.00632477,-0.0178707,-0.00146912,-0.020507,0.000572075,-0.000291629,0.000908705,0.00551893,0.000773364,-0.000885492,0.974177,0.00568757,0.00263538,-0.00859482,-0.0129822,-0.000455486,0.00118973,-0.00372303,-0.864873,-0.00719205,0.0146519,0.00172947,-0.000836666,-0.00583385,0.00140623,1.36722e-06,-0.00162437,0.00605215,-0.000412588,0,-0.00617482,0.00813173,-0.00274916,-0.000193682,-0.0107046,0.0167727,0.00381386,0.0065081,-0.00140234,-0.00527656,0.017133,0.0152354,0.0111419,0.0234019,0.000142214,0.00131397,0.00759842,0.0282191,-0.00424129,-5.83837e-05,0.00161655,0.00452134,-0.00367078,0.00034579,0.0060084,0.0267114,0.0116938,-0.022464,-0.0102183,-0.0040886,-0.00264231,-0.0105756,0.0149981,0.0120899,0.00151617,-0.00357474,-0.000867236,0.0270691,-0.00838595,0.000351324,-0.00633787,0.022236,0.0485569,0.00145137,0.00129394,-0.00154642,-0.00227018,-0.0216472,0.00340317,-0.0188844,0.0079428,-0.00162454,0.000548395,0.0129792,0.00141613,0.0075431,0.00614445,0.00409087,-0.0192781,0.00306823,0.0041138,-0.0178522,-0.0111163,0.0077557,-0.00146124,0.0291453,-0.0257076,0.00500818,-0.00622799,-0.00495619,0.0139919,0.0172976,0.00394909,0.0143043,-0.011622,-0.000494771,-0.00367133,0.00505847,-0.00312569,-0.00373465,-0.0435377,0.00491973,-0.0229461,0.0252972,0.000193507,0.00209431,0.0137152,-0.00148773,0.00525663,-0.00951851,-0.00191276,0.000540553,0.00295547,-0.00633547,-0.00626347,-0.000973166,-0.00221213,-0.00717856,-0.00348915,0.00159119,0.00387671,0.000320604,-7.9122e-05,-0.00407329,0.00702514,0.496259,-0.216809,-0.00616101,-0.00347559,0.00561288,0.0110529,-0.000627755,0.00328801,0.00168791,-0.00692488,0.000573721,0.0118099,0.0104813,-0.00148862,-0.00385719,-0.011582,-2.05551,-0.00946821,0.00143625,0.0158524,-0.00573956,0.00978385,-0.0281948,0.00532562,-0.0413901,-0.00243762,0.00256996,0.00264782,0.0174565,0.00769649,-0.0035108,-0.00898361,0.007492,-0.000814543,0.000684063,0.00847048,0.0271351,0.000222252,-0.0118615,-0.00682826,0.0566402,0.00812061,-0.00309795,0.00828661,-0.022809,-0.00229475,0.000959479,0.00148522,0.0138668,0.00336169,-0.00638175,0.0014152,-0.00733931,-0.01968,0.000880186,-0.00143875,-0.0122805,-0.0129666,-0.0173872,0.0010515,0.000576321,-0.0019697,-0.00731996,-0.042704,0.000109963,-0.00536337,0.00462906,-0.00308803,-0.000465069,-0.00942106,0.0054568,-0.00247597,0.00200318,0.0262103,0.00242256,-0.0349574,0.00285169,0.00238649,0.00156948,-0.0264448,0.00624561,0.0019492,0.00311885,0.000116694,-0.00184913,-0.0410644,0.00558452,-0.00144914,0.0413438,0.00251154,-0.00605366,-0.0138838,-0.0363305,-0.000980625,0.00968312,-0.00409163,-0.0148175,0.00530768,0.00389461,-0.0179806,-0.00669156,-0.00148747,0.0184307,0.00585823,0.0170211,-0.00843861,-0.000369467,0.0158248,-0.000792511,0.0110557,-0.0147359,0.00993724,0.00287781,-0.00703021,0.00759277,0.0012897,-0.00878067,-0.00567877,0.00709421,0.00118755,0.00735459,0.00997464,-0.0388633,0.00490743,-0.0130252,0.00836272,-0.00516611,-0.00125986,0.00776527,-0.00569126,0.00544354,-0.00822325,0.0336214,0.00287172,-0.00653434,-0.0294166,0.00569501,0.00294876,-0.000913919,0.0256648,-0.0299559,0.0258573,0.00122608,-0.00211462,-0.0134729,0.00139509,-0.00236399,0.00544613,0.0179591,0.00181283,0,0.0229988,0.012042,-0.0326312,-0.00280302,-0.0680336,0.0322632,0.0037865,0.00116717,-0.0277646,-0.0100063,0.0803609,0.0306041,0.0152233,0.0281318,0.00363711,-0.0100105,0.00866207,0.0290109,0.0108367,0.000975482,0.000717612,-0.00462956,-0.00624324,0.0170021,0.0223396,0.0370549,0.0383305,-0.0813367,-0.00453681,-0.0060259,-0.000982446,-0.0076082,0.0386097,0.0348072,-0.00431866,-0.00133789,-0.01453,0.0508351,0.00590962,0.000321944,-0.015923,0.0160978,0.0355561,0.00101982,-0.00697229,-0.00618597,-2.64066e-05,-0.0221555,-0.00339278,-0.0571408,0.0559712,-0.00840551,0.0103579,0.0207522,0.0184127,0.0109618,0.00301622,0.0120118,-0.0361595,0.00511062,-0.000723594,-0.0311829,-0.000243339,0.0201592,-0.0161987,0.0665616,-0.0372055,-0.0201391,-0.00739938,-0.00358613,0.0371469,0.027111,1.91719,0.0383104,-0.0299458,-0.0010913,-0.0118162,0.0165391,-0.0163732,-0.012669,-0.0287192,0.00703106,-0.0167253,0.0392906,-0.00921348,0.00637629,0.0180073,0.00250559,0.0160488,0.00403725,-0.00482323,0.00473806,0.00895283,-0.0196231,-0.038464,0.00137235,-0.0112368,0.0215516,-0.00567644,0.00323225,0.00537385,0.0115104,-0.000816296,-0.00692274,0.030962,-0.00256657,-0.00394322,-0.0372081,0.00312436,0.00157035,0.0248083,-0.00116112,-0.00133417,0.00499758,-0.0171306,-0.00028044,0.00796994,0.0130801,-0.0125963,-0.00179684,-0.0544382,-0.00971342,-0.0112807,-0.00344309,0.0252727,-0.00734179,0.0158447,-0.0750764,-0.00205378,-0.0106387,-0.00418292,0.0074604,-0.00137805,0.0434852,0.00605201,0.007706,-0.0238049,0.0225056,0.000895773,-0.00627053,0.0148333,0.0443487,-0.0044823,-0.00698863,-0.0163071,0.0877749,0.0249339,-0.0216484,0.00568585,-0.0185263,-0.0120861,-0.00546296,0.00344639,0.0316951,-0.00385775,-0.0166564,-0.00254861,-0.016213,-0.0546562,0.00323344,-0.00408929,-0.0330122,-0.0153003,-0.0165965,-0.000329536,-0.0011721,-0.0186629,0.0423539,-0.084072,-0.00178097,1.31406,-0.00285348,-0.0110098,-0.0104962,0.00594365,0.00732412,0.00465448,-0.00654549,0.0441959,0.00778788,-0.0873587,0.0023834,0.00803293,0.0129562,-0.106943,0.0137796,-0.000588268,0.00227807,-0.00576021,0.0093729,-0.053658,0.0167301,-0.00366839,0.0745112,-0.0101904,-0.00963387,-0.0238719,-0.0561086,-0.0368559,0.0175611,0.000683472,-0.0302075,0.0139472,0.00653341,-0.0542827,0.00336368,-0.00450551,0.0218654,0.00807243,0.0222335,-0.00888062,0.0130044,0.0357351,-0.00675829,0.0154127,-0.00479702,0.000710086,0.00534531,-0.00246424,0.0149686,-0.00623434,-4.87468e-05,-0.0157289,0.0779634,0.00317264,0.0833903,0.0109461,-0.0433142,0.0142978,0.0232191,0.00920929,-0.00472586,0.000476368,0.0116787,-0.0103479,-0.0042593,-0.00664857,0.047458,0.00408037,-0.00169722,-0.0412532,0.0165839,-0.000233695,0.00582374,0.0445254,-0.0495003,0.0458339,3.81466e-05,0.00657735,-0.000963556,0.00763065,-0.0112155,0.0209842,0.0247895,-0.00167504,0,0.00689233,0.00776959,-0.0212734,-0.00418825,-0.0265987,0.0370647,-0.00168071,-0.0147387,-0.0134561,0.00332624,0.0412642,0.0133365,0.0091696,0.0142459,-0.000532379,-0.000637138,0.00888272,0.0146566,0.00159027,0.00295682,0.00169323,-0.00333323,-0.00636951,0.0129283,0.0270625,0.0557572,0.00936887,-0.043329,-4.00557e-05,-0.00683522,-0.00191676,-0.012545,0.00912738,0.0144922,-0.0110622,0.00345962,-0.00530851,0.0493914,-0.00935728,0.000125238,-0.00698953,0.000600123,0.0692173,0.00197381,0.00229814,-0.00381443,0.000296914,-0.0293805,0.00309776,-0.0374014,0.0510006,-0.00183716,-0.00208151,0.0375727,0.00492454,0.00366425,0.00592636,0.0211483,-0.024424,0.00504697,0.00668663,-0.0153109,-0.013655,0.0233811,-0.018434,0.0830465,-0.0352352,0.0169976,-0.0117388,0.00666985,0.0321536,0.00403614,-0.00400422,0.0315059,-0.0289788,-0.00313529,-0.00306144,0.0127798,-0.00836553,-0.00783251,-0.0786567,0.00878249,-0.0183292,0.0287671,0.00833196,-0.0136853,0.00704075,-0.00072296,0.0117663,-0.00158004,1.04502,0.00323573,0.00114087,0.00767626,-0.0265849,0.004883,0.000886834,0.00378918,-0.0068288,0.00390587,0.00775856,0.00664243,-0.000365324,-0.00493255,0.017806,-0.00298281,0.0188307,-0.0132539,0.584377,0.00624871,0.0261387,-0.000626861,0.00192049,0.0028521,-0.00930314,-0.000117769,-0.00869732,0.0150725,0.000239235,-0.00632665,-0.0215083,-0.0187105,-0.0103212,-0.000582203,0.0296343,-0.00796248,0.00865432,-0.0119001,0.0023447,-0.0160126,-0.000921126,0.00457884,0.00178588,0.044917,0.0163294,-0.00449053,-0.0167643,0.00832923,0.00238645,-0.00942079,0.00714906,0.0377508,-0.00269623,-0.0350455,-0.00724911,0.0586495,0.00250267,-8.56501e-05,0.00783221,-0.0154601,-0.00708169,0.000507945,0.00422244,0.0360421,0.00645476,-0.00796384,0.00333546,-0.0112016,-0.054731,0.00229657,-0.00333699,-0.0256635,-0.0134661,-0.00759274,-0.000894302,0.00215235,-0.0180765,0.0109506,-0.0772967,-0.00163999,-0.00813029,0.0100183,-0.00196716,-0.00420136,-6.86951e-05,0.00434147,-0.00201357,0.00266237,0.028037,0.00312751,-0.076492,0.00237846,0.00374589,0.0109486,-0.0379556,0.01106,0.0048407,0.00832412,0.000549507,-0.00609584,-0.0705042,0.00564723,-0.00111375,0.0488946,0.00151938,-0.0073881,-0.0273742,-0.0649898,-0.00553762,0.0196522,-0.00208754,-0.0188468,0.0146535,0.00723289,-0.00869595,-0.00315763,-0.00219881,0.0161696,0.00798841,-0.00239194,-0.0348849,0.00273438,0.0478846,0.00300672,0.0314746,-0.0192395,-0.00024017,-0.0127512,-0.00543824,0.0200817,-0.000337451,-0.00643021,-0.00731073,0.0611272,0.00470768,0.0205117,0.0140405,-0.0757771,0.00533456,-0.0264824,0.0106534,-0.00720323,0.00215257,0.00847321,0.0022823,-0.00391179,-0.00900491,0.0230581,0.00377756,-0.00536527,-0.0489501,0.00615764,0.00690091,0.0365857,0.034337,-0.0178611,0.0386692,0.0015341,0.000277441,-0.0137064,0.0110042,-0.00401903,0.0113836,0.0193054,0.00252596,0,-0.00949553,0.00719617,-0.0293927,-0.0100836,-0.033324,-0.135736,-0.00126266,-0.00379205,-0.0445897,-0.00324676,0.0406342,0.0140228,-0.0024711,0.0289082,0.0122658,0.00204343,0.00919385,0.00745061,-0.00437347,0.00288885,-0.00212629,0.00552078,-0.00649889,0.00993369,0.03279,0.0298316,0.0441636,-0.0829396,0.0143843,-0.00253424,-0.00718754,-0.0142151,0.0407968,0.0138553,0.0151294,0.00979008,-0.0289867,-0.00599059,-0.0250739,-0.00056562,-0.00500076,0.0181517,0.107102,0.000593034,-0.00416079,-0.00814362,0.00105183,-0.0444364,0.00182496,-0.034552,0.0083398,-0.0106948,0.0443876,-0.0315688,-0.0063323,-0.00299989,0.00496523,0.00245303,-0.0341752,0.00191673,0.0069913,-0.0317897,-0.0148845,0.0175477,-0.0437964,0.0626276,0.0339753,-0.028445,-0.0148047,0.00654616,0.0540886,0.0217666,0.0497581,0.0391254,-0.0115726,-0.00317411,-0.00574539,0.0343337,-0.03127,-0.0149291,-0.0508047,0.0119446,-0.0189183,0.018401,0.00162913,-0.0144944,0.0106058,0.00523053,0.00851395,-0.00923251,-0.0121988,0.0121898,0.00498463,0.0128545,-0.0613358,0.00430826,-0.0507163,0.00473037,-0.0121406,0.00371892,0.00594107,0.0112142,-0.0035989,-0.00636452,0.0264592,0.00206726,0.0159111,0.0152264,0.0119108,0.00704112,0.0197632,0.00208112,-0.00359272,-0.014324,-0.0319357,-0.00139255,0.00489342,0.019533,-0.0090181,-0.00667802,-0.0536528,-0.0173939,-0.0221843,0.000160111,0.0305124,-0.00773477,0.0132109,-0.0480024,-0.0112377,-0.0430514,-0.00340751,0.00355959,2.34507e-05,0.0382605,-0.0054519,0.0117378,-0.0115251,0.00812034,0.00908354,-0.00989739,-0.0198825,0.0503227,-0.00478339,-0.00465527,-0.00108341,0.0871089,0.00685503,-0.0025815,0.00111646,-0.0067989,-0.00557593,-0.0111575,0.0081177,-0.0220263,0.00504365,-0.0123176,-0.00593297,-0.00678408,-0.463059,0.00253548,0.000644955,-0.0249759,-0.00900516,-0.0187145,0.000526207,0.00392594,0.0296922,-0.00618159,-0.0183764,-0.00224891,-0.0120963,-0.0111572,-0.00201664,0.000659621,-0.00476081,-0.00405201,-0.000765449,-0.00486181,0.0256353,0.00774302,0.00403126,0.00224934,0.00671845,0.00189281,-0.0322369,0.0185724,-0.00312545,0.000371388,0.00316103,-0.00743324,-0.0770309,0.0139218,-0.00228762,0.0505802,0.000695843,-0.00647902,-0.0320098,-0.0899467,-0.0132627,0.02463,0.00104289,-0.0160077,0.0321022,0.0133462,-0.0673816,-0.0158663,-0.00671947,0.0199908,0.00659312,-0.000483896,-0.0363241,-0.00187006,-0.0146526,-0.000555491,0.0326274,-0.00879125,0.05586,-0.0107353,-0.0090576,0.0282823,-0.00298851,-0.00309395,-0.0112012,0.102188,0.00778971,0.0316198,-0.015282,-0.0422886,0.00943581,-0.0102734,0.00697618,-0.00927485,0.00670209,0.00209116,0.000873932,0.0114341,-0.00377214,0.0456446,0.00879829,-0.00369326,0.0027118,0.00302301,0.00270552,0.0578232,0.047735,-0.0394207,0.0491408,0.000467524,-0.00503654,-0.0270508,-0.00254005,-0.00306388,0.016115,0.0186347,-0.00139976,0,-0.030395,0.00128944,0.00136365,0.698745,-0.0241332,-0.00850368,-0.0156736,0.0236664,-0.0131888,0.00591678,-0.0255263,-0.00255496,-0.00570113,0.0142621,-0.000537246,0.0028747,0.019693,0.0244393,-0.015924,0.00259868,-0.000812491,-0.000431309,-0.00727795,0.0218784,0.0257389,-0.0256861,-0.000915941,-0.00779685,0.00235505,-0.0104567,-0.00581353,-0.0302646,0.00505478,-0.0216507,0.00431071,0.00155869,-0.00672323,-0.0675399,-0.0256091,-0.00127726,-0.0004766,0.0150087,0.0845232,0.00235497,0.00566959,-0.0023036,-0.00253418,-0.0264687,0.00708576,-0.018026,-0.0234381,-0.00171158,0.0278914,-0.0636598,-0.00754583,0.00123235,0.00580703,0.00391345,0.00486352,0.00254433,0.00993451,-0.0201712,-0.0164561,0.00104201,-0.0244325,0.0345707,0.0597027,-0.0170089,-0.0315866,0.00210494,0.0146822,-0.000211787,-0.00688961,0.00787725,-0.0101136,-0.00277342,-0.00635254,0.0113345,-0.0152478,-0.0100209,-0.040272,0.00797463,-0.0285501,0.00286219,-0.00291322,-0.0171864,-0.00352937,-0.0118944,0.00147466,0.000699417,-0.0128028,-0.000586554,-0.0137688,0.0229941,-0.0127778,-0.0051491,0.00818486,-0.00305308,-0.014436,0.00320902,-0.00222297,-0.00825651,-0.00161935,-0.00403262,0.00228447,0.000746412,0.00353087,0.0206455,-0.0031735,0.00804911,0.0161662,0.00353668,0.00309416,-0.000704553,-0.0146437,-0.0020713,-0.00098319,0.0145342,0.00228192,0.00116817,0.00427026,0.000811619,-0.00869417,0.00465099,0.00452436,-0.00517607,-0.0193703,0.018321,0.00873031,-0.0422893,0.00343315,-0.0015052,-0.00474465,0.0188047,-0.00424064,-0.0158072,-0.017481,-0.00442671,0.00442511,-0.00437469,0.0054366,0.0226575,0.000295742,0.000192024,0.0047255,0.0209726,-0.0010236,0.0117086,-0.00253245,0.00327917,-0.00187675,-0.00220125,0.0095107,-0.0168933,0.0104877,-0.00566461,0.000644385,0.0103102,-0.00423649,0.000774641,-0.00142028,-0.0149537,-0.0247474,-0.00512689,0.00117685,0.00525146,0.0159607,-0.0303931,0.0375826,-0.600921,-0.0106354,-0.0274757,0.00349441,0.00706859,-0.0306619,-0.00712463,-0.00712697,-0.00188919,0.0187426,-0.00687262,0.058803,-0.00315518,0.000311509,0.0122582,-0.036345,-0.0045933,-0.00469662,0.00169643,0.656118,-0.0123647,-0.0658085,0.00246798,-0.000926245,0.0164955,0.00473682,-0.0148033,-0.0152861,-0.0334966,0.0175851,-0.00259083,-0.0109499,-0.00368303,0.0102855,0.0151762,-0.0145898,-0.0225521,-0.00287507,0.00995783,0.00181008,0.0312078,-0.0286724,0.0123136,-0.00625756,0.00816491,0.0149069,-0.0217079,0.0360302,0.000675453,-0.0104393,0.0153764,0.00448905,0.00236643,0.00797898,0.0221461,0.00858362,-0.0544279,-0.0198767,-0.00468636,0.000694694,0.018009,-0.00189745,-0.00788501,0.000533804,-0.00164869,0.00885572,-0.00898355,-0.00571853,0.0310274,0.00366389,-0.00409213,0.0166441,-0.0078867,-0.00520371,0.00492617,0.00937329,-0.0309074,0.0234328,0.00358536,-0.0142085,-0.0204644,-0.00637695,0.00660616,0.00386732,0.0195883,0.00636798,0,-0.0401849,-0.00459918,0.00918214,-0.0135732,-0.0201367,-0.0313506,-0.0139688,0.00828187,-0.00521059,-0.00221206,-0.0334679,-0.00673844,0.00691722,0.00730475,-0.00656286,0.00661245,0.0111291,0.0322545,-0.0288885,0.00464891,-0.00610672,-0.000581675,-0.00666607,0.0205377,0.00250409,-0.018944,-0.0519953,0.007429,-0.00811409,-0.00279037,-0.00532054,-0.0159846,-0.00742999,-0.0173964,0.00235342,-4.16267e-05,0.00375861,-0.0202828,-0.0138297,-0.00092548,-0.00109137,-0.0131843,0.0306796,0.00319022,-0.00292048,-0.00176805,0.000477691,-0.0150059,0.00589947,0.015745,-0.0154623,0.00486342,-0.0490277,-0.0166756,-0.00372466,0.00449552,0.00430009,-0.00799177,-0.0187844,0.00131038,0.00697909,-0.0102999,-0.00831252,-0.0113601,-0.0137044,0.0215305,0.00238421,0.0173203,-0.00798842,4.01007e-06,-0.0122317,0.0150555,-0.00592603,-0.0191485,0.00715087,-0.000547375,-0.0040964,0.00222497,0.00290671,-0.00182182,-0.0662538,0.00242425,-0.00737578,-0.0115915,0.00135989,-0.00935693,-0.00101094,-0.0158511,-0.00121094,0.0141015,-0.0155014,-0.00692914,-0.00588426,0.0223132,-0.0279012,-0.00140575,-0.00512032,-0.0460279,-0.0178934,0.00169504,-0.00175059,-0.00978912,-0.00141319,-0.00308347,-0.00901631,-0.0012234,-0.00268617,0.0154741,-0.0028299,0.000450719,0.00491957,0.00425082,0.00534723,0.00737293,-0.00417407,-0.0024233,0.0103237,0.00764901,0.00801984,0.00507727,0.0103991,0.0103751,-0.00583956,0.00780347,0.0182188,0.00539762,-0.0249945,0.034947,0.00692704,-0.0789799,-0.00137012,0.00235913,-0.00633573,-0.0189513,0.00207291,-0.0181982,-0.0115293,-0.00993231,0.00848777,0.00391835,0.015356,0.00786083,0.00873507,-0.00847763,0.00700386,-0.00949919,-0.00697698,0.0108343,-0.00133952,-0.00459259,0.00644135,0.00103212,0.011719,-0.0311591,0.00387974,0.00269008,0.00416732,0.00488266,0.0148574,-9.47505e-07,0.00280085,-0.0096842,-0.0175517,-0.00755509,0.00186278,0.00509709,0.0249486,-0.0184784,0.00379339,-1.36482,-0.00131831,-0.0107529,0.00426285,0.00522366,-0.0230882,-0.00480594,0.00992046,-0.00606551,0.0143884,-0.00784612,0.0317264,-0.00115285,-0.000986562,0.00224889,0.043336,-0.0117963,-0.00492657,0.00452932,-0.00222658,1.08421,0.0198077,-0.00134934,-0.00217078,0.0205288,0.0087117,-0.00622196,0.00665643,0.00559044,0.0129498,-0.0072998,0.00812413,-0.00143598,-0.00597281,0.0169819,0.0276482,-0.0136444,-0.587693,0.00011405,-0.00183133,0.0051214,0.005836,0.00504258,-0.0575967,-0.0028123,-0.000745077,-0.0155606,0.0122386,0.00939181,-0.00064916,0.0190503,0.00394539,-0.00551002,0.0101885,0.0176967,0.00827084,-0.0492065,-0.00887693,0.0346804,-0.00559306,0.00885214,-0.0029149,-0.00300579,-0.00342356,-0.00753636,0.00998841,0.000336506,-0.00503607,0.0214857,0.00418115,-0.00308257,0.0187309,-0.0100426,-0.0106666,0.0272098,-0.0410387,-0.0163184,-0.0213909,0.00262816,-0.00446546,0.00572836,-0.000402951,0.00282896,-0.00192319,-0.00766273,0.00673297,0,0.0477195,-0.00176135,-0.0166542,-0.0164995,-0.0273583,-0.0564162,-0.0180825,-0.00720028,-0.0184103,-0.0105756,-0.0721904,-0.0310062,-0.00929052,-0.0165098,0.00552871,0.00381355,-0.00364898,0.00306999,0.0330081,0.00537713,-0.00804799,1.16397,-0.00522874,-0.00931802,-0.0367285,0.0135861,0.096082,0.00463321,0.0237726,0.00459767,-1.34571,-0.0123945,0.0632784,0.0164462,0.000448653,0.0109304,-0.0266945,0.0188779,0.0105135,-0.00146001,0.00186118,0.0123259,0.0390918,-0.00133226,-0.00808738,-0.00523922,-0.000389545,-0.0395029,0.00622013,-0.0306391,-0.0670351,-0.00673796,-0.0198277,-0.0356302,-0.0154718,-0.000159764,-0.00640253,-0.0239529,-0.0594873,-0.0113599,0.00137965,-0.0104107,0.0180491,-0.0250106,-0.0411377,0.027217,-0.0155402,0.0327218,0.0100852,0.00721979,0.0274529,0.0019249,0.107784,0.00769945,0.0269318,-0.00158508,-0.00966801,0.00540492,-0.0211483,-0.00405148,-0.00036778,-0.00537988,0.00761632,-0.0689825,-0.00136103,-0.0247821,-0.000296309,-0.00522864,-0.00862487,-0.00327884,-0.0170161,0.00614913,-0.0205255,0.0266251,-0.0997928,-0.000854534,-0.143621,-0.0147553,-0.0196927,-0.000425296,-0.00575527,-0.00989938,-0.0047681,1.49726e-06,-0.0212585,0.00425398,0.00590811,0.0423494,0.00680466,-0.00494093,-0.00675024,0.00714456,-0.00158132,-0.000102901,-0.0226964,-0.00200583,0.00186099,0.000649199,0.00683042,0.0180824,0.0356681,0.00964902,-0.0274116,0.00744897,0.00538924,0.00765886,0.00336127,-0.0213183,-0.0159079,-0.010362,-0.00464915,-0.000711524,-0.0125688,0.0123386,0.000628597,0.028647,0.00420581,-0.0160042,-8.55638e-05,4.3819e-05,-0.0162848,-0.000676656,0.00447068,-0.0346446,0.0198169,0.00343418,-0.00500021,-0.010604,-0.00627345,0.0330404,0.0068641,1.66295e-05,0.0141919,-0.0630708,0.000502404,-0.000910953,-0.0109806,0.00527543,0.066111,-0.000529813,0.00545391,0.0187869,0.036268,-0.00597731,0.00556116,-0.000752742,0.0370353,-0.0129125,0.0202586,0.0026099,0.000861214,0.000587078,-0.00171903,0.00689401,-0.0107104,-0.0210266,-0.000878835,-0.0203494,0.0951242,-0.00223832,0.0482128,0.00436029,-0.00118719,-0.0033622,0.0710479,-0.0102028,-0.0216986,-0.00972581,-0.00743035,-0.00491783,0.0202962,0.0142682,-0.00464741,0.0986191,0.0104296,-0.0060492,0.00713008,0.0197851,0.0269308,-0.0228521,0.00291495,0.0110763,-0.0134078,0.0192846,-0.0948569,-0.0210755,-0.0041986,-0.00754918,-0.00243019,-0.0121069,0.0064059,0.00833346,-0.10134,-0.0370032,0.00613289,-0.248561,0.0728576,-0.00407442,-0.00512871,0.00664021,0.00319825,0.0110183,0.0147191,0.109027,0.00822121,-0.058386,0.0145048,0.0211109,-0.00427621,0.0328437,-0.0108549,-0.00130532,0.00270569,-0.00460208,0.0174677,0.00231637,-0.00567913,0.00584003,0.0171267,-0.000991529,-0.000491576,-0.0197264,0.00396864,-0.00431209,0.0376916,-0.0580421,0.00724363,0.00243699,-0.0153204,0.0105698,-0.0262503,0.00431052,0.00786816,0.0119814,-0.0032168,0,-0.00688372,-0.000638453,0.0101046,-0.0162803,0.0319865,-0.0700072,-0.0166799,0.0207461,0.0189879,-0.00643429,-0.0275133,-0.0143834,0.00508125,-0.00511046,0.00623104,-0.0174587,-0.00453094,0.0336032,0.0146987,0.00565365,-0.00559472,-0.0049701,-0.003556,0.00899491,0.000412603,-0.0104006,0.014901,0.00334622,0.00926347,0.00479472,-0.00715894,-0.000659421,0.0206534,-0.0496101,0.0155646,0.00210324,-0.00417358,0.0239699,0.0103823,-0.00122149,-0.00151853,0.0428322,0.0454719,-0.0023441,0.00136979,0.00125366,-0.0013839,-0.041763,0.0100118,0.048475,-0.059646,-0.00631438,-0.00769383,-0.0386704,-0.00678717,-0.0032385,0.00857169,-0.0249127,0.02462,-0.00300564,0.00745146,-0.0268422,0.0137306,-0.00696684,-0.00940923,-0.0793123,-0.0336386,-0.0175839,-0.00689195,0.00807208,0.0179205,-0.00326909,0.016188,-0.0305835,0.0285946,-0.00101694,-0.0128581,-0.00114682,0.00212149,8.82815e-06,-0.00833011,0.00438279,0.00839203,-0.0024654,0.00459464,-0.0111545,0.00710735,0.00238645,-0.00636265,0.0208826,-0.0173237,0.0224469,-0.013865,0.0122587,0.0416597,0.00755444,-0.0457677,1.83948,-0.0187535,0.00207309,0.000737419,-0.00483604,-0.000662714,0.000138031,0.00692253,-0.00229126,0.00504407,0.0122008,-0.00937529,-0.00412185,-0.0325342,0.00385412,-0.00571479,0.000712434,-0.0215079,-0.000384281,0.00954811,0.0138238,0.00344266,0.0178824,0.0199282,-0.00162582,-0.00521911,0.00588805,0.0237953,0.00757772,-0.0198553,-0.0465452,0.00720671,-0.0590963,0.00358192,-0.00305079,-0.00521278,-0.0549345,-0.00322363,0.000793426,-0.0106958,-0.0161017,-0.014143,0.0052314,0.0332563,-0.000519816,0.00339402,-0.0167349,0.010552,-0.0477245,-0.0053271,-0.00341772,0.00109785,0.0146877,0.0185147,0.0032062,0.014323,-0.0590152,-0.0175255,-0.000894944,-0.00841553,0.0108216,0.0392646,0.000182751,-0.00358552,0.0324244,0.0105691,0.00989244,0.00104211,-0.000863093,0.0417633,0.00844877,-0.000745274,0.00181134,-0.00351697,-0.019689,0.00350931,0.00430654,-0.000707724,-0.00226694,0.0039083,-0.00245031,0.00494996,0.00359124,0.0378117,0.00577081,0.0015287,0.0311347,0.133581,-0.00220632,0.00803603,0.00166285,-0.0031469,-0.00767834,-0.0224118,-0.0103235,-0.00222968,-0.0347867,0.00924985,0.00609838,-0.00723352,0.0142744,0.0111878,-0.021834,-0.0120773,-0.00259536,0.00161732,0.0183353,-0.023133,-0.000215459,-0.000532619,0.00131425,-0.00600647,-0.0184334,0.00388496,0.0203461,-0.0824395,0.0225295,0.00229363,0.00439811,0.054723,0.0046969,0.00291643,0.00968001,-0.00528944,0.0200797,0.00500542,0.0389996,-0.388944,-0.0128119,0.00696583,0.0478931,-0.000279261,-0.00984236,-0.0100528,0.00160441,-0.000975601,-0.00746334,0.00835553,-0.0179508,-0.00787732,0.0225147,0.00921474,0.0008245,0.0129642,-0.0103616,-0.0084166,-0.0710611,0.0277396,-0.0128697,0.0123858,-0.00289319,-0.0078602,0.0152444,-0.00503276,0.0026956,0.0190718,0.0239366,0.00876536,0,0.0118432,-0.00778424,0.00973868,-0.0129075,0.0348428,-0.0232195,-0.00746752,0.018947,0.0159646,-0.000958843,-0.023023,-0.0283389,0.0189947,-0.00772094,0.00259663,-0.016936,0.0087438,0.00667866,0.0297091,0.00589305,-0.00509385,-0.00706807,-0.00579091,0.0199459,-0.00424577,-0.0261687,0.0149906,0.012133,0.00890181,0.00127219,-0.00296728,-0.00262038,0.0165133,-0.0438758,0.0133077,0.0102427,-0.0143166,0.0372801,0.0164393,-0.000957288,-0.00201888,-0.386396,0.026305,-0.000267195,0.00146833,-0.00147595,0.00517904,-0.0241684,0.00520664,0.00780146,-0.00986412,-0.00609776,0.000229453,-0.0335377,-0.00873511,-0.0078178,0.00357066,-0.0246581,-0.0120365,-0.00908204,0.00608428,-0.00785913,0.0161976,-0.0042585,-0.0190474,-0.0689631,-0.0420611,-0.0299028,0.002643,0.0140129,0.0021865,0.000124469,0.025566,-0.00673162,0.0196157,-0.00414119,-0.0142395,-0.0168429,-0.00878176,0.00400614,0.0967679,0.00131479,1.44456e-05,-0.0216893,-0.00249145,-0.0215911,-0.00770128,0.000612345,-0.00457019,0.0313077,-0.0149735,0.00916698,-0.0102963,0.0262074,-0.0138371,-0.215578,-0.0254545,0.00525816,-0.0165588,0.00174407,-0.000426526,-0.00372826,0.00054153,-0.193541,0.0017236,-0.00597517,0.0172561,-0.0294386,-0.00660036,-0.00305573,-0.0323338,0.00398308,-0.00472013,-0.00144441,-0.0185227,-0.000696952,-0.00287565,-0.000268588,-0.00100658,0.0181829,0.019312,-0.0245878,-0.0141045,-0.00121667,0.0374345,0.00501751,-0.0282692,-0.0356372,0.00330015,-0.0146855,0.00325647,-0.000619202,-0.0078589,0.00332204,0.00175962,-0.00449179,-0.0172464,-0.00652213,-0.0104116,0.00387088,0.0161895,-0.00705409,-0.00434633,-0.015914,0.00759692,-0.00931796,0.00353349,-0.000445447,-0.00170844,0.000497165,0.00867947,0.00918213,0.0124039,-0.0295771,-0.00803656,-0.00656987,-0.00423838,0.0102999,0.0262805,-0.000619729,-0.00917798,0.0138676,0.0198327,0.0138657,0.00177524,-0.00321654,0.0387833,0.0391333,-0.0338426,0.000881312,-0.00636427,-0.00379566,-0.00550356,-0.00358868,0.0121753,-0.00595943,0.00393194,-0.00723879,-0.0065975,-0.00367515,0.0148957,0.00124961,-0.00481249,0.0177078,0.0940722,0.983536,0.000115355,0.00692344,-0.00392239,-0.00642193,-0.00174236,0.00631227,-0.0022429,-0.0395821,0.00226927,-0.00199695,-0.0231542,-0.00085739,0.00216881,-0.00822856,0.00637678,-0.0101828,-0.0049247,0.0163083,0.00121161,0.00458929,-0.00127772,0.00136782,-0.00605808,0.00171165,0.016302,0.0175906,-0.032277,0.000226867,0.00782782,0.0111607,0.0377043,0.00343806,2.67668e-07,0.0143499,0.000906776,-0.00523851,0.00762136,0.048901,0.00879489,-0.00632201,0.00591955,0.0318169,-0.00107976,-0.0124532,-0.0130889,0.000217351,0.000714365,-0.00555519,0.00646164,0.00133897,-0.00750093,0.0098019,0.00579081,0.00571708,0.00669179,-0.00823331,-0.00701793,-0.0150269,0.0109348,-0.0124053,0.0119329,-0.00273276,4.50468e-05,0.0204611,0.00112411,0.00142064,0.0116177,0.0181634,-0.000555154,0,0.0270959,-0.00598339,-0.654513,-0.0156125,0.0298753,-0.0278484,0.00483619,0.00606054,0.00499634,0.00172418,-0.0470439,-0.0299132,0.0134878,-0.214808,-0.00533583,-0.00942146,-0.00213612,0.00997743,0.042086,0.00749429,-0.00582514,-0.000429144,-0.00420419,0.0358367,-0.0135384,0.00714436,0.0830219,0.00891694,0.0222102,0.0075918,-0.00904308,0.00637489,0.043294,-0.0134304,0.00946659,0.00290611,-0.0109548,-0.00695052,0.0176744,-0.000384737,-0.0053726,0.0466519,0.0347034,0.000863104,0.00684098,-0.00016755,0.00429268,-0.0254737,0.0102041,0.00218085,-0.0123541,-0.00713864,0.0457605,-0.0628694,-0.0122811,-0.0099272,0.00429987,-0.0255905,-0.0412679,-0.0163999,0.00337313,-0.00808488,0.0298728,-0.00273964,-0.0166824,1.09362,0.00879486,-0.0174493,0.0147939,0.0214878,0.0174141,-0.0108406,0.0954089,-0.000369837,0.0299893,-0.0084872,-0.0147399,0.00803414,-0.0196053,0.00871525,0.0873559,-0.00144083,-0.00461921,-0.0568122,0.00298239,-0.0151415,-0.00738433,0.00408001,0.000207592,0.0277304,-0.012454,0.00990806,-0.00889974,0.0220999,-0.0429395,0.00176512,-0.0762447,0.00688123,-0.0161006,0.00170324,0.00270581,-0.00551957,-8.04972e-05,0.00117894,-0.0155724,-0.00329713,0.0319324,-0.0403422,-0.0240173,0.000334987,-0.0544994,0.00468153,-0.00547706,-0.011527,-0.0122493,9.28024e-06,-0.00802442,0.00330052,-0.00274714,0.00296193,0.0357712,-0.0322378,-0.0214055,-0.00107989,0.0314769,-0.00146017,-0.0225298,-0.00610621,-0.00059736,-0.0235303,-0.00523867,0.00113004,-0.00783118,0.0610351,-0.00954539,0.0156307,-0.0152413,-0.0103804,-0.016069,0.0120963,0.0439688,-0.0018104,-0.000416515,-0.023218,0.00591963,0.0193315,-0.000851071,-0.0127727,0.00134246,-0.0208309,0.00985693,-0.00121915,0.0105018,-0.0272203,-0.011169,-0.0030113,-0.00256699,0.00918315,0.0241745,-0.00151293,-0.00851762,0.0174037,0.0161751,-0.00601865,0.00454195,-0.00424153,0.0543567,0.0530092,0.00978357,0.00234302,-0.00794279,0.022576,-0.00569854,-0.00899741,0.00168389,-0.00436526,0.00325568,-0.0107538,0.000867368,-2.98306e-05,0.0128501,0.00635144,-0.00332798,0.0239943,0.0549632,-0.00319121,-0.0043394,-0.00215703,-0.00216964,0.000637801,0.084965,0.00561987,-0.000802431,0.0511477,0.00716431,-0.00571545,-0.0242098,0.00469955,0.00920099,-0.00554064,-0.00368373,-0.00826325,-0.0117199,0.0155648,-0.0637181,-0.00268734,-0.001462,0.00948302,-0.00713832,-0.00877329,0.0180513,0.0241492,-0.0432508,-0.0202508,0.001574,0.00523928,0.0436384,-0.00214178,-0.00447195,0.00884576,-0.00196252,0.00268634,0.0139531,0.0796074,0.00704642,-0.0209455,0.00602071,0.00510136,0.00136184,-0.0245448,-0.0120083,0.00445091,-0.00356247,5.05543e-05,1.96024e-05,1.31826,-0.00521453,0.0200859,0.0120541,0.00869872,0.00822011,-0.00911602,0.0102296,-0.0391303,0.0546493,-0.0268985,0.0318608,-0.00756735,-0.00737158,0.0237736,-0.00882494,0.000652739,0.00794614,0.0337228,0.00283414,0,0.0622042,-0.00556722,-0.00161849,-0.0139646,-0.0242924,-0.0444287,0.0100351,-0.0262902,0.0206149,-0.0106887,-0.00489313,0.00303272,0.0284863,-0.00987241,-0.0129104,-0.0248991,-0.0154169,0.0100676,0.0638521,0.00886613,-0.00255292,-0.00273428,-0.00287018,0.0432712,0.00972521,0.0474251,0.0977765,-0.0359707,0.0139381,0.00860935,-0.010823,0.019318,0.0621355,-0.00373708,0.00697216,0.00324621,-0.0233773,0.0727193,0.0480988,0.000445592,-0.00443834,0.0186234,0.0308586,-0.000377798,-0.00190142,0.00111836,0.00834313,-0.0197064,0.00343761,-0.343242,0.00330999,-0.00645125,-0.00447753,0.00180369,0.00147327,7.76702e-05,-0.00416418,-0.0260516,-0.0612984,0.85939,-0.0054111,-0.014274,0.0561916,-0.014232,-0.0124118,0.0281206,-0.128356,0.0207204,0.000960025,0.01613,0.0250873,-0.00190968,0.117825,0.000718549,0.0209024,-0.00862288,-0.0151687,-0.00129241,-0.014861,0.000171881,0.153112,-0.00575813,0.0189717,-0.0291988,0.00513468,0.0271426,-0.00891198,0.000968884,-0.760658,0.0248567,-0.0111282,-0.00945919,0.0122871,-0.0160241,-0.0728107,0.00478681,-0.0828915,0.0322368,-0.0145842,0.000744026,0.00475184,-0.000614378,0.000781871,0.00107692,-0.0244347,-0.00386183,0.021759,-0.0684619,-0.00778314,-0.013821,-0.0355806,0.000842488,-0.00439482,-0.00645669,-0.0120449,0.00077403,0.0105806,-0.00621831,-0.00307535,0.0220738,-0.0352466,-0.0106607,-0.0184937,-0.00910936,0.0216534,-0.00320804,-0.0308379,-0.0189329,-0.00331444,0.0723747,-0.0134691,0.00536429,-0.00572046,0.0842567,0.00418361,0.026441,-0.00963216,0.00379011,-0.787908,0.0160038,0.0307655,0.000425688,0.000412892,-0.0469262,0.00195346,0.0306947,0.00238593,-0.0396449,0.00540013,-0.0108438,0.00177398,-0.00954011,0.00924573,-0.0385322,-0.01659,-0.00210167,-0.00246688,-0.00236774,0.0187273,-0.000581512,-0.00519158,-0.00527517,0.0328951,0.0120635,0.00222035,-0.00218754,0.0465593,0.0935008,-0.112365,0.00449769,-2.87035e-05,0.0567964,-0.00877391,-0.0224508,0.0311865,-0.000605042,0.0239305,-0.0135225,0.0197781,0.0164279,-0.100372,0.0109732,0.00474432,0.0310088,-0.0681789,0.00250777,-0.0151484,-0.00427298,-0.00690531,0.010567,0.0155266,0.0212615,-0.00165583,0.0482512,-0.0173305,-0.00115063,-0.00624327,0.0144058,-0.0277582,-0.00540072,-0.00295867,-0.0150467,-0.0059528,0.0154669,-0.0638243,0.0168554,0.00222371,0.00716358,-0.00811975,-0.0567491,0.0320182,0.0569921,-0.0637545,-0.0306214,-0.0122113,0.0246432,0.032981,0.00316673,0.00309081,0.00430061,-0.00294699,0.0171008,0.0145176,0.0730046,0.00724693,0.0385303,0.0460099,-0.00928871,0.00166893,0.0223103,0.00227972,0.00440495,0.00115303,0.00222601,-0.00804867,0.0163062,-0.00543392,0.00642507,0.00620984,0.0131969,-0.0686826,0.00021632,-0.00146998,0.0227137,0.0288042,-0.0227906,0.0186338,-0.0119215,0.000140305,0.0517494,-0.00554926,-0.00612901,0.00989884,0.0215735,-0.00677183,0,0.0422477,-0.00939616,-0.00278126,-0.0118278,0.0218756,-0.0271669,0.0161673,-0.00741201,0.00797267,0.00287299,-0.0225671,-0.00166461,0.0332175,0.00172958,-0.0122996,-0.00372288,-0.00541624,0.0131126,0.0188644,0.00728929,-0.00150939,0.00154747,-0.00187617,0.0396025,0.0370106,0.0427857,0.070119,-0.0144197,0.0138803,0.0056869,-0.00758673,0.00688645,0.0276259,-0.022601,0.0114222,0.00425838,-0.0218902,-0.0282091,0.00869419,0.000895486,-0.0136503,0.0146532,0.0449089,0.000849851,0.00601958,0.00158116,0.00428694,-0.0105154,0.0126453,0.0110649,0.0133376,-0.0106688,0.0174958,0.0116568,0.00567374,-0.00429688,0.0134009,-0.0195356,-0.0195612,-0.00622474,0.00609466,-0.0148447,0.0218865,-0.00190193,-0.0108587,-0.0175645,-0.0576858,0.00699338,0.00761659,0.0158299,0.0166503,-0.0188882,0.0460552,-0.00850764,0.0216042,-0.00398401,-0.00481029,0.0148087,-0.011785,0.00425395,-2.4871,0.00995479,-0.00185454,-0.032554,0.0115603,-0.000157075,-0.00117784,0.00064475,0.0014771,0.0217759,-0.00782485,-0.0231105,0.00717021,0.0133952,-0.0113961,1.07365,-0.0788972,0.0176283,-0.0119841,0.00156031,0.00753246,-0.0014275,0.00314458,0.00183047,-0.0299194,-0.00533374,0.0257629,-0.0638276,-0.0215474,0.00180124,-0.0409467,-0.00247372,-0.00479115,-0.00789198,-0.00901965,0.00103816,0.00240079,0.0203278,-0.000295659,0.00230687,0.00433258,-0.0108582,-0.019049,-0.0073968,0.0533629,-0.0119433,-0.0326218,0.0305605,-0.000403683,0.00707364,-0.00893975,0.00198243,0.0035817,0.0460231,0.00307545,0.0124468,-0.0269997,-0.00873913,-0.0205099,0.0156424,0.0282707,0.0215421,-0.00232074,-0.0341813,0.0030307,0.0140396,-0.00923831,-0.00945583,0.0129434,-0.0260741,0.00371028,-0.0105818,0.00559014,-0.19566,-0.00438558,-0.00128625,0.00942002,0.000571786,0.0195709,0.000237371,-0.00972951,-0.0294084,0.0172405,0.00916949,0.00348121,-0.00107806,0.0432509,0.0553015,-0.0737744,0.00364878,-0.0126497,0.0422767,-0.00139876,-0.0134985,-0.00308684,0.00327302,0.00826456,-0.00125744,0.00117906,0.00624005,-0.0683055,0.0128939,0.000358326,0.0234871,0.0360921,0.000598709,-0.000209479,-0.00476283,0.00381274,0.00439383,-0.0291082,0.00840701,0.00157336,-0.0317655,-0.00208329,-0.00377688,-0.0145661,-0.00248694,0.00338932,0.00981823,0.00541571,-0.00990865,-0.00515719,0.0131578,-0.0286393,-0.0015949,0.00258917,0.0300641,-0.000637179,-0.0482397,0.00531412,0.0383161,-0.0271017,0.00129205,-0.0135219,-0.00579109,0.0516049,-0.00714014,0.00154288,0.0264218,-0.00221566,-0.0123636,0.0179974,0.0651317,0.00633931,-0.0124271,0.0233313,-0.0369963,-0.00267421,-0.0733345,0.00118673,0.00662911,-0.00204525,0.00194572,0.00160883,0.0236771,-0.0122739,0.0318,0.00828441,0.0126224,-0.0363754,-0.00652951,-0.0095446,-0.0291251,0.0191604,-0.0115397,0.0128018,-0.00621544,-0.00301706,0.0326743,-0.0135569,-0.000921619,0.00447089,0.0143322,-0.00111075,0,-0.00519968,-0.0063691,-0.0172374,-0.00599717,0.0568959,0.0432606,0.0061741,-0.00711982,-0.00524273,0.00412871,-0.0024707,-0.0207956,0.0132699,0.0122943,-0.0144482,0.00751729,0.00861691,0.0390446,0.00402649,0.00385317,0.00218597,-0.0107812,-0.00247416,0.00300984,0.0247459,0.0270437,-0.0452024,-0.00982949,-0.0137535,-0.00402144,0.000583202,-0.0128654,-0.0301466,-0.0223503,-0.014294,0.00555611,0.0138103,-0.0408719,-0.0030951,0.000442818,-0.00701882,0.00447927,-0.0118516,0.00338896,0.0109203,0.000609452,0.00504905,0.0195002,0.0103394,0.0583277,0.033897,-0.00288942,-0.0165638,0.0752741,0.00442844,-0.00707965,0.0176513,0.0145789,0.0670884,-0.00459809,0.0105518,0.000317779,-0.000122226,2.26832,-0.00169185,-0.0412161,-0.0554005,-7.5052e-06,0.00336479,0.0170352,-0.00216427,-0.0369767,-0.0622176,-0.0401042,-0.0111012,-0.00425499,0.00780321,-0.0033634,0.0045675,0.00565585,0.0653539,0.015046,-0.023036,0.00114017,0.0121081,-0.0305029,-0.000106936,-0.00151371,-0.00424375,0.00790977,-0.00493201,-0.0162531,0.00350504,0.0343911,0.0900338,0.00740074,0.0431516,0.0226395,-0.0108241,0.00187205,0.00488239,0.000605945,0.0025947,0.00129958,-0.0149909,-0.00788356,0.0302267,-0.0437785,-0.0167838,0.0109632,-0.0291607,-0.00240723,-0.00306554,0.0100226,0.0148336,0.000873569,-0.00436914,0.0318569,0.00756417,-0.00895214,0.0379278,-0.0375174,0.0244907,-0.0092122,0.0402296,-0.0123775,-0.0169765,0.0595221,0.00848276,-0.0140559,0.00558157,0.000149192,0.00600868,-0.0419835,0.0182524,-0.0174771,-0.0180586,-0.0171861,-0.0228191,0.00978843,0.0115719,0.0209234,-0.00792918,-0.0212414,0.00232893,-0.00671925,-0.00838198,0.015254,0.0133223,-0.0336487,-0.000994078,0.00503239,0.00200317,0.0338008,0.00366417,-0.000824754,0.009571,-0.00210129,-0.047844,0.00251062,-0.00972342,-0.0293791,-0.00487205,-0.00576666,0.00262255,-0.00120758,-0.0318013,-0.00219239,-0.0677107,0.00284856,-0.012163,0.0218868,-0.00160529,-0.00894256,-0.0230198,0.00631688,-0.00711633,0.0191327,-0.00998329,-0.00656996,-0.0297886,0.00250705,-0.00465051,0.0118913,0.106512,-0.000941929,0.0189229,0.00592382,0.00665686,-0.0107812,-0.036104,-0.0160677,0.00230309,-0.0831587,0.00225641,-0.00257106,-0.0235027,0.00310926,0.00596033,0.0146003,0.00895833,-0.00557464,-0.00795067,0.0115782,0.0611463,-0.0110274,0.00159125,0.0270421,-0.00465791,-0.0233423,-0.00925556,-0.00588958,0.0619425,0.0356738,-0.000339348,-0.0173664,-0.0319114,-0.0107784,0.000771306,0.0196712,0.00139193,-0.0238655,0.0135642,0.00404725,0.00477921,-0.0218368,0.00968718,-0.0251547,-0.00590014,-0.11102,0.000725519,0.00359,-0.00168208,-0.000898813,-2.78043e-05,0.0145906,-0.0175789,0.0384323,0.00169474,-0.0118709,-0.0184536,-0.00378292,-0.00482346,-0.06596,0.00481907,0.0235322,-0.00504201,0.00300972,0.00401989,-0.00111641,0.0080213,-0.000747307,-0.00528159,0.0124426,0.00187369,0,0.00011546,-0.00339082,-0.0304541,-0.00417466,0.0240242,0.0343334,0.00369701,-0.000664786,-0.0329997,0.00305151,0.0319538,-0.01897,0.0106137,0.00693541,-0.0127934,0.00400486,0.0101455,0.0264131,0.00673137,0.00208303,0.00043872,-0.013275,-0.00183763,0.0165874,0.027311,0.0125199,-0.0285764,-0.027957,-0.00975818,-0.00312352,0.00263067,-0.00982534,-0.0191638,-0.0292988,-0.0207923,0.00740221,0.0121614,-0.0473054,0.0104121,0.000315087,-0.00912706,-0.0027662,-0.0223524,0.00183538,0.00238507,-0.000134051,0.00511243,0.0365793,0.00431907,0.0331162,0.0461236,-0.00561655,0.0205103,0.040132,0.000242561,-0.000179379,0.0134081,0.0145126,0.0285232,-0.000296963,0.0064029,-0.00838999,0.0115898,0.0117912,-0.0115402,-0.0366468,-0.0286312,-0.0186695,0.000178032,0.0154855,0.0158895,-0.0308327,-0.0343214,-0.0308059,-0.0189141,-0.00269347,4.40241e-05,0.00989578,-0.00980033,-0.00278791,0.0429855,0.013039,-0.0118719,0.365041,0.0040254,-0.0233886,0.00402633,0.00116461,0.00237616,0.0105,-0.00339288,-0.0147614,0.011575,0.0238286,0.0506075,0.00587849,0.0335068,0.00506674,-0.00817952,0.00118619,0.00338287,0.00321231,0.00200459,-0.000360648,0.00138611,-0.00763753,0.0195182,-0.0464187,-0.0168988,0.00558095,-0.00189785,-0.00402812,-0.00723969,0.00927312,0.0144485,0.000345837,0.00289375,0.0234838,-0.00252552,-0.0132191,0.0193733,-0.0393576,0.0322014,-0.0108509,0.0257885,-0.0111167,-0.0141895,0.0409859,0.0070339,-0.0128524,0.00641992,0.00227193,0.00154627,-0.0256069,0.0105975,-0.0145556,-0.0308939,-0.0111205,-0.0109735,0.00524123,0.0246869,0.0217094,-0.00993082,-0.0107525,-0.00183751,0.0121141,-3.06652e-05,-0.00134529,0.00733436,-0.0305996,-0.00749936,0.0047163,0.000489532,0.0303401,-0.00808575,-0.00739926,0.00396266,-0.000796091,-0.0694155,0.00261924,-0.00780972,-0.0304892,-0.00916114,-0.00653175,0.00376235,-0.00428075,-0.0428194,-0.00179808,-0.0322732,0.00234973,-0.0118005,0.0104644,-0.00517043,-0.00931958,-0.0138096,0.00723794,-0.00161159,0.00912491,-0.00936683,-0.00341307,-0.0271464,0.00349561,-0.0016952,0.0196839,0.0767659,-0.00184625,0.0128242,0.0051837,0.00251091,-0.00184152,-0.0304474,-0.0102832,0.000426161,-0.0197705,-0.00328008,-0.00467,-0.0281401,-0.00137266,-0.0146659,0.0659172,0.00740922,-0.0064866,-0.00719535,0.00884498,0.0395507,-0.0123746,-0.000807004,0.0188724,-0.00574956,0.00320633,-0.00366176,-0.00181493,0.0490223,0.0318214,-0.00337741,-0.00990802,-0.0444007,-0.0044054,0.00165494,0.0127633,-0.0063955,-0.0147488,0.00762381,0.0378773,0.00366216,0.0237753,-0.0085836,-0.0168183,0.000788204,-0.0557712,-0.00666042,0.00198265,-0.00257932,0.00115315,-0.0144241,0.00937692,-0.0189687,0.0348661,0.00483384,-0.0105348,-0.00074643,-3.31291e-05,-0.00551582,-0.0833293,0.0233388,0.0223757,0.0104717,0.00151568,0.00489815,0.00564803,0.00722556,-0.0068551,0.00246522,0.0221526,0.000586033,0,6.8631e-05,-0.00324878,-0.0259071,-0.00364213,0.0348139,0.027998,0.00395324,-0.00608504,-0.0292257,0.00352361,0.0326416,-0.0130907,0.00941216,0.00938544,-0.0122377,0.00469687,0.00920088,0.0248109,0.00608838,0.00167572,0.000456389,-0.00721827,-0.00188989,0.00896578,0.0214421,0.0105757,-0.0463163,-0.026886,-0.0117857,-0.00245621,0.00328425,-0.00789343,-0.0299935,-0.0290783,-0.0150277,0.00612989,0.0112689,-0.0278546,0.0109325,0.000100776,-0.0072013,-0.00720607,-0.0223525,0.00176737,0.00395123,0.000362223,0.00447051,0.0282614,0.00400414,0.0393974,0.0411084,-0.00410872,0.00171617,0.0495425,0.00136006,0.000492354,0.0125529,0.0126639,0.0285205,0.00326705,0.00650936,-0.00196692,0.0107377,0.0119305,-0.0113204,-0.0285896,-0.0300634,-0.00992034,-0.000506837,0.0125256,0.0114654,-0.0265138,-0.0445791,-0.0316088,-0.0168131,-0.0024783,0.00395096,0.00850481,-0.00714787,-0.00337447,0.0136394,0.012738,-0.0136249,0.0170734,0.00586945,-0.0162162,0.00349393,0.00109715,0.00159897,0.0100772,-0.00337595,-0.0126783,0.011212,1.62048,0.0449138,0.00684086,0.0328056,-7.38972e-05,-0.00686235,0.00116058,0.00375162,0.00361589,0.00226475,-0.000263482,0.00205199,-0.00695717,0.021282,-0.0414158,-0.0104324,0.00447616,0.00795249,-0.00359126,-0.00621717,0.00926037,0.0129483,0.000374915,0.00100015,0.0221864,-0.000108477,-0.0108452,0.016895,-0.032085,0.0298302,-0.0091094,0.0224664,-0.0100251,-0.0122781,0.0394092,0.00717525,-0.000795854,0.0051095,0.00212154,0.00331316,-0.038653,0.00933974,-0.0195053,-0.0269575,-0.0128087,-0.00526833,0.0053143,0.0157964,0.0211296,-0.00903578,-0.0131993,2.10798e-05,0.0120979,0.00126422,0.000879345,0.00698679,-0.027854,-0.00496857,0.00399675,0.000363455,0.0235493,-0.00729966,-0.00475041,0.00431271,0.000547323,-0.0624358,0.00192271,-0.00548641,-0.0309048,-0.00778955,-0.0072868,0.00254126,-0.00340006,0.127492,0.00235617,-0.0416096,0.00150643,-0.00898116,0.0136434,-0.00221837,-0.00873195,-0.00845022,0.00681424,-0.000175969,0.00940072,-0.0115021,0.00019396,-0.0380032,0.00262143,-0.00240542,0.0187793,0.074221,-0.00097764,0.0142512,0.00661959,0.003047,-0.00438635,-0.0255135,-0.0110808,0.000583111,-0.0397161,-0.00448201,-0.00158563,-0.0207819,-0.00378071,-0.011537,0.0137057,0.00755659,-0.00411592,-0.00395967,0.00732043,0.0471268,-0.00916653,-5.39005e-05,0.0194114,-0.0054255,-0.0174173,-0.458437,-0.00267639,0.0395489,0.0321334,0.00171112,-0.0101937,-0.041734,-0.00629555,0.0022305,0.0116313,-0.00365726,-0.0064228,0.00491212,0.0362223,0.00360071,0.0271383,-0.00490977,-0.0139237,-0.00111749,-0.0752125,-0.00319679,-0.236259,-0.00152199,0.00142767,-0.0111582,0.00901585,-0.0168598,0.0352139,0.00318685,-0.0141659,-0.00488936,0.000367087,-0.00360787,-0.0421985,0.00514393,0.0291959,-0.00451096,0.000185285,0.00641649,0.00638239,-0.0176137,-0.00701819,-0.000423938,0.0120267,0.00142646,0,-0.0127839,-0.00113766,-0.0174465,-0.00316204,0.0658138,0.016527,0.000412537,-0.00594317,-0.0192632,0.00547966,0.00966091,-0.0159091,0.00239402,0.00844451,-0.0088648,0.00768223,0.0037844,0.0262155,-0.0068958,0.000650423,0.000226305,0.00177023,-0.00181493,0.00596944,0.0123894,0.0187745,-0.0550832,-0.000566368,-0.012799,-0.00068384,0.00123745,-0.00413185,-0.0249969,-0.0422687,-0.00618474,0.00193799,0.0129764,-0.0171175,-0.00530501,0.000130193,-0.00349935,-0.00739167,-0.00302489,0.00142886,0.00488232,0.00154669,0.000376115,0.0103906,0.00718156,0.0532038,0.0146393,-0.00115301,-0.0162867,0.0397332,0.00285827,-0.00321411,0.010843,0.00926387,0.00391238,0.00158265,0.00769378,-0.00353329,-0.00501505,0.0116789,-0.0128795,-0.0106576,-0.0372675,0.0169547,-0.00287126,0.00913519,0.0109522,-0.0238349,-0.0401291,-0.0274946,-0.00625608,-0.00177628,0.00364205,0.00372438,7.51527e-06,0.00301713,-0.0339242,0.00880961,-0.0129152,0.00964117,0.0116222,-0.0215911,0.00391236,0.00256281,0.00220113,0.00204453,-0.0017727,-0.008464,0.00818818,0.0222912,0.0135177,0.00748822,0.0233818,-0.0327051,-0.00402103,0.000519369,0.00432217,0.00196305,0.00218137,0.000826861,-0.00721548,-0.00452452,0.0219696,-0.0212014,-0.00873005,0.00607013,-0.0181766,-0.00279906,-0.00462594,0.00448016,0.0131195,3.72802e-05,0.00264952,0.0256379,0.00341559,-0.00843768,0.0239075,-0.0238353,0.0208834,-0.00328508,1.36816,-0.00477021,-0.0040528,0.051792,0.00441828,-0.0233504,0.00157796,-0.000908097,0.00287193,-0.0377602,0.0124489,-0.0134075,-0.0122283,-0.0135841,-0.00483714,0.00298077,0.0100587,0.0184893,-0.00489659,-0.00895271,0.00495183,0.0257047,-0.00213126,0.0124153,0.00745784,-0.0186949,0.000317289,0.00647915,-6.35285e-05,0.0128351,0.000102822,0.00258168,0.00470489,-0.000182211,-0.0432722,0.000236182,-0.00311431,-0.0208214,-0.00173014,-0.013599,0.00456974,0.00385683,-0.0174624,-0.00727531,-0.043568,0.00135482,-0.00756362,0.00384146,0.00172276,-0.00493534,-0.0110374,0.00648009,0.000692977,0.010901,0.00185487,-0.0070015,-0.032987,0.0039868,-0.00282042,0.0116836,0.0925124,-0.00194546,0.0134108,0.00897314,0.00547575,-0.00858433,-0.0383664,-0.00864812,0.000944287,-0.0383539,0.00434943,0.0020902,-0.0151954,-0.00311826,0.00132433,0.0140357,0.00501715,-0.000508127,-0.00685646,0.00471789,0.0250748,-0.00910302,0.00101046,0.0166113,-0.00227506,-0.000185619,-0.0117331,-0.013438,0.0163599,0.0233118,0.00961164,-0.0225257,-0.0264183,-0.0114794,0.00130409,0.0121726,0.00153312,-0.00159496,0.00860743,0.0171602,0.00199068,0.00363522,0.00487974,-0.00841871,-0.00249273,-0.0824734,-0.00156446,0.00197482,-0.00166326,0.00203822,-0.0115908,0.00860937,-0.0114515,0.0252673,0.00329232,-0.0194046,-0.0203798,-0.00345009,-0.00118013,-0.0460937,0.00617891,0.0167637,0.00753253,0.00272662,0.00076119,-0.0119993,0.0103585,-0.00446662,-0.00419197,0.00899897,0.000597245,0,-0.00472451,-0.00190874,-0.0178825,-0.00235707,0.0475418,0.0127895,0.00305423,-0.00997707,-0.0170836,0.004159,0.0106864,-0.0144666,0.00160699,0.0049467,-0.0056343,0.0062465,0.0015841,0.0153062,-0.00103374,0.000475199,-5.10975e-05,-0.00096235,-0.0015112,0.00457874,0.0104447,0.0154339,-0.0421377,-0.00571399,-0.00911538,-0.000668916,0.00121222,-0.00330998,-0.0156458,-0.0297735,-0.00418733,0.00306972,0.00758587,-0.0130295,0.000938382,8.30705e-05,-0.940403,-0.0102031,-0.0091728,0.00100808,0.00179281,0.576512,0.000705155,0.0137509,0.00418099,0.0341134,0.0173217,-0.00150787,-0.0123111,0.034704,0.0023918,-0.00252228,0.00732281,0.0071281,-0.00453504,0.00172148,0.00515994,-0.00137761,-0.000433511,0.00869288,-0.0115309,-0.00655437,-0.50805,0.0125321,-0.00200031,0.00810646,0.0100743,-0.0215432,-0.0215203,-0.0205972,-0.00625321,-0.00133788,0.00149019,0.0027729,-0.00234264,0.00220398,-0.017389,0.00669142,-0.00801614,0.00690461,0.00920284,-0.0192274,0.00167778,0.00251641,0.00145006,0.00120479,-0.00131298,-0.0107913,0.00880766,0.0198873,-0.00238415,0.0214348,0.0150368,-0.0128017,-0.0025135,0.000159585,0.00311721,0.00228056,0.00145501,0.000715392,-0.00545076,-0.00413238,1.50466,-0.0139867,-0.00488025,0.00342357,-0.0106582,-0.00280257,-0.00453892,0.00449565,0.0108334,2.42607e-05,0.00100404,0.0215718,0.00177721,-0.00486357,0.0186367,-0.0206669,0.0152892,-0.00398528,0.00905761,-0.00366729,-0.00162847,0.0444544,0.00168527,-0.0135426,0.00120083,0.000357651,0.00200387,-0.0237771,0.0115687,-0.00814207,-0.00697174,-0.0116724,0.000301552,0.00177862,0.00522143,0.0141377,-0.00469225,-0.00809642,0.00473589,0.0246292,-0.00298782,0.00595644,0.00483771,-0.011367,-0.00130672,0.00408033,-0.00044625,0.00934779,-0.000170892,0.000960895,0.00337329,-0.001502,-0.0387727,0.000415791,-0.00240826,-0.0220704,0.00378942,-0.0121472,0.00427533,0.00314915,-0.0144192,0.00176066,-0.0474772,0.000937858,-0.00560048,0.00401334,-0.000296711,-0.00547783,-0.00638975,0.00454758,0.00182942,0.00617304,0.00284113,-0.00630615,-0.0307563,0.00381696,-0.00236157,0.00775543,0.0748168,-0.00139094,0.00931772,0.00723026,0.00363946,-0.00487054,-0.0164963,-0.0041339,0.000750189,-0.0205476,-0.00119432,0.00149106,-0.011154,-0.000637362,-0.00224823,0.0136574,0.00769048,-0.000274427,-0.00593042,0.00303275,0.022467,-0.00571673,0.000381589,0.0126599,-0.00323499,-0.000783244,-0.00637654,-0.00923982,0.0136707,0.0140373,0.00591081,-0.013011,-0.0246503,-0.010581,0.00101239,0.0116306,0.00107153,-0.00188037,0.00601914,0.0209232,0.00153779,0.0129493,0.00617186,-0.0119739,-0.00191837,-0.0720078,-0.00206633,0.00118176,-0.000483643,0.00214037,-0.0103089,0.0102759,-0.00980093,0.0190738,0.00349623,-0.0122748,-0.022971,-0.0031347,-0.00110344,-0.0360546,0.00429362,0.013202,0.00501154,0.00215509,0.00225494,-0.00505916,0.0100713,-0.00541076,-0.00342165,0.00708224,-0.000921469,0,0.00457036,3.50266e-05,-0.0134732,-0.00188725,0.0253423,0.0073779,0.00340297,-0.00721877,-0.0169689,0.00278746,0.0171245,-0.00346406,0.00310766,0.00203365,-0.00604727,0.00300668,2.68969e-05,0.00411664,-0.000217567,0.000378617,4.43254e-05,0.000559231,-0.00100792,0.00399165,0.0018514,0.0153811,-0.0371967,-0.00264624,-0.00519307,-0.000125126,-2.25819e-05,-2.37335,-0.0101846,-0.013826,-0.00255378,0.00159223,0.00256178,-0.0130268,0.00109255,0.000205893,-0.00259996,-0.00780292,-0.00565487,0.000345006,-0.00235453,1.83406,-0.00037847,0.00706033,0.0013644,0.0111637,0.0167713,-0.00118947,-0.0110125,0.0242814,0.00192266,0.00302767,0.00229502,0.00447254,-0.0101246,0.00236189,0.00178226,-0.00219207,0.00180802,0.00591941,-0.00451855,0.000847307,-0.028281,0.010763,-0.00193456,0.00401797,0.00878646,-0.00720645,-0.00462946,-0.00666079,-0.00173159,-0.00120377,0.000843206,0.00450567,-0.00278307,0.000379216,-0.0138284,0.00402548,-0.00296569,0.0099805,1.08501,-0.00290129,0.00097562,0.00129854,0.00256065,0.00231038,-0.000815339,-0.00643624,0.00856111,0.00524553,-0.00543319,0.00445428,0.00621233,0.000952889,-0.00225761,-5.60273e-05,0.00237404,0.00145087,0.00103501,0.000697812,-0.000388699,-0.00291447,0.0120079,-0.0077144,-0.00229756,0.001558,0.0103148,-0.00205294,-0.00255984,0.00320527,0.00607797,-1.12917e-05,0.00177236,0.00974704,-3.10738e-05,-0.00286809,0.00226193,-0.00651846,0.00382774,-0.00311607,0.00479655,-0.00229387,0.00147916,0.0221213,0.00165421,-0.00498657,0.000231088,0.00121475,0.00129256,-0.00709509,0.00843968,-0.00355798,-0.000434207,-0.00707776,0.00578412,0.00124118,0.00336282,0.00996515,-0.00198835,-0.00720394,0.00174255,0.0164268,0.00197467,0.00192281,0.00308064,-0.00760925,-0.00270898,0.00228417,-0.000315411,0.00589179,-0.00147415,0.000616746,0.00197433,-0.00518713,-0.0314278,-2.43368e-05,0.00011872,-0.0161947,0.00463872,-0.0063533,0.00160876,0.0017723,-0.00891713,0.00208057,-0.047916,0.00125244,-0.00246138,0.000807361,-0.000768216,-0.00441123,0.00029734,0.00325216,0.00516701,0.00179083,0.00474324,0.00202021,-0.0305276,0.00247277,-0.000397738,0.00732751,0.0206307,-0.000488733,-0.160621,0.00636174,0.00141566,-0.00147757,-0.00674425,-0.000893749,0.000275258,0.0185385,-0.0032304,-0.000135567,-0.00494469,0.00164585,-0.00613975,0.00869782,0.00537244,-0.00132869,-0.00661519,0.00230091,0.0183799,-0.00280377,0.000412045,0.00530157,-0.00240178,0.00463194,-0.00142213,-0.00672571,0.00668995,0.00179037,0.00274084,-0.00240476,-0.0148333,-0.00572379,0.000881733,0.00679368,-0.000376935,0.0037224,0.00260131,0.0185921,0.0012594,0.0131657,0.00844973,-0.0214134,-0.000517484,-0.0426307,0.00135873,0.00088716,0.00068482,0.00174167,-0.012877,0.00630467,-0.00790426,0.008215,0.00299282,-0.0113898,-0.0261919,-0.00230345,0.00573875,-0.0102267,0.00654922,0.00686625,0.00274736,-0.00069464,-0.503125,0.377322,0.0078538,-0.00547821,-0.00107919,0.0073816,-0.000724422,0,0.00406433,-0.00145112,-0.0133231,-0.000686982,-0.00728222,0.00575282,0.00509317,-0.00226725,-0.0145517,-0.000114804,0.0244615,0.00158198,0.00313472,0.00171644,-0.00439361,0.000764562,-0.000185797,-0.00124157,0.00218539,0.000184598,4.96518e-05,-0.00378247,-0.000316058,0.00486786,0.00630211,0.00881076,-0.0175548,-0.00391136,-0.00477323,-0.000615635,0.000704769,0.000366779,-0.00225661,0.0112913,-0.00516109,0.0018665,-0.00275198,-0.00362996,0.00347574,1.80255e-05,-0.00417121,-0.0165524,-0.0106378,0.000415933,-0.00524521,-0.000297836,-0.00017829,0.00986118,-0.00226442,-0.013056,0.0257467,-0.00215478,-0.00311018,0.0135081,0.000526832,-0.000130159,0.000110797,0.00246127,-0.0232073,0.00263794,-0.000320928,-0.00440515,0.00355372,0.00205873,-0.00384746,0.0158565,-0.019604,-0.00252149,-0.000903761,0.00366587,0.00853377,0.00190366,0.00138357,0.00475951,-0.00399306,-0.000352687,-0.00149288,0.0032916,-0.00173551,-0.0020165,0.00698312,0.00120073,0.00104229,0.015077,-0.000436786,0.00116253,0.00121718,-0.000157871,0.00656025,0.00349002,-0.000810022,-0.00957074,0.00923937,0.00439515,-0.0176915,0.0027608,0.00561386,0.0111365,-0.000952901,5.08114e-05,0.00114633,0.00181097,0.000922007,-0.000563941,0.00999406,-0.00335669,-0.00116565,-0.00953469,-0.00107944,-0.000560865,0.0151375,-0.00238359,-0.000803912,0.00305104,0.00151425,-1.45241e-05,0.00392253,0.00198401,-0.00366714,0.000725677,-0.951203,-0.0135065,0.000143825,-0.00410576,0.00961996,-0.00115296,0.00109268,0.00896423,0.000190163,-0.000311312,-0.000191781,0.00238985,-0.00017956,-0.00235759,0.00589813,-0.00163863,-0.00336585,0.00500155,0.00821717,0.000724121,0.00600248,0.0075032,-0.00264332,-0.00154878,-0.00274735,0.0126608,0.000419185,-0.00468231,0.000167915,-0.00614897,-0.00491999,5.86583e-05,0.000290515,0.00482854,-0.00240806,-0.00434524,0.00238316,-0.00288556,-0.0314335,0.00121081,-0.00202242,-0.0195721,0.00375137,-0.00316598,0.000572984,0.000307147,-0.0092827,0.0116756,-0.0423328,0.000772722,-0.00192196,-0.00194946,-0.00474775,-0.00514291,0.00487352,0.00275008,0.00743711,-0.000995575,0.0131561,0.00199013,-0.0287396,0.267352,0.000420209,0.00343786,-0.0243045,0.000668043,-0.000451791,0.00513729,9.95415e-06,0.00272724,0.0110981,0.00474563,-0.000316134,0.00275094,-0.0047613,-0.00411797,-0.00891928,0.00140178,-0.0141229,0.00916078,0.00724106,-1.85089,-0.00463015,0.000957115,0.00818805,5.94177e-05,-0.000377887,1.62782,-0.00320205,0.00115075,0.00372645,-0.00289355,0.00570822,-0.00313524,-0.00191465,-0.00190565,-0.0139757,0.00286247,0.00211113,0.00812429,-0.00199935,-0.00159054,-0.0005877,0.0169905,0.000678748,0.022787,0.00578406,-0.0134329,0.00142875,-0.0209042,0.000550473,-0.000201155,0.000119065,0.000246069,-0.0168969,0.00672253,-0.00361045,0.00530571,0.00223677,-0.00187386,-0.0218586,0.000367254,8.22518e-05,0.00374425,-0.00194341,0.00763379,-0.00144103,0.000717393,0.00178688,0.00439171,0.00956787,-0.00548626,0.00218343,0.00487759,-0.000162696,0,0.00271668,-0.000712895,-0.0110797,-0.000512381,-0.0145827,0.00547673,0.0045567,-0.00290928,-0.0106703,-0.000220515,0.0240142,0.0042013,0.00321245,0.00108122,-0.00374344,-0.000321786,-0.000232126,0.000555976,0.0021377,0.000128649,4.57382e-05,-0.00463347,-0.000238743,0.0042514,0.00510098,0.00716505,-0.0168625,-0.00359307,-0.00603131,-0.000773441,0.000882591,0.00047035,-0.000726443,0.0114249,-0.0052536,0.00150131,-0.001796,0.00162939,0.00377206,-9.00729e-06,-0.00371686,-0.0121585,-0.00977429,0.000357124,0.214698,-0.000314118,-0.000228961,0.0083579,-0.00232274,-0.0164406,0.0234429,-0.0018568,-0.00143273,0.00922887,0.000303175,0.000839965,-0.000559986,0.00265378,-0.0202752,0.00231209,-0.00123816,-0.00417103,0.003392,0.00116959,-0.00184802,0.0199723,-0.0160812,-0.00493405,-0.00076391,0.00288194,0.00700477,0.00393563,0.0012791,0.00790941,-0.00397297,-0.000189418,-0.00126106,0.00271194,-0.000891843,-0.00347447,-0.00356051,0.000529016,0.00276226,0.0156047,-0.000955169,0.00447086,0.000974188,-0.000542776,0.00557557,0.00370002,-0.000624055,-0.00702341,0.00876055,0.00110229,-0.0144059,0.00182372,0.00540327,0.0127768,-0.000683707,4.90948e-05,0.00111219,0.000799837,0.000693002,-0.00052179,0.0114611,-0.00284573,-0.0038166,-0.0133908,-0.000487687,-0.00124604,0.0132745,-0.00246538,-0.000291352,0.00261977,0.000223609,-2.43439e-05,0.0042373,0.000871308,-0.0032095,0.000422209,-0.0170299,-0.01246,0.000393664,-0.00313305,0.00943778,-0.000777681,0.000801041,0.00512326,-0.000302951,-0.00702966,9.31556e-05,0.00230372,-0.000475133,0.00640164,0.00482134,-0.00150087,-0.00274656,0.00538275,0.00761088,0.000347167,0.00576056,0.00553237,-0.00242084,-0.00101334,-0.0028728,0.00890784,0.000324264,-0.0045465,0.00050407,-0.00534283,-0.0046502,-7.93301e-05,0.000258382,0.00492833,-0.002596,-0.00346964,0.00171571,-0.0019822,-0.0268757,0.00121497,-0.00180194,-0.0179761,0.00223578,-0.00204061,0.000292887,0.000154735,-0.00848347,0.00936588,-0.036831,0.000502914,-0.000867182,-0.002093,-0.0041426,-0.635889,0.00782088,0.00281151,0.00750685,-0.00128766,0.0133242,0.00297373,-0.0297438,0.00127827,0.00103413,0.00343615,-0.0311585,0.0010222,-0.00128878,0.00478114,-0.000538745,0.0029587,0.0111057,0.0043723,-0.000608069,0.00906182,-0.00258076,-0.00421851,-0.00803082,0.00138407,-0.0140999,0.00689102,0.00533478,-0.0038564,-0.00329622,0.000647226,0.0122168,0.00117786,-0.000264492,0.000823861,-0.00322657,0.000293966,1.36011,-0.00135358,0.005382,-0.891682,-0.000627347,-0.00380796,-0.0129297,0.00417756,0.00272274,0.0054513,-0.00140528,-0.00153951,-0.001454,0.00789073,0.000404185,0.0263343,0.00472693,-0.0116755,0.00169089,-0.0148013,0.00106506,-0.000560155,2.1219e-05,0.000339321,-0.0143913,0.00541715,-0.00350722,0.00426704,0.00164505,0.000421477,-0.0200101,0.001675,2.70723e-05,0.00623363,-0.00390043,0.00777834,0.000545265,4.67047e-07,0.000115841,0.00360451,0.00899849,-0.00489037,0.00257038,0.00570321,3.97736e-05,0,0.00391626,-0.00118498,-0.00826165,-0.000248974,-0.00580091,0.00382296,0.00444257,-0.000907337,-0.00400336,-0.000826753,0.0223687,-0.000311957,0.00195027,-0.000154082,-0.000564063,-0.00233079,-0.000388353,-0.00201855,0.000965951,6.71643e-05,-2.90616e-05,-0.0047838,-0.00010034,0.00317569,0.00585622,0.00100616,-0.0159583,-0.00311091,-0.0061858,-9.9675e-05,0.00171371,0.000385726,-0.00284167,0.000146813,-0.00469637,7.83049e-05,8.58024e-05,0.00258762,0.69622,1.31275e-05,-0.00181852,-0.0167994,-0.012209,0.000165356,-0.00260121,8.26909e-06,-0.00024472,0.0100782,-0.00263972,-0.00346837,0.0221261,-0.00068157,-0.00214037,0.00867776,1.71465e-05,0.00225893,-0.000305588,0.00213658,-0.00501715,0.00274853,-0.000738755,-0.000933686,0.00209291,0.0018439,-0.00189908,0.00153571,-0.0114763,-0.00557873,-0.000614768,0.000810984,0.00294795,3.08931e-05,-0.0045929,0.000526655,-0.00245257,-0.000126906,-0.000558767,0.000640014,0.00076452,-0.00116659,0.00212782,0.000935813,0.00346989,0.0136924,-0.000999341,6.41693e-05,0.0013377,0.000313854,0.00295621,0.001697,-0.000422752,-0.00386854,0.00885923,0.000548462,-0.00118936,0.00257308,0.00532333,0.00160953,-0.000331532,3.8601e-05,0.000898544,0.00115517,0.000389129,-4.46708e-05,0.00857934,-0.00238453,0.0021094,-0.00171039,0.000539131,-0.00179857,0.00168098,0.867109,-0.00110163,0.00139228,0.00115058,-1.274e-05,0.00136724,-0.000916326,-0.00257885,0.00152067,-0.013332,-0.00166803,0.0010923,-0.00317577,0.00829063,-0.000237139,-0.000389844,0.00228259,0.000251461,0.00492996,0.0011154,0.00101693,0.000760146,0.00160727,0.00350759,-0.00320522,-0.000527842,0.0021829,0.000258104,0.000124575,0.00333391,0.00194391,-0.000772017,-0.000482457,-0.00230573,0.0015953,4.33298e-05,-0.00363537,-0.000797775,-0.00235427,-0.00251228,0.000472492,6.33916e-05,0.00266131,-0.00358924,-0.00225594,0.000716908,-0.000415617,-0.026374,0.000980958,-0.00145882,-0.0126246,0.00359242,0.000609016,-0.000140438,0.000160035,-0.00776426,0.00360726,0.476619,-0.000339781,-0.000108285,0.000274521,-0.00254691,-0.00302232,0.0090893,0.00195285,0.00643649,-0.000279253,0.00527003,-0.0004233,-0.0119803,0.000314125,0.000274549,-5.74172e-06,-0.00460316,0.000311167,0.000515556,0.00374428,-0.00116542,0.00164113,0.0135668,0.00212267,-1.56687e-05,0.000776347,-0.00357923,-0.000162903,-0.00146788,0.00138133,-0.013869,0.00618832,0.00502474,-0.00198313,-0.00096164,0.000315158,0.0126362,0.00188017,-7.78524e-05,-0.000469307,-0.0038626,-0.000525177,0.00405883,-0.000474904,0.0049377,0.00237792,-0.00211217,0.000311494,-0.0119672,0.000251348,0.00361603,0.00645377,-0.00128916,-0.00187903,-0.0019111,0.00689862,0.000164769,0.0237669,0.000448449,-0.00555267,0.00108966,-0.00122481,-0.000518552,-0.000906209,0.000746012,-0.000157903,-0.0133539,0.00417069,-0.00051246,-0.000394394,-0.000538015,0.00131937,-0.0116197,0.000796816,-0.00153306,0.00200328,-0.00651781,0.01095,-0.00312857,5.4197e-05,0.000683246,0.00130783,0.0107241,-0.00442841,0.000752328,0.00122134,-0.000459683,0,0.00223069,-0.000732302,-0.00280646,-0.000268808,-0.00408044,0.00124987,0.00110991,-0.00100569,-0.00286912,-0.000248764,0.00978523,-0.000925626,0.000594444,-0.00109569,-0.000957526,-0.000336953,-6.60692e-05,-0.00194552,0.000989719,3.75852e-05,-4.3519e-05,-0.00157243,-3.60546e-05,0.000904008,0.00144481,0.00293074,-0.00416907,-0.00070303,-0.00121605,-7.74689e-06,0.00116687,-4.01675e-05,-0.000692469,3.72799e-05,-0.00119602,0.000486743,-0.000705556,-0.00139894,0.00121135,-2.9326e-06,-0.000692623,-0.00467073,-0.00211988,8.11399e-05,-0.000762326,-7.01447e-05,4.03471e-05,0.00335866,-0.000976872,-0.00232447,0.0065737,-0.000467037,-0.00187342,0.00460213,0.000327046,0.000101236,-0.0002168,0.000673966,-0.00285439,0.000696876,-0.000291238,-0.00056056,0.000982582,0.00167496,-0.000838122,0.00283877,-0.00240375,-0.00123348,-1.09799,0.00108297,0.00230831,-0.000308747,0.000177871,0.000432575,-0.000920179,-9.53933e-05,-0.00020792,0.000796955,-0.000287755,-0.000774244,0.000865367,0.000568428,0.00134506,0.000856535,-0.000470907,-0.000897177,-0.000174006,0.000499178,0.000805365,0.000409888,-0.000166611,-0.00264766,0.00285302,0.0012026,-0.00296582,0.000881067,0.000885149,0.000289407,-0.000334017,1.38564e-05,0.000251447,0.000256337,0.000197074,-3.40455e-05,0.00291248,-0.0010306,0.000936512,-0.00621485,0.000253624,-0.00058646,0.000559936,-0.000718928,-0.000678096,0.000641426,-0.000162699,1.45862e-05,0.000233206,-0.000394665,-0.00107632,0.000227444,-0.00410181,-0.00166229,-0.000209595,-0.00125071,0.00247133,-0.000176371,6.14562e-05,0.00270605,-0.000305438,0.00361708,0.00062066,0.000333263,-0.000262535,0.00204155,0.001155,-0.000723165,-0.000903667,0.00128429,3.73187e-05,-0.000287274,-1.43298,0.000799935,-0.000832663,-0.000324546,-0.000331673,0.00240061,2.61905e-05,-0.00142986,-0.00043064,-0.00021935,-0.998242,0.000105379,5.29098e-05,0.000481125,-0.000935256,-0.000959908,0.00019493,-0.000866331,-0.00827153,0.000606407,-0.000575231,-0.00683015,0.00135012,-0.000198533,-4.22747e-05,4.1677e-06,-0.00198896,0.00167369,-0.00718771,0.000176981,-0.000378848,0.00015284,-0.000997727,-0.00151051,0.00249973,0.000320116,0.00283894,-0.000377379,0.0017261,-0.000273169,-0.0091419,0.000220226,0.000132761,0.000686874,-0.00152813,1.41212e-05,-0.000238332,0.00118591,-0.000189432,0.000440441,0.00491516,0.00142975,-9.60004e-06,0.00158455,-0.00160788,-0.000425293,-0.00102034,-8.83643e-05,-0.00419744,0.00259979,0.00242045,-0.000858488,-0.000960779,0.000315383,0.00469654,0.00012322,-0.000170103,-0.000366347,-0.00123611,0.000234047,0.00140435,-0.000422569,0.00168211,-6.72582e-05,-0.000719861,4.89065e-05,-0.00297008,-0.000446451,0.00128822,0.00337365,-0.000670298,4.43698e-05,-0.00012799,0.00253321,0.000144329,0.00794254,-0.000354946,-0.00410456,0.000347081,-0.00101196,-0.000552767,-0.000401877,0.000317245,7.31684e-05,-0.00445827,0.00155967,-0.000862426,0.607317,0.000231806,0.000567662,-0.00348485,0.000295027,-0.000229174,0.00169182,-0.00514603,0.0043382,-0.000503017,5.15162e-05,2.27785e-05,0.000707887,0.00298171,-0.00148081,0.000253091,0.00206271,-0.00034136,0,-0.0009731,0.00059757,0.000243545,1.44416e-06,-0.00133592,-0.000123685,-0.00058944,-0.00053759,0.00104595,-0.000152462,0.000500654,0.00186089,7.27788e-05,0.00295648,2.45681e-05,-0.000151995,-0.000119271,-1.46485,-0.000150469,1.04548e-05,0.000103422,0.00158987,-1.17465e-06,-6.40359e-05,-0.000390017,-0.000108202,0.000195151,-8.94928e-05,0.000430887,-0.000158071,0.000259511,0.000472371,0.000640864,4.61817e-05,-2.82819e-05,-0.000985338,-0.000300771,0.0123745,0.000368913,-6.06205e-05,0.000297582,-0.00362209,-0.000320928,8.56955e-05,-0.000348601,-8.33796e-05,6.92541e-06,-0.00139459,-0.0002477,-0.00260967,0.000320389,0.000323381,-0.0015553,-0.000994005,0.000216352,0.00108227,-0.000538865,-2.26084e-05,-0.00254949,0.000139612,-0.000145714,-0.000182367,9.13905e-05,-0.000376981,0.000461147,0.00176835,-0.000251675,0.00141477,-8.01928e-06,-0.00173762,-0.000931564,0.00305705,0.00103685,0.00171164,-0.000114881,-7.20148e-05,-0.000195892,-0.00019522,0.0010972,-0.00029953,-0.00378405,-9.90738e-05,-0.000524079,-0.000456691,-5.03647e-05,0.00125789,0.0007116,-0.00010957,3.40868e-05,-0.000400741,-5.99095e-06,0.00236839,-1.5459e-05,-0.0019997,-0.00236148,-0.000291483,-0.00206683,0.00343484,9.39042e-07,-2.84975e-06,-2.91804e-06,-9.35576e-05,-5.56943e-06,-0.000292842,0.000722246,0.000566699,-0.000170928,0.00863619,0.000319808,-0.000141064,8.09361e-05,4.92839e-06,0.000716245,4.36262e-05,-5.96458e-05,4.60906e-06,0.000520333,-0.000214882,0.00020116,0.000376283,-0.00388624,0.0505268,0.000137178,0.000112419,-0.00126942,0.000325882,0.000161477,-0.0049134,-4.09279e-05,-0.00317654,-0.000445195,7.07497e-05,0.000447657,0.000660927,-3.50277e-05,0.000778757,0.000911407,0.000477886,1.44887e-05,0.000178277,0.00046939,4.5094e-05,0.000123708,-0.000734392,-0.000229733,0.0014647,-0.0010892,-0.000227415,-0.00011487,-0.000360726,-3.80641e-05,-0.000311836,3.53859e-05,-0.000119838,-0.0004504,1.33317e-06,-8.07509e-05,-0.000516146,0.00017453,7.83959e-05,0.000799574,-0.395772,-0.000320145,-0.00133932,-4.6394e-06,7.93782e-06,-0.00031558,-0.00281626,-0.00326189,-8.51177e-05,0.000661944,-0.00203189,-8.03883e-05,-0.000394725,0.000216153,-7.06206e-06,1.0738e-05,-8.48884e-05,0.00201793,0.000480306,0.00320649,-0.000198254,0.000157424,-0.00105797,-0.00877625,0.000266327,-0.000202346,-0.000698507,-0.000358186,-0.000115564,0.00105925,0.732165,-1.36567e-05,0.000792633,0.000143061,-5.5853e-05,0.00267805,2.58596e-06,-0.000793268,-0.000247645,-0.00022667,-7.92166e-05,0.00133174,5.94672e-06,-0.00179432,9.11158e-05,-1.87595e-05,0.00024997,-0.000222812,-0.00141234,0.000121563,0.00034984,0.000191901,-0.00138265,2.56395e-05,0.0023225,-0.000208487,0.000775125,1.9217e-05,-5.02741e-05,0.000154101,0.000725153,-0.000915176,-0.000280878,4.62522e-06,-1.28435e-06,0.000850058,4.15804e-05,0.000255414,0.00720193,0.00121332,-0.0001924,-1.23742e-05,-0.000739592,-2.06319e-05,-0.000292034,0.00212235,0.000479662,-0.000328829,-0.000102301,-0.00128535,-4.60117e-05,0.000770371,0.00600167,-0.00210686,-0.000860497,-0.0014586,-3.91743e-05,0.000275212,0.00027106,0.000170593,-0.000158685,0.000132911,-0.000914009,0.000307407,0,0,0,0,0,0,0,0,0,0,0,0,0,0,0,0,0,0,0,0,0,0,0,0,0,0,0,0,0,0,0,0,0,0,0,0,0,0,0,0,0,0,-1.31896,0,0,0,0,0,0,0,0,0,0,0,0,0,0,0,0,0,0,0,0,0,0,0,0,0,0,0,0,0,0,0,0,0,0,0,0,0,0,0,0,0,0,0,0,0,0,0,0,0.669665,0,0,0,0,0,0,0,0,0,0,0,0,0,0,0,0,0,0,0,0,0,0,0,0,0,0,0,0,0,0,0,0,0,0,0,0,0,0,0,0,0,0,0,0,0,0,0,0,0,0,0,0,0,0,0,0,0,0,0,-1.65871,0,0,0,0,0,0,0,0,0,0,0,0,0,0,0,0,0,0,0,0,0,0,0,0,0,0,0,0,0,0,0,0,0,0,0,0,0,0,0,0,0,0,0,0,0,0,0,0,0,0,0,0,0,0,0,0,0,0,0,0,0,0,0,0,0,0,0,0,0,0,0,0,0,0,0,0,0,0,0,0,0,0,0,0,0,0,0,0,0,0,0,0,0,0,0,0,0,0,0,0,0,0,0,0,0,0,0,0,0,0,0,0,0,0,0,0,0,0,0,0,0,0,0,0,0,0,0,0,1.18568,0,0,0,0,0,0,0,0,0,0,0,0,0,0,0,0,0,0,0,0,0,0,0,0,0,0,0,0,0,0,0,0,0,0,0,0,0,0,0,0,0,0,0,0,0,0,0,0,0,0,0,0,0,0,0,0,0,0,0,0,0,0,0,0,0,0,0,0,0,0,0,0,0,0,0,0,0,0,0,0,0,0,0,0,0,0,0,0,0,-0.305024,0,0,0,0,0,0,0,0,0,0,0,0,0,0,0,0,0,0,0,0,0,0,0,0,0,0,0,0,0,0,0,0,0,0,0,0,0,0,0,0,0,0,0,0,0,0,0,0,0,0,0,0,0,0,0,0,0,0,0,0,0,0,0,0,0,0,0,0,0,0,0,0,0,0,0,0,0,0,0,0,0,0,0,0,0,0,0,0,0,0,0,0,0,0,0,0,0,0,0,0,0,0,0,0,0,0,0,0,0,0,0,0,0,0,0,0,0,0,0,0,0,0,0,0,0,0,0,0,0,0,0,0,0,0,0,0,0,0,0,0,0,0,0,0,0,0,0,0,0,0,0,0,0,0,0,0,0,0,0,0,0,0,0,0,0,0,0,0,0,0,0,0,0,0,0,0,0,0,0,0,0,0,0,0,0,0,0,0,0,0,0,0,0,0,0,0,0,0,0,0,0,0,0,0,0,0,0,0,0,0,0,0,0,0,0,0,0,0,0,0,0,0,0,0,0,0,0,0,0,0,0,0,0,0,0,0,0,0,0,0,0,0,0,0,0,0,0,0,0,0,0,0,-1.32561,0,0,0,0,0,0,0,0,0,0,0,0,0,0,0,0,0,0,0,0,0,0,0,0,0,0,0,0,0,0,0,0,0,0,0,0,0,0,0,0,0,0,0,0,0,0,0,0,0,0,0,0,0,0,0,0,0,0,0,0,0,0,0,0,0,0,0,0,0,0,0,0,0,0,0,0,0,0,0,0,0,0,0,0,0,0,0,0,0,0,0,0,0,0,0,0,0,0,0,0,0,0,0,0,0,0,0,0,0,0,0,0,0,0,0,0,0,0,0,0,0,0,0,0,0,0,0,0,0,0,0,0,0,0,0,0,0,0,0,0,0,0,0,0,0,0,0,0,0,0,0,0,0,0,0,0,0,0,0,0,0,0,0,0,0,0,0,0,0,0,0,0,0,0,0,0,0,0,0,0,0,0,0,0,0,0,0,0,0,0,0,0,0,0,0,0,0,0,0,0,0,0,0.0592451,0,0,0,0,0,0,0,0,0,0,0,0,0,0,0,0,0,0,0,0,0,0,0,0,0,0,0,0,0,0,0,0,0,0,0,0,0,0,0,0,0,0,0,0,0,0,0,0,0,0,0,0,0,0,0,0,0,0,0,0,0,0,0,0,0,0,0,0,0,1.99686,0,0,0,0,0,0,0,0,0,0,0,0,0,0,0,0,0,0,0,0,0,0,0,0,0,0,0,0,0,0,0.801642,0,0,0,0,0,0,0,0,1.76724,0,0,0,0,0,0,-0.0440178,0,0,0,0,0,0,0,0,0,0,0,0,0,0,0,0,0,0,0,0,0,0,0,0,0,0,0,0,0,0,0,0,0,0,0,0,0,0,0,0,0,0,0,0,0,0,0,0,0,0,0,0,0,0,0,0,0,0,0,0,0,0,0,0,0,0,0.168441,0,0,0,0,0,0,0,0,0,0,0,0,0,0,0,0,0,0,0,0,0,0,0,0,0,0,0,0,0,0,0,0,0,0,0,0,0,0,0,0,0,0,0,0,0,0,0,0,0,0,0,0,0,0,0,0,0,0,0,0,0,0,0,0,0,0,0,0,0,0,0,0,0,0,0,0,0,0,0,0,0,0,0,0,0,0,0,0,0,0,0,0,0,0,0,0,0,0,0,0,0,0,0,0,0,0,0,0,0,0,0,0,0,0,0,0,0,0,0,-0.610507,0,0,0,0,0,0,0,0,0,0,0,0,0,0,0,0,0,0,0.931395,0,0,0,0,0,0,0,0,0,0,0,0,0,0,0,0.726639,0,0,0,0,0,0,0,0,0,0,0,0,0,0,0,0,0,0,0,0,0,0,0,0,0,0,0,0,0,-1.96119,0,0,0,0,0,0,0,0,0,0,0,0,0,0,0,0,0,0,0,0,0,0,0,0,0,0,0,0,0,0,0,0,0,0,0,0,0,0,0,0,0,0,0,0,0,0,0,0,0,0,0,0,0,0,0,0,0,0,0,0,0,0,0,0,0,0,0,0,0,0,0,0,0,0,0,0,0,0,0,0,0,0,0,0,0,0,0.563243,0,0,0,0,0,0,0,0,0,0,0,0,0,0,0,0,0,0,0,0,0,0,0,0,0,0,0,0,0,0,0,0,0,0,0,0,0,0,0,0,0,0,0,0,0,0,0,0,0,0,0,0,0,0,0,0,0,0,0,0,0,0,0,0,0,0,0,0,0,0,0,0,0,0,0,0,0,0,0,0,0,0,0,0,0,0,0,0,0,0,0,0,0,0,0,0,0,0,0,0,0,0,0,0,0,0,0,0,0,0,0,0,0,0,0,0,0,0,0,0,0,0,0,0,0,0,0,0,0,0,0,0,0,0,0,0,0,0,0,0,0,0,0,0,0,0,0,0.815733,0,0,0,0,0,0,0,0,0,0,0,0,0,0,0,0,0,0,0,0,0,0,0,0,0,0,0,0,0,0,0.218793,0,0,0,0,0,0,-0.041062,0,0,0,0,0,0,0,0,0,0,0,0,0,0,0,0,0,0,0,0,0,0,0,0,0,0,0,0,0,0,0,0,0,0,0,0,0,0,0,0,0,0,0,0,0,0,0,0,0,0,0,-1.04884,0,0,0,0,0,0,0,0,0,0,0,0,0,0,0,0,0.00219874,-0.000330583,-0.0001534,4.05316e-05,7.8624e-05,-0.00465866,0.00093801,0.00339923,-0.00101531,8.66931e-05,-0.00262808,-0.000598464,0.00105014,-0.00145219,-0.000889563,0.000134763,1.5517,-0.000767227,0.000298808,3.78934e-05,-0.000148397,0.000380987,-5.71943e-06,0.00232569,0.00431497,-0.0027049,0.00164605,8.04252e-05,0.000691157,2.15799e-05,-0.00046241,-0.000178943,0.00106482,-0.00113004,0.00194905,0.000105262,-0.00113863,-0.00421836,-3.87289e-05,1.75937e-05,-0.000748785,0.00084998,0.00193854,-2.16545e-05,3.63938e-06,0.000129707,-0.000615843,0.000188826,0.000509516,-0.00024278,-0.00241046,-0.000305028,0.000487824,-0.0051733,-0.00010744,-0.000283331,0.000408953,-0.00186469,-0.00499987,0.00026636,0.000174675,-0.000520899,0.000693075,-0.000382803,-0.00100716,-0.00171108,-0.000916424,-0.00320526,0.00014384,0.000243667,0.00120461,-0.00027848,0.00170427,0.000119738,0.00106977,-8.20059e-06,-0.000675964,0.000432644,-0.000553707,0.00020437,0.00687172,-4.91754e-05,0.000351307,-0.0015976,0.000226266,-0.000319748,2.33931e-05,0.000199993,-0.000324608,0.000200866,-3.19544e-06,-0.00146589,-0.000443173,0.000964207,-0.00366303,9.11725e-06,-0.00182162,0.000160967,-5.32907e-06,-1.73905e-05,-9.2123e-05,-0.000370226,0.000298184,3.59253e-05,-0.000905352,-0.000215987,6.62449e-05,-0.0043942,-0.00103796,0.00010213,-0.00023992,0.000132935,-0.000242907,-0.000193532,-0.00114976,0.000133842,0.000246972,0.000358455,-0.000229235,-0.000192302,0.00139447,-8.0447e-05,0.839126,0.000157137,0.00183673,-0.000569104,-0.00142703,0.00234663,0.000154574,-0.0010952,-0.000413745,-1.76221e-06,0.000183072,1.90888e-05,-4.7017e-05,0.000497543,-0.000607618,-7.19361e-05,0.00032603,0.000185156,0.000957402,0.000545245,-0.000253772,-0.000379025,0.000168164,0.00282765,0.000895575,-0.000828091,0.000209258,-0.000683952,5.17845e-06,-0.00017346,-7.04663e-06,-0.00309861,-0.000499688,-5.19049e-05,0.000391143,0.000415552,0.00430022,-6.9634e-05,-0.000283095,-0.00176191,0.00104982,0.00114528,-5.25643e-05,3.08099e-05,0.00370401,0.00439011,-0.00183962,0.000141364,-0.000810293,-0.000105034,0.000111399,0.000236419,-0.00017795,0.000112875,0.000400328,-0.000825556,0.000225794,-5.35181e-05,-0.00477437,0.000694745,-0.000121796,6.82025e-05,0.0014267,-0.000228014,-0.000280716,-0.000172371,0.000156988,0.000231032,-0.000898036,0.000534373,5.74584e-05,-0.0079575,-0.000103658,-0.000430748,-0.000449622,0.000176115,0.00120831,8.67139e-05,0.000314731,-9.9392e-05,-0.135366,-7.30663e-07,-0.00154981,-6.99818e-05,5.67511e-05,0.000200767,0.000816539,0.000601892,-0.000229441,0.00161759,-0.00667668,-0.000709536,0.000683537,-0.000826337,0.00204611,-0.000202336,-0.000148016,0.000145508,-0.000104163,-0.00023242,0.00079273,0.00463225,-1.4769e-05,-0.0012142,0.000770214,-0.000641067,-6.45124e-05,-0.000145845,-0.000716349,8.85038e-05,-0.000218843,0.000266303,0.000938486,0.0011038,-0.000568385,0.000264502,0.000305285,-0.00097756,-0.00187871,-0.000105789,-0.00399447,-0.000917897,0.00145606,-0.000270313,0.000636048,0.000335764,-0.000251819,0.00144744,-0.00134077,0.000192494,-0.000186307,0.000943672,-0.000183238,0,0.0169864,9.3901e-05,0.00163808,0.000804052,0.0152698,0.0021999,-0.0024507,-0.00216636,-0.00514206,-0.00149001,0.0025726,-0.0101549,-0.00295746,0.00078845,-0.00148114,0.00337333,0.00408684,-0.00363119,-0.000497222,-0.000649085,0.000207891,0.00011744,-0.000869571,-0.0109151,0.00582964,0.019074,-0.00517688,0.00367636,-0.0109254,-8.58026e-05,-0.00215396,-0.00367408,-0.00265351,-0.0130561,-5.40399e-05,0.00152445,0.00267965,-0.00638654,-0.00108757,0.000370754,-0.000717103,0.0170904,0.0344865,-0.000892486,0.00488327,-0.000448979,-0.000339373,0.000440128,0.00169585,0.00962154,-0.0103955,0.000360606,-0.00774083,0.0157312,0.0028107,-0.00473056,0.000686811,0.00254939,0.00400044,0.000306188,0.00177862,-2.36223e-05,-0.00291076,0.00684391,-0.00874583,0.00388473,-0.00261886,0.00383149,-0.00981874,0.00262704,0.00373638,-0.00896775,-0.000783464,-0.00498375,-0.0024731,-4.25547e-05,0.00351251,-0.00252593,-0.00417568,-0.000550187,0.00925598,0.0019313,-0.00319286,0.0121336,0.00656438,-0.00619562,-0.0016582,0.00125869,-0.000539467,-0.00838561,-0.000192935,0.000882401,-0.0022622,0.0106831,0.00212112,0.00107741,0.000226078,-0.0205753,-0.00137176,6.75373e-05,0.000935253,0.00248747,-0.000943752,0.000575002,-0.00400583,-0.000961199,0.00604779,-0.00801287,0.00348876,0.00189798,-0.00113298,0.00285433,-0.0027722,-0.00478139,-0.00338466,0.00038279,-0.00373397,0.00296014,0.00063981,-0.00375915,0.0159764,-0.00571062,-0.00590104,-0.000328376,-0.000569458,-0.00255828,0.00505525,0.00852888,0.000781447,0.031339,0.00268008,-0.00189708,0.000196418,-0.0183531,0.00493159,-0.00758394,-0.00267575,-0.0025413,-0.00173713,-0.00484837,-0.00432285,0.0073785,-0.00283716,-0.0123927,0.00559313,0.0262999,0.00520328,0.00502638,0.000684526,0.0047701,0.000898679,0.00209998,0.000448668,-0.00454949,0.00685153,-0.000601477,-0.000369747,0.00213147,0.00233852,-0.00122083,-0.00131491,-0.00593515,0.00794733,-0.00359422,0.000451569,-0.000255504,0.00171365,-0.00570205,-0.0062833,-0.000163461,-0.00352459,0.009309,0.00223849,0.00406966,-0.00158656,-0.00268026,-0.00384252,-0.000327377,-0.0028741,-0.00194963,-0.00644655,-0.000217595,-0.000176302,0.00464798,0.0225784,0.00089199,0.00119073,0.00303747,0.0032407,-0.0076268,-0.0342074,-0.00187676,0.000841429,-0.0126142,0.000541858,0.0019523,-0.0106086,-0.0261302,0.00388859,0.00382452,-0.00308786,0.000440596,0.00446767,0.00151134,0.00096663,-0.00212757,0.000144311,0.0030631,0.00392356,0.0078668,-0.0123775,-0.00457365,-0.00324453,-0.00192816,0.0037707,0.775128,0.0130996,-0.00542617,-0.0026518,0.000840331,0.00250084,-1.38481,-0.00190551,0.0126851,0.000511218,-0.0107727,0.00350962,-0.0209506,-0.00187473,-0.0208167,-0.00141749,-0.00110249,0.00338623,0.00450439,0.000943281,-0.00352704,-0.00787093,0.00321251,0.0025826,-0.00729107,-0.00646735,-0.000346116,-0.00125465,-0.00433075,0.00473181,-0.00684841,0.00980659,0.00241748,-0.000788172,-0.00742029,-0.000698851,0.000707439,-0.000541116,0.00272896,-0.000893161,0,0.00729666,0.00783103,-0.021041,-0.00105543,-0.0338912,0.0192394,0.000285432,0.0143405,-0.0259557,-0.00824473,0.0305466,0.00663289,0.00662398,0.0141173,0.000557592,0.00138187,0.00779829,0.014678,0.000705464,0.000744451,0.00104111,-0.00155321,-0.00390514,0.0096956,0.0140231,0.0232127,0.0236676,-0.0451844,-0.00682027,-0.0045807,-0.00215982,-0.00738946,0.0227544,0.00820056,-0.00956388,0.000393194,-0.00345088,0.0452669,0.000540392,0.000423453,-0.010682,0.320785,0.0409854,0.00145486,-4.19561e-05,-0.00338719,-0.00214674,-0.00313735,0.00170929,-0.0321823,0.0184273,-0.00504296,0.0238118,-0.00840115,0.00363812,0.000640066,0.00375961,0.00364483,-0.0330768,0.0035706,0.00163045,-0.0220156,-0.000288318,0.0118183,-0.0164296,0.0489756,-0.0355904,-0.0209902,-0.00497414,-0.00150465,0.02747,0.0187976,0.0197255,0.0192008,-0.0149679,-0.00108522,-0.00658928,0.012893,-0.0103624,-0.00613455,-0.00975742,0.00462327,-0.0127433,0.0370239,-0.00123071,-0.00688274,0.00937435,-0.00121062,0.00711314,-0.00394836,-0.0030254,-0.00667778,0.00176213,-0.000253713,-0.0212867,-0.000127119,-0.0222378,0.00519553,-0.00377833,0.00170003,0.00335462,0.00181936,0.000205488,-0.00196942,0.0147381,-0.00137007,-0.00387378,-0.0130271,-0.00493529,0.0024901,0.0171607,-0.000621039,-0.000372468,0.00241835,-0.00750722,0.00042197,0.326473,0.0100252,-0.00457144,-0.00278031,-0.0148929,-0.00582077,-0.00881079,-5.48262e-05,0.0219307,-0.00755504,0.0120362,-0.0363448,0.00248261,-0.0245411,-0.00448716,0.00420204,-0.000279503,0.0167325,0.010116,-0.000233118,-0.0115671,0.0105815,0.000146709,-0.00359527,0.0135623,0.0324263,-0.00332699,-0.000324335,-0.00663676,0.0645404,0.0176433,-0.00794925,0.0065621,-0.0223113,-0.00485665,-0.000289141,0.00170331,0.00723016,-0.00337111,-0.00981852,0.000270915,-0.00793723,-0.0266606,0.000701605,-0.00325803,-0.0149839,-0.00673916,-0.0150079,0.00013101,-0.000515861,-0.00705523,0.00734086,-0.0613139,-0.000603054,-0.0075581,-0.00368155,-0.00536033,-0.00133037,-0.00331897,0.0045091,0.000758318,-0.00372397,0.0318299,0.000382966,-0.0607413,0.00334986,0.00508702,0.00212563,-0.0448127,0.00716818,-0.000177897,0.00114594,-0.00172294,0.00188706,-0.0322688,0.00960027,-0.00221173,0.036813,-0.000497772,-0.00981213,-0.0198434,-0.0412866,-0.0105142,0.0125746,0.000793061,-0.0149053,0.00988986,0.00475077,-0.0404214,-0.00569546,-0.00225545,0.0173314,0.0068458,0.0305929,-0.00786211,0.00264522,0.0150746,-0.00431691,0.0173177,-0.00477729,0.000482938,0.00353536,-0.00301754,0.00992635,-0.000754358,-0.00722384,-0.00739054,0.0468782,0.0021198,0.0229272,0.0131299,-0.0325974,0.00713809,-0.000996364,0.00343589,-0.00456493,0.000127257,0.00977721,-0.0080262,0.00413052,-0.00862354,0.0210038,0.00554501,-0.00328919,-0.049538,0.0088234,-0.00702082,-0.00374068,0.0321899,-0.0420464,0.0328615,0.00194923,-0.00153732,-0.00318082,0.00334226,-0.00568846,0.00939298,0.0188913,-0.00146991,0,0.0338631,0.00536179,-0.0290064,-0.00394079,-0.0617761,0.00417165,0.00557398,0.00647863,-0.0360167,-0.00976315,0.0586278,0.0182647,0.0147798,0.0151359,0.00654346,-0.0058619,0.00734225,-0.00120553,0.003275,0.00154398,-0.00120329,-0.00119041,-0.00571816,0.0301375,0.0409202,0.0327784,0.0399666,-0.0710778,-0.00391752,-0.0032938,-0.00286584,-0.00309437,0.0371203,0.015806,-0.00401848,0.000472793,-0.0196162,0.0610684,0.000232204,0.000933405,-0.0172339,0.00312542,0.0473129,0.000596559,-0.00730818,-0.00609114,-0.00045448,-0.00830226,-0.00228736,-0.0492365,0.0521437,-0.00981532,0.0261217,0.01039,0.00426673,0.000817094,0.00367542,0.00136653,-0.0449392,0.00816071,0.00156433,-0.0327932,-0.0012206,0.0197893,-0.0269352,0.0621613,-0.0517343,-0.015091,-0.00654462,-0.000543231,0.0411255,0.0268936,0.023813,0.0275225,-0.020397,-0.00115594,-0.0134591,0.0183188,-0.0175753,-0.00910847,0.028207,0.00816527,-0.00447428,0.0355316,-0.00416375,-0.00382879,0.0119753,0.000957302,0.0116872,0.00548777,-0.00598436,-0.0127012,0.0083643,-0.0101989,-0.0370881,0.00441191,-0.0250945,0.0071166,-0.00534764,0.00303043,0.00463081,0.00838534,0.000210165,-0.00449306,0.0232782,-0.00386822,0.000159444,-0.0346062,-0.00184217,0.00109463,0.0264368,-0.000563338,-0.00411293,0.00211804,-0.0188871,0.000158018,0.00699858,0.009704,-0.0110272,0.00229805,-0.0475117,-0.00979296,-0.0163324,-0.00262585,0.0384615,-0.00842021,0.00258422,-0.0625958,-0.00131018,0.0053393,-0.00761304,0.007429,0.00141126,0.0356588,0.00552045,0.00500871,-0.0209322,0.0177315,0.00253047,-0.00754198,0.0249835,0.0410303,-0.00696684,-0.00906057,-0.012144,0.0625727,0.0243676,-0.0190327,0.00310682,-0.0267894,-0.00942584,-0.00455949,0.00313147,0.00904732,-0.00962142,-0.0132167,-5.0875e-05,-0.012079,-0.0379497,0.00305813,-0.00544409,-0.0289398,0.00266064,0.00487854,-0.000482497,0.000160558,6.72424e-05,0.0494918,-0.0883102,-0.00206275,-0.0105001,0.000397678,-0.00908974,-0.00937234,0.0127481,0.00634316,0.00696359,-0.00971847,0.0402289,0.00568659,-0.0938822,0.00512404,0.0096034,0.0126145,-0.0767826,0.0124159,-0.00016173,0.00371081,-0.00411375,0.0101534,-0.0415248,0.0163728,-0.00312673,0.0307142,-0.00982547,-0.00888526,-0.0219983,-0.0480037,-0.0279709,0.0198439,0.00953311,-0.0246034,0.0174934,0.00679619,-0.0684341,0.0060692,-0.00349644,0.0179178,0.00800662,0.00451988,-0.0139877,0.0134662,-0.000547495,-0.00508637,0.0143457,-0.0036143,0.0105147,0.000494211,0.00178425,0.0203688,-0.008505,-0.010327,-0.0119849,0.100809,0.00344161,0.0647892,0.013364,-0.0337905,0.0111503,0.0153958,0.00381385,-0.00343053,0.000254283,0.00899749,0.000640885,0.00526089,-0.00586981,0.0253103,0.0069387,0.000884922,-0.0511529,0.01407,-0.0164508,0.0218249,0.0349862,-0.035049,0.0364951,0.00171285,0.00623772,0.00330379,0.00294857,-0.0093956,0.0188994,0.0209661,-0.00343359,0,0.0078621,0.00613596,-0.00742113,-0.0100813,-0.0431972,-0.00451279,-0.00253925,0.00949321,-0.0121481,-0.00742974,0.0567074,0.0127108,0.021783,0.0190945,0.0167089,-0.00483514,0.0199406,0.0193564,0.00369655,0.00336241,0.00134973,0.00225811,-0.0100128,0.0257853,0.0546973,0.0373176,0.0160471,-0.0612963,0.00721244,-0.00481557,-0.00830238,-0.0116452,0.0141764,-0.00171111,0.0238554,0.00471083,-0.0267328,0.0603267,-0.0259598,0.00118532,-0.011385,0.0172898,0.0928746,0.00112304,-0.000305284,-0.00449413,-0.00278254,-0.0425818,0.00423675,-0.0309601,0.0149358,-0.00618501,0.0182782,0.0112143,0.00977256,-0.00656248,0.0123042,-0.00321647,-0.0108135,0.0102003,0.00654759,-0.031793,-0.0199725,0.0269056,-0.0181366,0.0613611,-0.0222528,-0.00211278,-0.0375335,0.00213908,0.0331584,0.0199599,0.000644449,0.0359914,-0.0039735,-0.000908578,-0.0112785,0.0137935,-0.00866041,-0.00501761,-0.0228909,0.0102719,-0.0241837,0.0398814,-0.00143743,-0.0125692,0.0073203,0.00184026,0.00882888,0.00143542,-0.011613,0.0160622,0.000932425,0.0107629,0.020749,0.00460614,0.00797852,-0.00197256,-0.0118358,0.00443,0.00718937,0.00908827,-0.000696172,-0.00658178,0.0311239,-0.00257706,0.00240582,-0.00752976,0.00355542,0.00196527,0.0138403,-0.000290011,-0.000145149,-0.00618412,-0.0400676,6.43898e-05,-0.00130681,0.0215844,-0.003951,0.00127924,-0.0219575,-0.00777614,-0.0347033,0.00109639,0.0245695,-0.00668383,-0.00647392,-0.0715475,0.00649208,-0.0283428,-0.00157999,0.00400682,0.00207205,0.0635878,0.0099089,-0.000897374,-0.0291014,0.00847155,-0.000298946,-0.0190076,0.0039704,0.0424873,-0.00719341,-0.0355499,-0.00860232,0.0240827,0.0115239,-0.00382458,0.00222206,-0.0230426,-0.00138397,-0.00856776,0.00674299,-0.0040449,0.00338635,-0.0101245,0.0023547,-0.00767488,-0.0312665,0.00382384,-0.00573077,0.000457589,-0.00616067,0.000794535,-0.00300147,0.00280368,0.026186,0.0205594,-0.0568607,-0.00462241,-0.0117267,0.0177691,-0.00383635,-0.000269498,0.00190377,0.00421779,-0.00510756,0.00106829,0.0286659,0.00287668,-0.0537349,0.00263875,0.00646018,0.0258387,0.466256,0.0156018,0.00614729,0.00894212,0.00239519,-0.00304314,-0.0978703,0.00415852,-0.00216759,0.00797461,-0.00774175,-0.00405606,-0.0279643,-0.0731835,-0.0134765,0.0192421,-0.012729,-0.019667,0.0280372,0.0132958,-0.0118281,0.00271131,-0.00199495,0.019386,0.00978365,-0.0320499,-0.0323192,0.00488466,0.0119974,0.0137339,0.0204479,-0.0120253,0.0564568,-0.00815435,-0.000273518,0.0229505,-0.000166768,-0.00251743,-0.0179265,0.0611597,0.00871832,0.0553586,0.00743771,-0.0523264,0.00631803,-0.0200223,0.00457718,-0.00853228,0.0033709,0.00573421,0.0124631,-0.00234928,-0.00906282,0.0375536,0.00511925,-0.00270409,-0.032853,0.00939422,-0.0159335,0.00957407,0.0283456,-0.0224786,0.0413417,0.00381675,0.00163648,-0.0233014,-0.00813456,-0.00195937,0.0215021,0.0118648,0.00505525,0,0.0216938,-0.00246444,-0.00986763,-0.0124255,-0.0452296,0.0414037,0.00386146,-0.00256083,-0.0306254,0.00975162,0.0310685,-0.00306428,0.0167532,0.00607569,0.248973,0.00379593,0.0359021,-0.00762143,0.0153353,0.272144,0.00200834,-0.00910088,-0.0109106,0.00888915,0.0553563,0.0334827,0.015945,-0.0710168,0.0128613,-0.0120428,-0.00347705,-0.0273651,0.0155801,0.0302109,0.0110569,0.0115526,-0.0311708,0.00145257,-0.0239689,0.000199648,-0.0140551,-0.0307765,-0.475813,0.00560139,-0.00233004,-0.00736056,0.00282335,-0.020997,0.00526728,-0.0685469,0.0987683,-0.00727507,0.00770292,0.00513631,0.00192178,-0.00532006,0.0128301,0.0131258,-0.0362541,0.00904641,0.00862482,-0.0335938,-0.0135132,0.0211796,-0.0137154,0.0690544,-0.00725592,-0.0180829,0.00628812,-0.0627557,0.0298329,0.00929483,0.889613,0.0433377,-0.0184537,-0.00361879,-0.00998366,0.0182602,-0.0214328,-1.3795,0.00703244,0.0122086,-0.0250912,0.0195845,-0.000431697,-0.0332865,-0.00201857,-0.0052097,0.0115427,-0.00227287,-0.0169873,-0.00886091,-0.0120105,0.032187,-0.0291271,0.0031261,0.0246627,0.0127143,-0.0176133,0.00506858,0.00448754,-0.000119736,-0.00145052,-0.00669591,0.0179511,-0.00869344,0.0173288,-0.0559858,-0.00589548,0.00676811,0.0277059,0.00272742,0.000834172,-0.00235098,-0.0347888,-0.000693451,-0.00966251,0.0239349,-0.00573885,-0.0106899,-0.0278195,-0.01896,-0.0263123,-0.00359387,0.0713502,-0.0160229,-0.0209821,0.00499063,0.00533559,-0.00290024,0.00733818,0.00656107,-7.46534e-05,0.106933,0.0127496,9.09697e-05,-0.0449346,0.00448789,0.00170999,-0.0187471,-0.00740459,0.0452059,-0.00574637,-0.0278348,-0.00381385,0.0606877,0.0118249,-0.00394613,0.00261393,-0.020641,-0.0145667,-0.00624721,0.00985726,0.0260171,0.01901,-0.0151107,0.00820946,-0.0290402,-0.0349939,0.00486567,-0.0110984,-0.0416286,-0.00662699,0.0113212,-0.00120902,0.00667732,-0.0157037,0.0534638,-0.0360109,-0.00171117,-0.0165777,0.0296142,-0.00922055,-0.00103421,-0.00491437,0.000159607,-0.0018887,-0.00552425,0.0398107,-0.0111942,-0.0801588,0.00206963,0.00493425,0.017732,-0.105083,0.0064216,-0.00440898,0.0154909,0.000884763,0.00166641,-0.0500923,0.0186182,-0.00264976,0.0504045,-0.0039002,-0.0199496,-0.026633,-0.0541816,0.00337933,0.0252001,0.00590145,-0.0200448,0.0128275,0.0190356,0.0145323,-0.00565743,-0.00412195,0.02173,0.00282474,-0.00129611,-0.0310938,0.00733008,0.0871394,-0.0050996,0.0253243,-0.032746,0.0360253,-0.0188945,-0.00358876,0.0377542,-0.00323035,-0.0365562,-0.003463,0.0616704,0.01038,0.0256728,0.00254475,-0.0831071,0.00133759,-0.00946984,-0.00251019,-0.00558437,0.00417827,0.00226562,0.0136679,0.0161908,-0.0145012,0.0347212,0.00837443,0.00158968,-0.019305,0.00999572,-0.0161131,0.00589065,0.0185418,-0.0212366,0.0312516,0.00758106,-0.00130997,-0.00288129,-0.00723755,-0.000622654,0.00737093,0.0180288,0.00376561,0,0.0063149,-0.00280128,-0.00780262,-0.0179214,-0.0344059,0.0376967,-0.00972814,0.0119069,-0.0167157,0.00551929,0.498511,-0.0100618,0.000378922,-0.00927786,0.00660269,0.00450417,0.0301682,0.00430221,0.0137941,0.00608478,-0.00114867,-0.016855,-0.0112149,-0.00137287,0.0261299,-0.0164713,-0.0270766,-0.0220988,0.00246895,-0.0136561,-0.00517425,-0.0333462,-0.00797652,-0.00999617,-0.00226979,0.0105557,-0.00736158,-0.0491793,-0.01499,-0.00121712,0.00259637,-0.0202272,0.0175487,0.0060332,-0.00144503,-0.00559518,0.00620744,0.539246,0.00475477,-0.0266475,0.0609221,0.00245221,-0.010786,0.0237693,-0.0036259,-0.00255403,0.00521594,0.0163034,-0.00388604,-0.00342359,0.00714581,-0.0118652,-0.011646,0.0107314,-0.00930286,0.0267034,0.0169124,-0.0142808,0.00232675,0.0126179,0.00213983,0.0010999,-0.0477119,0.0108135,-0.0155046,-0.00283229,-0.00738232,0.00493556,-0.00619756,-0.0032023,-0.00575686,0.00424628,-0.0192062,-0.0227773,-0.00545468,-0.0393834,-0.00494647,-0.0147376,0.00243826,-0.00125664,-0.0216786,-0.0107128,-0.0153971,0.0342267,-0.0203857,0.00159763,0.0483926,0.0189986,-0.0226758,0.00348072,0.000292273,-0.00623636,-0.00532273,-0.00601511,-0.00214035,-0.00609824,0.0205057,-0.0036751,0.00689313,0.0025205,0.0124245,0.00552956,0.0023548,0.0111414,-0.0154125,-0.00272847,-0.0129319,0.00936539,0.00171214,-0.000882916,0.00356151,-0.0258995,-0.00964272,0.00106111,0.0413998,-0.00598396,-0.0187767,0.0276926,0.0108827,0.0261159,0.00992615,0.00309871,-0.00874326,0.0176704,0.00360184,-0.0191399,-0.0327117,-0.00831633,-0.00658014,-0.0122367,-0.0252314,0.0138248,-0.000888883,-0.001228,0.340353,0.0153877,0.00660285,0.0139324,-0.00560364,0.00756362,-0.00441196,0.00314123,0.013975,0.0154265,0.0140585,