0,-0.0091404,-0.00427434,-0.00810833,-0.232451,-0.0493422,0.0202097,0.00574427,0.00658676,0.0232285,-0.0281284,0.128995,0.0423319,-0.0290625,-0.0169992,0.0117583,-0.00364283,0.00630715,0.0374571,-0.0027065,0.0894358,-0.0164158,0.0043684,-0.0185815,-0.102251,0.00926723,0.00417353,0.0421252,0.0112501,0.0750687,-0.0276173,-0.0168458,-0.0166079,0.0125706,-0.0269187,-0.0165997,0.00139533,0.00563572,0.0590811,0.0306393,-0.00262845,-0.001406,-0.0122031,0.010043,0.0607736,-0.000678022,-0.0148262,0.0647783,-0.020789,0.00466081,-0.00439282,0.00449877,-0.00436201,-0.01279,0.0555382,-0.00629367,0.0127337,-0.00350611,0.00310225,-0.00486083,-0.0185219,0.0177603,-0.0240645,0.0357654,-0.00423364,0.00550258,0.00973975,-0.080353,-0.162321,-0.0412315,0.0133722,-0.0186057,0.0162132,0.00908242,0.0119986,-8.36635e-05,-0.0179565,-0.011948,-0.0383979,0.00350399,-0.0159552,0.0107977,0.0163591,-0.0231486,0.0145863,-0.00418349,0.0205895,-0.130483,-0.0535448,0.00266474,-0.0238678,-0.196046,0.0322344,-0.00495097,-0.0271116,-0.0636709,0.00426933,-0.0138228,-0.0133173,-0.233243,0.00437034,0.00575776,-0.00571161,-0.0169961,-0.0119107,0.000321028,-0.0112736,-0.00583052,0.0537119,0.0466112,0.0168472,0.0191205,0.00468631,0.00889697,0.120391,0.0298548,-0.0158218,-0.0573886,0.0101231,0.00266079,0.0113644,-0.150018,-0.0878249,0.0156572,-0.0064396,0.0546483,-0.00913063,-0.0368581,-0.0159559,-0.00625169,0.00419073,0.00681572,0.0117795,0.00111014,0.0299816,0.000825486,-0.0150759,-0.00947849,-0.101657,-0.0215192,-0.0189444,-0.123516,0.00761731,-0.00396602,-0.00743888,0.00135864,-0.0706943,0.00118839,-0.0194713,0.003272,0.0579877,0.000114488,-0.0268748,0.151384,-0.0123873,0.0121334,-0.0148442,-0.00611879,-0.0179151,-0.0100805,0.00830781,-0.00222958,0.0386983,-0.11304,-0.00292506,0.00116337,0.0491582,-0.0130946,0.0313048,-0.0631586,-0.00593214,0.000783812,0.0332649,-0.0149157,-0.025924,0.00152798,-0.00125445,0.0209636,-0.000236597,0.029083,-0.0543872,0.00523952,-0.000120903,-0.00753391,-0.006906,-0.0170342,0.0359674,-0.0200757,-0.0157903,-0.0715763,-0.0130834,0.0055387,0.00412912,-0.0136533,-0.00946229,-0.000850183,-0.0153298,-0.0358461,0.00656919,-0.0103816,-0.00211229,-0.039161,-0.0218532,0.125768,0.236528,-0.128031,0.0093,0.0344083,-0.00071581,-0.00277643,-0.00613934,0.00433744,0.02874,0.0169975,-0.0238745,0.0127032,-0.00819645,0.0174906,-0.00692016,-0.0223736,0.0199427,-0.0219038,-0.0465678,-0.0347385,-0.0208758,0.143529,0.00604552,0.0440956,-0.0311072,-0.00191588,0.0132464,0.00156113,0.041904,0.00551391,-0.0699333,0.0300727,0.0242058,-0.0368144,-0.0128559,0.0106125,0.0121342,0.0147712,-0.0502893,-0.0750826,-0.0439744,-0.0273924,-0.0863975,-0.0035777,-0.0318821,-0.0105051,0.032488,0.0127763,-0.00129572,0.00955323,0.0332266,0.0204409,0,0,0,0,0,0,0,0,0,0,0,0,0,0,0,0,0,0,-0.0180674,0,0,0,0,0,0,0,0,0,0,0,0,0,0,0,0,0,0,0,0,0,0,0,0,0,0,0,0,0,0,0,0,0,0,0,0,0,0,0,0,0,0,0,0,0,0,0,0,0,0,0,0,0,0,0,0,0,0,0,0,0,0,0,0,0,0,0,0,0,0,0,0,0,0,0,0,0,0,0,0,0,0,-0.461099,0,0,0,0,0,0,0,0,0,0,0,0,0,0,0,0,0,0,0,0,0,0,0,0,0,0,0,0,0,0,0,0,0,0,0,0,0,0,0,0,0,0,0,0,0,0,0,0,0,0,0,0,0,0,0,0,0,0,0,0,0,0,0,0,0,-0.0268043,0,0,0,0,0,0,0,0,0,0,0,0,0,0,0,0,0,0,0,0,0,0,0,0,0,0,0,0,0,0,0,0,0,0,0,0,0,0,0,0,0,0,0,0,0,0,0,0,0,0,0,0,0,0,0,0,0,0,0,0,0,0,0,0,0,0,0,0,0,0,1.98379,0,0,0,0,0,0,0,0,0,0,0,0,0,0,0,0,0,0,0,0,-1.45109,0,0,0,0,0,0,0,0,0,0,0,0,0,0,0,0,0,0,0,0,0,0,0,0,0,0,0,0,0,0,0,0,0,0,0,0,0,0,0,0,0,0,0,0,0,0,0,0,0,0,0,0,0,0,0,0,0,0,0,0,0,0,0,0,0,0,0,0,0,0,0,0,0,0,0,0,0,0,0,0,0,0,0,0,0,0,0,0,0,0,0,0,0,0,0,0,0,0,0,0,0,0,0,0,0,0,0,0,0,0,0,0,0,0,0.142972,0,0,0,0,0,0,0,0,0,0,0,0,0,0,0,0,0,0,0,0,0,0,0,0,0,0,0,0,0,0,0,0,0,0,0,0,0,0,0,0,0,0,0,0,0,0,0,0,0,0,0,0,0,0,0,0,0,0,0,0,0,0,0,0,0,0,0,0,0,0,-0.339857,0,0,0,0,0,0,0,0,0,0,0,0,0,0.890931,0,0,0,0,0,0,0,0,0,0,0,0,0,0,0,0,0,0,0,0,0,0,0,0,0,0,0,0,0,0,0,0,0,0,0,0,0,0,0,0,0,0,0,0,0,0,0,0,0.199764,0,0,0,0,0,0,0,0,0,0,0,0,0,0,0,0,0,0,0,0,0,0,0,0,0,0,0,0,0,0,0,0,0,0.203311,0,0,0,0,0,0,0,0,0,0,0,0,0,0,0,0,0,0,0,0,0,0,0,0,0,0,0,0,0,0,0,0,0,0,0,0,0,0,0,0,0,0,0,0,0,0,0,0,0,0,0,0,0,0,0,0,-1.96428,0,0,0,0,0,0,0,0,0,0,0,0,-0.695887,0,0,0,0,0,0,0,0,0,0,0,0,0,0,0,0,0,0,0,0,0,0,0,0,0,0,0,0,0,0,0,0,0,0,0,0,0,0,0,0,0,0,0,0,0,0,0,0,0,0,0,0,0,0,0,0,0,0,0,0,0,0,0,0,0,0,0,0,0,0,0,0,0,0,0,0,0,0,0,0,0,0,0,0,0,0,0,0,0,0,0,0,0,0,0,0,0,0,0,0,0,0,0,0,0,0,0,0,0,0,0,0,0,-0.899156,0,0,0,0,0,0,0,0,0,0,0,0,0,0,0,0,0,0,0,0,0,0,0,0,0,0,0,0,0,0,0,0,0,0,0,0,0,0,0,0,0,0,0.52923,0,0,0,0,0,0,1.687,0,0,0,0,0,0,0,0,0,0,0,0,0,0,0,0,0,0,0,0,0,0,0,0,0,0,0,0,0,0,0,0,0,0,0,0,0,0,0,0,0,0,0,0,0,0,0,0,0,0,0,0,0,0,0,0,0,0,0,0,0,0,0,0,0,0,0,0,0,0,0,0,0,0,0,0,0,0,0,0,0,0,0,0,0,0,0,0,-0.305944,0,0,0,0,-0.957135,0,0,0,0,0,0,0,0,0,0,0,0,0,0,0,0,0,0,0,0,0,0,0,0,0,0,0,0,0,0,0,0,0,0,0,0,0,0,0,0,0,0,0,0,0,0,0,0,0,0,0,0,0,0,0,0,0,0,0,0,0,0,0,0,0,0.819005,0,0,0,0,0,0,0,0,0,0,0,0,0,0,0,0,0,0,0,0,0,0,0,0,1.15351,0,0,0,0,0,0,0,0,0,0,0,0,0,0,0,0,0,0,0,0,0,0,0,0,0,0,0,0,0,0,0,0,0,0,0,0,0,0,0,0,0,0,0,0,0,0,0,0,0,0,0,0,0,0,0,0,0,0,-0.711493,0,0,0,0,0,0,0,0,0,0,0,0,0,0,0,0,0,0,0,0,0,0,0,0,0,0,0,0,0,0,0,0,0,0,0,0,0,0,0,0,0,0,0,0,0,0,0,0,0,0,0,0,0,0,0,0,0,0,0,0,0,0,0,0,0,0,0,0,0,0,0,0,0,0,0,0,0,0,0,0,0,0,0,0,0,0,0,0,0,0,0,0,0,0,0,0,0,0,0,0,0,0,0,0,0,1.32044,0,0,0,0,0,0,0,0,0,0,0,0,0,0,0,0,0,0,0,0,0,0,0,0,0,0,0,0,0,0,0,0,0.329026,0,0,0,0,0,0,0,0,0,0,0,0,0,0,0,0,0,0,0,0,0,0,0,0,0,0,0,0,0,0,0,0,0,0,0,0,0,0,0,0,0,0,0,0,0,0,0,0,0,0,0,0,0,0,0,0,0,0,0,0,0,0,0,0,0,0,0,0,0,0,0,0,0,0,0,0,0,0,0,0,0,0,0,0,0,0,0,0,0,0,0,0,0,0,0,0,0,0,0,0,0,0,0,0,0,0,0,0,0,0,0,0,0,0,0,0,0,0,0,0,0,0,0,0,0,0,0,0,0,0,0,0,0,0,0,0,0,0,0,0,0,0,0,0,0,0,0,0,0,0,0,0,0,0,0,0,0,0,0,0,0,0,0,0,0,0,0,0,0,0,0,0,0,0,0,0,0,0,0,0,0,0,0,0,0,0,0,0,0,0,0,0,0,0,0,-0.215363,0,0,0,0,0,0,0,0,0,0,0,0,0,0,0,0,0,0,0,0,0,0,0,0,0,0,0,0,0,0,0,0,0,0,0,0,0,0,0,0,0,0,0,0,0,0,0,0,0,0,0,0,0,0,0,0,0,0,0,0,0,0,0,0,0,0,0,0,0,0,0,0,0,0,0,0,0,0,0,0,0,0,0,0,0,0,0,0,0,0,0,0,0,0,0,0,0,0,0,0,0,0,0,0,0,0,0,0,0,0,0,0,0,0,0,0,0,0,0,0,0,0,0,0,0,0,0,0,0,0,0,0,0,0,0,0,1.01287,0,0,0,0,0,0,0,0,0,0,0,0,0.935906,0,0,0,0,0,0,0,0,0,0,0,0,0,0,0,0,0,0,0,0,0,0,0,0,0,0,0,0,0,0,0,-0.000909886,0.000174719,-1.67522e-05,-0.000946434,-0.000234915,0.00186625,-0.000520919,1.80599e-06,4.5232e-05,0.000104609,-0.000550411,-2.84427e-05,0.000126406,-9.64445e-06,-0.00148136,0.000324952,2.05975e-05,0.00205787,0.000451845,0.000123019,0.000288591,0.000984577,-0.000183262,-1.4674e-05,-0.000329226,0.000632801,0.00039131,0.000171051,0.000540568,-0.000124216,-0.000423471,-0.000400844,0.000172426,-0.000214872,-0.000813782,-0.000317291,9.68321e-05,0.00217386,0.000675374,8.06475e-05,7.94666e-05,0.00145861,-0.00377934,0.000118412,0.00111,-0.000247273,0.000100129,-0.000691895,0.000325041,0.00114173,-0.00100745,0.000874123,-0.00119255,9.87663e-05,0.000210577,-9.18052e-05,6.92151e-05,0.00260558,-0.00170319,-3.12651e-05,0.000229481,0.00206375,0.000804635,0.00146984,-0.00026318,-0.00152554,-0.00510998,-2.41852e-05,-0.000331204,6.84676e-05,0.000118137,-8.7842e-05,0.000167165,0.000764415,-0.0028756,-6.01778e-05,0.000491866,2.85982e-05,0.000373822,0.000119483,-0.00178513,-2.06866e-05,-0.000239083,-0.000750274,0.00135748,-5.12189e-05,-0.000102997,-0.000305746,-0.000429037,-0.00101775,-0.000475499,-0.00064841,-0.000536259,3.06239e-05,-0.00199253,0.000184971,-7.85516e-05,4.8242e-05,-0.000695198,-4.16543e-05,0.000150275,-1.2376,-0.000561224,4.16651e-05,-0.000546184,-0.000492312,7.4511e-07,-0.00119261,-4.4737e-05,0.000292867,-0.000482809,4.72678e-05,0.000554518,0.000283143,-1.84352e-05,0.000430932,3.25776e-06,0.00107735,0.000983973,-0.000678747,0.000118843,-0.000479396,0.000242092,-0.000145098,0.000266515,-0.000500799,-0.000516405,0.00156079,-0.00088205,-0.000646099,-0.00017587,0.000244801,0.000189578,-0.00216458,0.00120782,0.000199588,-0.000141851,-0.000260005,3.16582e-05,-0.000110669,1.80516e-05,0.000474196,-0.000137398,1.59719e-05,0.000548924,0.000872174,5.09714e-05,0.000582815,0.000729639,-9.18393e-05,-0.000155389,0.000471318,0.000581618,0.00299782,-0.000280776,0.000245678,-7.69393e-05,0.000148026,-8.65205e-05,-6.01228e-06,0.000292223,-0.00069119,-0.000255963,-0.000275182,-7.05858e-05,0.000132443,-0.00409156,0.000336692,-0.00697224,1.00063e-05,0.000374001,-2.76932e-06,0.000251906,-0.000543551,-0.000384292,8.62508e-05,9.97556e-05,0.00015239,0.000953082,-0.00012665,-0.00803449,-0.000404576,-0.000876296,0.000616871,0.00110049,-1.45149e-05,0.000149815,-1.59067e-05,-0.000273253,-0.000506183,0.00112048,0.000337461,-0.000134317,0.00102987,0.000187777,-0.000348474,-0.000257053,0.000625315,0.00248716,0.000506514,-0.000147115,-0.00106576,4.79033e-05,0.000716741,-0.00103706,-0.000891923,7.44675e-05,0.000236004,0.00160681,0.00307152,0.000106136,0.00198488,0.00483268,-0.000697442,0.000103584,-0.000261983,0.000313903,-0.000441455,-0.000310192,-0.000101275,0.00114636,6.23451e-05,3.30078e-05,-0.000396345,0.000578237,-0.000594704,0.000987799,-0.00117749,-0.000390394,-0.00133968,0.00130962,2.82536e-05,7.38204e-05,-0.000121862,0.000572421,5.97519e-05,-0.000178716,0.000291341,6.77935e-05,-0.00351801,-0.00323246,-0.000204098,-0.000745587,-0.000983336,0.00197539,-0.00019831,0.00106913,0.000134359,-8.67559e-05,0.00153836,0.0010993,-0.000367893,-0.000947604,0.00055134,3.8258e-05,0,0.0104083,0.00110691,0.0017888,-0.00490825,-0.00632635,0.0193164,0.00451325,-0.00238824,-0.000671435,0.000170525,0.00358967,4.108e-05,-0.00138137,0.00182088,-0.00911967,0.00431264,0.00240642,0.00750922,0.00323393,0.00181635,0.000122004,0.0130975,-0.00103247,0.794353,-0.00306565,0.0132677,0.0012762,-0.00168627,0.00159083,-0.000725684,-0.00676641,-0.607464,0.00517897,-0.00024348,-0.0026389,0.000195853,0.0028827,0.0152216,0.000143298,0.000703781,-0.00424643,0.033123,0.0248441,0.00137613,0.000494558,-0.00340838,0.00292449,0.00161526,0.00502375,0.0111469,0.000381478,-0.00031662,-0.00494883,0.00270936,0.00181502,-0.000431937,0.00215539,0.0126173,-0.00406503,-0.000325342,0.00208662,-0.00216035,0.000586533,0.00641118,-0.00235525,0.00117966,-0.032758,-0.00252703,-0.00256337,0.00144833,0.517631,-0.0120482,0.00111844,0.00204635,-0.00631628,-0.000316931,0.0024591,-0.000119881,-0.00417231,-0.00429798,-0.000829595,0.00384986,-0.0050905,0.00278079,0.0102502,-0.000399579,-0.00316994,-0.00179636,0.000266801,-0.0177632,-0.00262438,-0.00312327,-0.00121826,0.000162004,-5.3174e-05,0.00213408,-0.000720144,-0.00561413,-0.00767232,3.44066e-05,0.00238781,0.000337493,-0.00225413,0.00200708,-0.00699866,-0.00147671,-2.66618e-05,-0.0062431,0.00213938,0.00131904,0.0023105,0.00219736,-0.00188098,0.00235306,0.000575422,0.00214406,-0.00239849,0.00902273,0.00191478,-0.0120468,-0.002756,1.59511,0.001076,-0.00177616,0.000949521,-0.0042374,-0.000583679,0.0137649,-0.00249766,0.00167328,0.000942935,-1.05933e-05,0.00206597,-0.00173221,0.00374639,0.00255556,-0.00303805,-0.00186769,-0.000228534,0.000962632,-0.00544242,0.00677414,-0.00269069,-0.00119174,0.00783865,0.00347116,0.00688051,0.00575088,0.00505488,0.00247035,0.000396869,0.00667975,0.00244123,0.0150108,0.00393997,-0.00226486,-0.000598696,-0.00481518,-0.00599568,-0.000192833,0.00279058,-0.00404833,-0.00204488,-0.00887143,0.00029521,0.0010925,-0.0154168,0.00199587,-0.0332986,0.000151455,-0.00563167,0.00162156,0.00214743,-0.000550948,-0.000562713,0.000231696,-0.000476355,-0.000264642,0.000369487,-0.00153031,-0.022428,0.000817268,-0.000396333,0.000870133,0.00276333,0.00142702,0.00122574,0.00175695,-0.00146416,-0.00670485,-0.0242678,0.00437259,0.000422911,0.0154632,0.00201776,-0.00140556,-0.00301475,-0.0154367,0.012464,0.00582559,-0.00147879,-0.00105878,0.00435974,0.00657944,-0.00445554,-0.00281344,0.00107419,0.0102892,0.00586475,0.0352298,-0.0105813,-0.00751752,0.0288327,-0.00582718,0.00346807,0.00220969,0.00244486,-0.00538992,-0.0046488,0.00221704,0.00576266,0.000126027,-0.000906903,-0.000299864,0.00240827,-0.00146367,0.010871,-0.0238643,-0.000442568,-0.0356119,0.006897,0.000206785,-0.000424613,-0.000948538,-0.00287316,1.36504e-05,0.977598,0.00189377,0.00698546,-0.0103188,-0.0256595,-0.000989203,-0.00113146,-0.0212199,-0.855445,-0.00360835,0.0312826,0.000324932,-0.00279073,0.00529949,0.00119069,-0.00293333,-0.00113438,0.00739597,-0.00139825,0,0.0331086,0.0141606,0.000735608,-0.0182298,-0.0292196,0.0710371,0.00661971,-0.00473292,0.000670788,-0.0117781,0.0137922,0.00110156,-0.00223826,0.00506824,0.00200854,-0.0223753,0.00799511,0.0117973,0.0159591,0.00733866,0.00355271,0.020604,-0.0033084,-0.0150743,-0.00364524,0.0261387,0.017209,-0.0160613,0.00844315,-0.00307295,-0.00870511,-0.0218647,0.0129795,0.00337048,-0.00237043,-0.00345615,-0.000549512,0.0160445,0.00907832,-0.000790585,-0.0141506,0.0623191,0.0800015,0.004453,-0.00241837,-0.00714485,0.00659198,-0.0145734,0.00569145,-0.0157123,0.0208062,-0.00367461,0.00471788,0.00674589,0.000818768,0.0240599,0.00100858,0.024859,-0.0232168,-0.000664997,0.0076963,-0.0260698,0.00502036,0.00404149,0.00234759,0.0371539,-0.0454221,-0.011586,-0.0056518,-0.000945208,0.00142144,0.0125254,0.00378433,0.0295083,-0.0267284,-0.000649077,-0.0110599,-0.000214669,-0.014363,-0.0160546,0.0248439,0.00850255,-0.024281,0.00877304,-0.00706604,-0.000797426,-0.0152025,-0.00628826,0.0116865,-0.0395439,-0.00819338,0.00793743,-0.0024027,-0.000318271,-0.0275456,-0.00929341,-0.00797812,-0.00305177,-0.0188628,0.00148916,0.00592669,-0.0102571,-0.00372923,-0.00848158,-0.00206596,0.49387,-0.216853,0.0236958,0.00864494,0.00607894,0.0146172,-0.00108967,0.00940562,0.00694292,0.000926435,0.0018578,-0.0144125,0.0202031,0.0009969,-0.000402184,-0.015707,-2.06665,0.00101634,-0.0018481,0.00589827,-0.00515464,-0.00741517,0.00161847,-0.00341691,0.027944,-0.00715098,0.0052912,8.15555e-06,0.0432588,0.0138834,-0.000634088,-0.00511222,-0.00511868,0.000562635,-0.00938952,-0.0200265,0.0187425,0.00251162,4.15663e-05,-0.00363493,0.00865561,0.0147541,-0.00930335,0.0171524,0.01042,-0.000652311,0.000138572,0.00871431,0.0418368,0.0241843,-0.0140131,0.00494518,-0.0121522,-0.0237219,0.00114,0.00378712,0.0102265,-0.00609473,-0.0242943,0.000566587,0.00356761,-0.0286108,0.00713605,-0.0609263,0.000366385,-0.015745,0.00621599,-0.00915779,-0.00484779,-0.0193787,0.00320666,0.00560472,0.00377777,0.0328524,-0.00479764,-0.0322079,0.000874572,-0.005113,-0.00980855,-0.0443043,0.00672481,-0.00463941,0.000483745,-0.00433666,-0.0137056,-0.0477576,0.0155963,-0.00587913,0.0613414,-0.00775055,-0.011886,-0.009104,-0.0450852,0.00133752,0.0116598,-0.00355885,-0.0313942,0.0176178,0.0194956,-0.0191229,-0.00760883,0.00306121,0.0159081,0.0190262,0.0435538,-0.0180271,0.0172156,0.0726412,-0.0162586,0.00829258,0.00619623,0.00100428,-0.00399431,-0.0165882,0.0101349,0.0127628,-0.00206813,-0.00515155,-0.0186087,0.00875688,0.00463719,0.0208276,-0.052801,0.00375072,-0.0239727,0.013584,0.00107381,-0.00241158,-0.00470239,-0.00233211,0.000166175,-0.00836681,0.00541872,-0.00162038,-0.0158822,-0.0331235,-0.00347873,-0.00845184,-0.0273496,0.0498884,-0.0134025,0.050603,0.000841664,-0.0138134,0.0152207,-0.00397641,-0.00436119,0.00529531,0.0215512,0.00224038,0,0.062353,0.0206167,-0.00151859,-0.0323532,-0.0601248,0.0843049,0.00302722,-0.00425515,-0.00387843,-0.0086693,0.0309444,0.00266528,-0.00430105,0.00678322,-0.0163022,-0.0094985,0.00796365,-0.0284779,0.0173653,0.0141938,-4.52e-05,0.00878971,-0.00527217,-0.0292485,-0.00158546,0.0291777,0.0333408,-0.0372494,0.0167918,-0.0055088,-0.0103195,-0.0061699,0.0204335,0.00951804,-0.00358489,-0.00635285,-0.00574812,0.0299273,0.0198219,-0.00170095,-0.0319134,0.0698356,0.05199,0.00866542,-0.0203998,-0.0069575,0.0125417,-0.0112356,0.00258411,-0.0528587,0.0212461,-0.0110963,0.0114924,0.0150044,0.0163979,0.0246983,-0.00566099,0.0183948,-0.0137306,-0.000836415,0.0042823,-0.0435873,0.0126546,0.0159434,0.0125407,0.0971864,-0.0700875,-0.0257874,-0.00946793,0.000350042,0.0027892,0.035619,1.90441,0.0578027,-0.0274607,-0.0010444,-0.0270692,0.000178085,-0.0242469,-0.0252665,0.0453883,0.00465541,-0.0202591,0.0157074,-0.0190797,-0.000435633,-0.0294791,-0.00985879,0.0345681,-0.0184276,-0.0172393,-0.0114459,0.000340838,-0.00154841,-0.0436206,-0.0156237,-0.00717181,0.037043,-0.0348187,0.00294667,0.00617548,-0.0208064,0.00462806,-0.0123626,0.00686971,-0.00392845,-0.00319384,0.00309447,0.0157399,0.00428156,0.0262516,-0.0147167,0.0140074,0.012038,0.00243364,-0.00405237,-0.023783,0.0132558,-0.00221493,-0.0136957,-0.029637,-0.018309,-0.015534,0.000219485,0.0138632,-0.00307428,-0.0126671,-0.0422986,0.00158449,0.0714097,-0.0102663,0.0149407,-0.00407867,0.0844431,0.0192591,-0.00696978,-0.0182273,-0.00986436,0.00116838,-0.0262792,-0.0364747,0.0237738,0.000972205,0.000271263,-0.0231114,0.0118815,0.0408124,-0.0353154,0.0326124,0.0188571,-0.0167723,-0.0044734,0.0166238,0.0686062,0.0205289,-0.0185317,0.0144071,-0.0372052,-0.0439246,0.00175385,-0.00261706,0.00565512,-0.0131011,-0.0239138,-0.002419,0.00688859,-0.0474675,0.0134349,-0.157203,-0.000780673,1.29854,0.0129769,-0.0166646,-0.028633,0.0157447,0.00969236,0.00938314,-0.0011279,0.0791182,-0.00995048,-0.126644,-0.00312022,0.00281969,-0.00343477,-0.0927115,0.0123688,-0.018755,0.00383258,-0.00881166,0.000982643,-0.0521807,0.0291017,-0.00998176,0.0572182,-0.0365191,-0.0299985,-0.0171247,-0.0699765,-0.00905207,0.01083,-0.00516443,-0.0411312,0.032154,0.0353116,-0.0358001,0.0312813,0.00574127,0.0114305,0.022133,0.0497699,-0.0181635,0.0209788,0.0934263,-0.0324846,0.0164155,-0.000120632,-0.00437481,0.0112072,-0.00613623,0.0188109,0.0101907,-0.00561844,-0.0102416,-0.0218371,0.0157095,0.0798177,0.0344689,-0.0286633,0.0101802,-0.00847499,0.00542924,0.00283296,-0.00468007,-0.00766987,-0.00626589,0.00104587,-0.0124403,0.00741593,0.00209552,0.0463201,-0.0636318,-0.00626355,-0.0170615,-0.0337839,0.0630468,-0.0263873,0.0713253,0.000470261,-0.00488077,0.0149767,-0.0047341,-0.0112971,0.0178461,0.039815,0.000995117,0,0.0555993,0.0105253,0.00276723,-0.0526714,-0.0722859,0.135472,-0.00244529,-0.00345363,-0.00484367,-0.00301225,0.0437665,0.00318466,-0.0103478,0.00808385,-0.0260787,0.00236632,0.00032677,-0.0229999,0.016654,0.0219962,0.00669593,0.0274907,-0.00809704,-0.0449054,0.00760262,0.0267271,0.0473129,-0.0385712,0.0278991,-0.00777048,-0.0148425,-0.00875942,0.0141224,0.0104509,-0.00757485,0.00382466,-0.00495989,-0.0292305,0.0126041,-0.00273363,-0.0193028,0.033636,0.0687973,0.0133765,-0.0131689,-0.0120932,0.0187832,-0.0133971,0.00583205,-0.0376441,0.0215324,-0.00818091,-0.00635592,0.0234012,0.00116443,0.0106949,-0.00012355,0.040707,-0.0501494,-0.00495362,0.0102946,-0.0209281,0.0108209,0.0216268,0.00566946,0.0950636,-0.0849094,-0.0393489,-0.0133474,0.00694999,0.00152839,0.0133631,0.0108588,0.0590523,-0.0448362,-0.00416259,-0.0091741,-0.00183724,-0.0234413,-0.0142206,0.0244396,0.0061684,-0.0265386,0.0177847,-0.0106584,7.61004e-06,-0.042458,-0.0149922,0.0262869,-0.0326218,1.02463,-0.0176097,0.00100991,-0.0022922,-0.0559261,-0.00192354,-0.0258137,0.0137276,-0.0570563,0.0039472,0.00848456,-0.00897087,-0.00290362,-0.00709854,0.00333052,-0.0105123,-0.00475384,0.0180492,0.599597,0.0107181,0.0385448,-0.0159352,0.00999216,0.019773,0.00441263,-0.00054175,-0.0334281,0.0151742,0.00334167,-0.0274455,-0.0436103,-0.0324476,-0.0054701,-0.00215703,0.0208964,-0.00920505,-0.0139624,0.020792,0.010196,0.0837635,-0.00134867,0.0140457,0.00328502,0.10292,0.013315,0.00477155,-0.0246743,-0.0188063,0.00189775,-0.0350752,-0.0562672,0.0304578,-0.00606655,-0.00332063,-0.0133555,0.0118826,0.00438255,-0.014279,0.0228687,0.0287452,-0.0155562,-0.00166961,0.0264906,0.100056,0.0143447,-0.015439,0.0225406,-0.0373216,-0.0448487,0.00419345,0.00054527,0.00653107,-0.0197038,-0.0181965,-0.00351288,0.0112099,-0.0491855,0.0172884,-0.172265,-0.00149862,-0.0247085,0.0193009,-0.0139846,-0.0204407,0.00270109,0.00503367,0.00741312,0.000497088,0.0567093,-0.0149456,-0.130877,-0.00583881,0.00348976,0.022155,-0.0890426,0.0172487,-0.00861338,-0.000345948,-0.0131566,-0.0162059,-0.0767486,0.0262823,-0.00596514,0.0245832,-0.0236576,-0.0254711,-0.024223,-0.0771717,-0.00695613,0.0222193,-0.00841169,-0.0290179,0.0494716,0.0556617,-0.0582378,0.0119644,0.00913506,0.0207765,0.023712,0.012888,-0.0434267,0.0306895,0.132552,-0.0275077,0.025914,-0.000283146,0.0029095,-0.0195973,0.000974784,0.0219172,0.0188434,-0.00935834,-0.014885,-0.0155865,0.0272687,0.0408619,0.0397018,-0.0821771,0.00285383,-0.0586646,0.016607,0.00529375,0.006488,-0.0144704,-0.00148284,0.00547388,-0.0166707,0.0085629,-0.00221352,0.0109442,-0.0638251,-0.0109042,-0.0189504,-0.00968849,0.0596178,-0.0361939,0.0504023,0.000279596,-0.00507104,-0.004207,0.005719,-0.00480749,0.00847171,0.0421244,0.00653278,0,0.0269164,0.0270084,0.00593466,-0.0791267,-0.0788607,-0.0823511,-0.00943432,0.00409783,-0.00273508,-0.0284775,0.0610055,0.00553812,-0.0149731,0.00775053,0.0249718,0.00482764,0.00455669,-0.0367098,0.0199432,0.032904,-0.00137507,0.00532994,-0.00775431,-0.0577909,0.0162799,0.0212741,0.060434,-0.0495038,0.0390289,-0.0107836,-0.015549,0.000737716,0.0178486,0.00489503,-0.0039758,0.000639466,-0.00422872,-0.123654,0.0170075,-0.00404362,-0.0190417,0.0835616,0.0998736,0.021055,-0.0114722,-0.0100742,0.0247906,-0.0219973,0.00377718,-0.053074,-0.0549117,-0.0156903,0.0448632,0.0280352,-0.00763736,0.0153978,0.00674783,0.000969966,-0.0190875,-0.0065816,0.00346561,-0.070256,0.0146485,0.00432506,-0.00322701,0.133018,-0.00258942,-0.0599749,-0.0186895,0.00826304,-0.000419714,0.0399171,0.0154218,0.0705909,-0.0354622,-0.00233461,-0.023074,-0.00478912,-0.0185302,-0.0250442,0.00381833,0.0114221,-0.0345558,0.022117,-0.0291269,0.00218459,-0.0582352,-0.0210008,0.0211939,-0.0275458,-0.0539758,-0.00433698,0.00516716,-0.00423418,-0.0345403,-0.0223863,-0.0168227,0.00181153,-0.081924,0.00593326,0.00331619,-0.0130287,0.000235215,-0.017273,0.00951863,0.00261958,-0.00557257,0.0236076,0.029551,0.0145746,0.0370878,-0.0180776,0.00666768,0.0330418,0.00644323,-0.0114962,-0.0373285,0.0184734,-0.000327875,-0.00776807,-0.0586233,-0.0447769,-0.0079341,0.00933015,0.0331088,0.0073272,-0.021585,-0.0519508,0.0182865,0.0588158,-0.00371158,0.00611521,-0.00457141,0.12204,0.000322615,-0.00842682,-0.0174949,-0.031037,0.000538247,-0.0169216,-0.0738624,0.0250577,-0.0023506,-0.00140186,-0.0198241,0.00458509,0.00223831,-0.0200797,0.020299,0.0362563,-0.00503835,-0.0252763,0.0430803,0.0530622,-0.00359289,-0.0196787,0.013416,-0.0172779,-0.474052,0.00863889,-0.00976609,0.00560661,-0.0336512,-0.0167851,-0.00439412,0.0177109,-0.0184519,0.0177753,-0.100721,-0.0022767,-0.029945,0.0227237,-0.011953,-0.00492565,0.00805379,0.00936818,-0.00767269,-0.00603959,0.064145,-0.0231165,-0.0593997,-0.00952043,0.0041253,-0.0106671,-0.110853,0.0220353,-0.0149775,-0.0031468,-0.0201224,-0.0187093,-0.0931829,0.00194771,-0.0109587,0.0351287,-0.0366551,-0.0340662,-0.0290893,-0.124586,-0.0164715,0.00793238,-0.0100168,-0.0255277,0.0651885,0.0850309,-0.0765231,0.0197863,0.0134872,0.0159003,0.0185332,0.0127442,-0.0351407,0.0363019,0.105013,-0.0152091,0.0352268,0.0385736,-0.0066763,0.00976517,0.0124449,0.0191153,0.00830675,-0.0159249,-0.0193797,0.00261284,0.0436267,0.0602407,0.0129194,-0.0779285,0.0129633,-0.0586855,0.00362389,0.00874706,0.000950479,-0.0228601,0.00200919,0.00873284,-0.0203375,0.00732624,-0.00689162,0.0261216,-0.0420956,-0.0169459,-0.033187,-0.0218968,0.0519574,-0.0420526,0.0750224,-0.000577101,-0.0311113,-0.0194506,-0.00241083,0.00770224,0.0237044,0.0647096,0.00725596,0,0.00429537,0.023677,0.00974824,0.603922,-0.0511942,-0.0163265,-0.00938411,-0.0019462,-0.00202299,-0.00196645,0.0621002,0.0067085,-0.0131365,0.00218337,-0.0173207,-0.000627081,0.0249668,0.0109489,0.0295217,0.0399767,0.000671989,-0.01686,-0.0110866,-0.0633468,0.0375189,-0.00737451,0.0569449,-0.0288246,0.0474783,-0.0129247,-0.00171506,-0.0233723,0.00753089,-0.010452,-0.00741985,-0.00369323,-0.0049651,-0.149184,-0.0024222,-0.00401173,-0.0124459,0.0492761,0.12711,0.0273084,0.0125238,-0.00542676,0.0272486,-0.0382191,0.00360159,0.000897633,-0.0423533,-0.00258882,0.0453201,0.0288848,-0.0095627,0.00329707,0.018344,0.000976116,0.0354172,-0.00707486,0.00645977,-0.0396174,0.00763393,0.00961861,-0.00455198,0.0951186,0.0156501,-0.0718601,-0.0230441,0.00904098,-0.00317754,0.0139624,0.0042499,0.0142858,-0.0154814,-0.00242569,-0.0111119,-0.00941142,0.00133872,-0.0127491,-0.0480346,0.0134733,-0.0439529,0.0145072,-0.0247215,0.00291772,-0.0687637,-0.0234197,0.00950881,-0.0165757,-0.0810267,-0.021569,-0.0111604,-0.00495789,0.101322,-0.0271858,-0.0175906,-0.0470585,-0.105758,0.00851,-0.00602989,-0.0119966,0.00105432,-0.00945283,0.0205326,-0.00174359,-0.00718121,-0.0177739,0.0307354,0.0185096,0.0276795,-0.0123853,0.0044187,0.0464017,0.00697434,-0.0182795,-0.0358665,0.0301994,0.00137325,0.0134975,-0.0628484,-0.0509166,0.0130648,0.00585306,0.0411853,-0.000208681,-0.0319371,-0.0257096,0.0476546,0.0428291,0.0133999,-0.00218668,-0.00544011,0.0534327,-0.00529328,-0.00981156,-0.0388822,-0.045003,-0.00669571,0.019688,-0.0796661,0.0189494,-0.00380058,-0.0028289,-0.0156234,-0.016839,-0.00780262,0.0090207,0.00189515,0.0385148,0.00205589,-0.0298851,0.0599942,0.0239785,0.0051567,-0.0198844,0.00611543,0.0228169,-0.0383087,0.00768546,-0.0177137,-0.00343431,-0.0460984,-0.0056943,-0.00305904,0.0238126,-0.0137247,0.0121564,-0.00103082,-0.604859,-0.0297947,0.021121,-0.00341259,0.0136355,-0.0313174,0.00733119,-0.0129144,0.00634432,0.0472709,-0.0304943,-0.0042464,-0.0135951,5.71462e-05,0.000196488,-0.0327742,0.0213519,0.00136693,-0.0082392,0.626993,-0.026967,-0.0972735,-0.0346589,-0.00672141,0.00541367,-0.0235136,-0.0355305,-0.0284638,-0.0766449,0.0108543,-0.0104882,-0.0128899,-0.0189961,0.0683641,0.108113,-0.0863782,-0.00730556,0.0166097,0.0130982,0.00938663,0.0134126,-0.0358072,0.0310425,0.0380111,0.0261962,0.0207892,0.000351643,0.00469134,0.0289907,0.000625206,0.0225772,0.00297017,-0.0213591,-0.0189402,0.00414613,0.0640722,-0.0201408,-0.0113166,-0.0625508,0.0125481,-0.0994993,-0.00307161,0.0129401,-0.00178569,-0.0320026,0.0219409,0.0130521,-0.0229164,0.00377281,-0.0132532,-0.00893068,-0.00475843,-0.023395,-0.0465355,-0.0363967,0.0106366,-0.0457808,0.0398361,-0.00114564,-0.0348127,-0.0539797,0.00414292,0.0237184,0.0281197,0.061936,0.0135013,0,-0.00848608,0.00380221,0.00681467,-0.122445,-0.0555511,-0.0321687,-0.00233816,0.00184705,-0.000557498,-0.0198825,0.0653452,0.0108438,-0.0178756,0.000232259,0.0105229,0.00904415,0.00934337,0.0181084,0.0200207,0.0449424,-5.94673e-05,0.00483522,-0.0134111,-0.0592108,0.0264469,-0.0154561,0.0566216,-0.0154736,0.0514805,-0.0139673,-0.0102086,-0.00532839,0.0171909,-0.0139958,0.00271569,-0.003784,-0.00151008,-0.023495,-0.018455,-0.000766847,-0.00715029,0.0254879,0.0466818,0.0316669,0.00626678,-0.00969351,0.0309844,-0.00484112,0.0074038,0.00963901,-0.059138,0.0108003,-0.0119966,0.031069,-0.00835523,-0.00148613,0.0189522,0.0039078,0.0232055,-0.00978416,0.00827453,-0.0262285,-0.00903824,-0.00606396,-0.0111208,0.0380003,-0.045213,-0.0819436,-0.0223093,0.00950484,-0.00488395,0.0226048,0.012684,-0.00107095,-0.00488872,-0.00249007,0.00299329,-0.0141569,0.0206683,-0.00260102,-0.0720326,0.0183206,-0.0297955,-0.000798289,-0.00518133,0.00562344,-0.0695567,-0.0240134,-0.0102164,-0.0276006,-0.100494,-0.016,0.000903782,-0.00762819,0.0997187,-0.00328821,-0.030342,-0.0631787,-0.123985,0.00392342,0.00160225,0.000929544,-0.0129478,-0.00858016,0.000147782,0.00369969,-0.00902222,0.0160174,0.0291253,0.0065042,0.027539,0.00309788,0.0014715,0.0568331,0.00914807,-0.0148744,-0.0298023,0.0327763,0.0114341,0.00197652,-0.0688867,-0.0551135,0.0110834,-0.00507742,0.0463908,0.000785334,-0.0309101,0.0175007,0.010411,-0.00792209,0.00849223,0.00461589,0.000303536,0.0263803,-0.00210551,0.00508004,-0.0202835,-0.0536148,-0.00818244,-0.00929815,-0.0765108,0.0198505,-0.000197589,-0.00265962,0.00645339,-0.0233744,-0.0150767,0.00410145,-0.00703098,0.0365493,0.0111675,-0.0302187,0.0712781,0.0364539,-7.88573e-05,-0.00975262,0.00297801,0.0136281,-0.0274258,0.00774302,0.00279618,0.00238668,-0.0545415,-0.00566331,-0.000233783,0.0276343,0.0122741,0.0100259,-0.0327526,-1.37042,-0.0101009,0.0192098,-0.00539942,0.00219785,-0.0388499,0.00458889,0.00466919,-0.00116015,0.0118528,-0.0346654,-0.0354695,-0.00300358,0.0035723,-0.0110711,-0.00270443,0.0193419,-0.00153994,-0.0124888,-0.0338235,1.06392,-0.0394128,-0.025611,-0.00700116,0.0195249,-0.00171842,-0.0094905,-0.0264645,-0.00989061,0.0273781,-0.00569661,-0.0139006,0.00061222,0.0673546,0.122796,-0.0915646,-0.00792237,-0.570281,0.017436,0.00571577,0.0141417,-0.0071848,-0.0169394,-0.00383755,0.0102796,-0.0015697,0.00223483,0.019169,0.00386784,0.00629951,0.019418,-0.0118744,-0.0269611,-0.01895,0.0142581,0.0756551,-0.0260177,0.0163235,-0.0376997,0.00233952,-0.0406266,0.00646104,0.0179857,-0.00681357,-0.0367707,0.0280796,0.0137365,-0.0258712,0.00196606,0.00253884,-0.0228719,0.000998275,-0.0267456,-0.0496282,-0.026126,-0.0134132,-0.0480222,0.00767792,-0.00614003,-0.020703,-0.0246424,0.00867014,0.00805986,0.00258396,0.00523816,0.00994572,0,0.0216373,-0.00652595,-0.0240155,-0.133017,-0.0316031,-0.154394,0.023768,0.0188735,0.00083973,-0.0465371,0.0630355,0.0145487,-0.0209115,-0.0100323,0.0928924,0.000168742,-0.0158927,-0.0672478,0.0243743,0.0479849,-0.0215147,1.14354,-0.0109148,-0.0594884,0.00860166,0.0165382,0.0636462,0.0122494,0.0560395,-0.0144232,-1.3586,0.00349575,0.0302056,-0.0169785,0.0225839,0.0108185,0.00699024,-0.0139281,0.0079505,0.00119892,0.0188771,0.114178,0.0760906,0.0342149,-0.0216025,-0.00914128,0.0332355,0.00312229,0.000411148,0.0116575,-0.133623,-0.00351165,-0.0114601,0.0331488,-0.00841482,-0.0082093,-0.0107721,-0.0281467,-0.205302,-0.0142648,-0.0120197,-0.0382767,0.0163222,-0.0526586,-0.013496,-0.0175017,0.0129805,-0.0843219,-0.0225353,0.0149125,-0.0048945,-0.00716457,0.0311853,0.00358785,0.0555334,-0.00543859,-0.0164934,-0.0184304,-0.00413432,-0.00664865,0.0177747,-0.00321759,-0.00357135,-0.0150734,0.00358121,0.00729857,-0.0714741,-0.0251314,-0.0311086,0.00084248,-0.109804,0.0418929,-0.0103923,-0.0116005,-0.138103,-0.00640455,-0.0307285,-0.128067,-0.137488,-0.00482641,-0.00350017,0.0241855,-0.0209627,0.000445754,-0.0238492,0.02213,-0.0087206,0.0329759,0.0281807,-0.0196871,0.0187085,0.0318842,-0.0347044,0.0668226,0.0113796,-0.0147207,-0.0290605,0.0136125,-0.0074565,0.00171347,-0.0750526,-0.0563155,-0.0138139,0.00312593,0.0446314,0.0201085,-0.020519,-0.0488966,-0.0219987,0.0585409,0.00782924,-0.00692717,-0.00159029,-0.00102577,-0.0139998,0.0124646,0.00162799,-0.0579298,-0.00465044,-0.0164206,-0.0747719,-0.025696,-0.00486825,-0.0048638,0.0282704,-0.0281478,-0.023867,-0.0385485,-0.0307951,0.0354453,0.0360803,-0.0470194,0.081571,-0.0575065,-0.0279242,-0.00647436,-0.0449757,0.0335236,0.0673846,0.00468836,0.0111011,0.0188768,-0.0609507,0.00901659,0.00544806,0.0285796,0.0868485,0.0111672,0.0743207,-0.00209134,0.00460241,0.018543,-0.00334833,0.0124367,0.00038302,-0.0246523,0.00963279,-0.0337635,0.0750286,-0.0349457,0.0981401,0.0051586,0.0104361,-0.0286264,0.0512799,0.017028,-0.0217371,-0.0202472,-0.0387456,-0.0158354,-0.0129365,0.0236556,-0.00891236,-0.0139748,0.0444104,0.0274746,-0.0244273,0.00151588,0.000581764,-0.0352711,-0.0163855,0.0620281,0.0671837,0.131462,-0.0961608,-0.0427559,0.0194965,-0.00125265,0.0116297,0.00770871,-0.00506266,-0.0065094,-0.0497875,-0.0637145,0.00926738,-0.229539,0.0274588,-0.0190787,0.0238876,-0.010994,-0.0356332,-0.0313141,-0.0177158,0.0445694,0.0798615,-0.0858983,-0.00425781,0.0458652,-0.00231533,-0.00472712,-0.0235133,0.0222883,0.0121147,-0.0398662,0.0334847,0.0132293,-0.0239534,-0.00272638,0.0266233,0.013153,0.00376824,-0.0279158,-0.0475162,0.0173846,0.0662188,-0.049247,-0.00585718,-0.0122518,-0.0192265,0.00256132,-0.0164938,-0.00337569,0.0203694,0.00961364,-0.0172868,0,-0.0238855,-0.00792903,0.00837763,-0.133313,-0.000766725,-0.171847,0.00848014,0.0193542,0.0100204,-0.0167843,0.0666555,0.0188323,-0.0139562,-0.0168488,0.0519533,-0.0415876,-0.00492933,0.0270779,-0.000195154,0.0493441,-0.0203744,-0.0325854,-0.00793968,-0.0489455,0.031693,-0.000177344,0.0457743,0.0247683,0.0487315,-0.0148087,-0.0151079,0.00441865,0.000224118,-0.0242018,0.0367591,-0.00438956,0.011291,0.00521502,0.0503352,0.00189527,0.0166741,0.073261,0.0607102,0.0345445,0.0238328,0.000237255,0.0296933,-0.0406188,0.0139546,0.0676713,-0.0568172,-0.00968056,0.0151676,0.0325868,-0.00790674,0.00324954,0.0265759,-0.0276609,-0.0848413,-0.0131989,0.00968457,-0.0318113,0.044879,-0.0331697,-0.0040585,-0.0879216,-0.0509893,-0.0892002,-0.0220493,0.0138226,-0.0106784,0.00191901,-0.00930803,-0.0578319,0.0665285,-0.00486052,-0.0211071,-0.021277,0.0253368,0.00121526,-0.0633098,0.0072528,-0.0236392,0.00812098,0.00943658,0.00932706,-0.0618981,-0.0238853,-0.0205899,0.0119812,-0.110771,0.036105,-0.0106047,-0.013796,-0.0336986,-0.00681299,-0.0209368,1.70816,-0.132937,0.000248674,-0.00339691,0.00240687,-0.00685476,-0.00133168,-0.00596126,0.0054688,-0.00860683,0.00409944,0.0220589,0.0034304,0.00345204,0.00286732,-0.0101696,0.0710036,0.0130076,-0.00830213,-0.0191437,0.0413457,0.00697259,0.0592789,-0.0753079,-0.0558157,0.0119583,0.00636479,0.0426569,0.0187041,-0.0324001,-0.0411699,0.0273527,-0.0265524,0.0118961,-0.0169707,-0.00887534,-0.0558845,-0.00965822,-0.0162853,-0.00343786,-0.0586127,-0.0107746,0.0266196,-0.058784,-0.01149,0.00158725,-0.00543663,0.0109025,-0.0384792,-0.0268644,-0.00694867,-0.0189778,0.0287463,0.0451806,-0.026553,0.085425,-0.089757,-0.0203194,-0.00560555,-0.0317266,0.0500089,0.039569,0.0105294,-0.0108371,-0.00229149,-0.0606526,0.0121561,0.00281347,0.0271574,0.0858824,0.0222109,0.0193286,-0.00346703,0.000446719,0.0173472,0.00358354,0.0170488,0.0150736,0.00294218,-0.000754204,-0.0102027,-0.0232972,-0.0318644,0.0906393,0.0116961,0.00595392,-0.0178279,0.103905,0.0143366,0.0193823,-0.0191228,-0.0383319,-0.0125513,-0.0229748,-0.0212385,-0.00675634,-0.0653953,0.0246033,0.0096747,-0.0222371,0.00543804,0.00137506,-0.0283614,-0.0209585,0.009606,0.062396,0.131519,-0.0753532,-0.011666,0.0186015,0.0169393,0.00040859,-0.0215044,0.00106261,0.0619033,-0.0896119,0.0225179,0.0143758,0.0400384,0.0142093,0.00264343,0.00691454,0.00466364,-0.0254368,-0.0314695,-0.0154699,0.0218856,-0.314242,-0.0608745,-0.0016724,0.00882989,-0.00286516,-0.0364113,-0.0198389,0.0245602,-0.00194854,-0.0387967,0.0310554,0.0106361,-0.0240067,-0.00130146,0.00220515,0.0169346,0.0516807,-0.027214,-0.0523618,-0.00361683,0.00695204,-0.0438196,-0.0151394,-0.0157218,-0.0279892,0.043681,0.00381096,0.0164493,0.0130738,0.0413197,0.0117846,0,0.0266303,-0.0166844,0.0195173,-0.113236,-0.0186996,-0.0785843,0.00833202,0.00355833,0.0137706,0.00315789,0.0574185,0.0228513,-0.00745036,-0.0196887,0.0291282,-0.0452122,0.0118601,0.0381055,0.0165171,0.0446408,-0.0186781,-0.026177,-0.00617909,-0.0306493,0.0240577,0.00492324,0.0301264,0.00967559,0.0400369,-0.0132619,-0.0146789,0.00673835,0.0024408,-0.0220988,0.0303154,0.00513471,-0.0023001,0.0244058,0.0572988,0.00238459,0.010875,-0.34127,0.0574377,0.029689,0.00864409,-0.00405764,0.0277095,-0.0329011,0.00617645,0.0144846,-0.00484986,-0.0139581,0.0175731,0.0286623,-0.0100539,-0.00373812,0.00816831,-0.028404,-0.126641,-0.0107888,0.0106607,-0.0339189,0.0508244,-0.0174803,0.0131114,-0.057494,-0.0989137,-0.0776361,-0.0175619,0.0107988,-0.0122855,0.0142981,0.00674627,-0.0274617,0.0524283,-0.00646115,-0.0275943,-0.0212569,0.00443098,0.00125284,0.0485128,0.00533134,-0.02558,0.00694634,0.00779986,0.00923849,-0.0453829,-0.0211655,-0.0140838,0.0214107,-0.0938231,0.0340353,-0.00515244,-0.0138887,-0.0803625,-0.225853,-0.0148619,-0.0804406,-0.115693,0.00153695,-0.000289967,0.00418486,-0.00561533,-0.194513,-0.0052924,0.00299393,-0.00531726,-0.0585771,0.0130083,0.00484758,0.00312492,-0.00559669,-0.00528497,0.0654553,0.0114324,-0.00797051,-0.0120971,0.0214813,0.000937828,0.0633577,-0.0650728,-0.0498374,-0.0180692,-0.00875694,0.0380673,0.00765784,-0.0379003,-0.0335757,0.0101201,0.0262587,0.0139703,-0.00634772,-0.00962045,0.0313383,-0.00526809,-0.014223,-0.00924289,-0.0509437,-0.0109091,0.00247757,-0.0370376,-0.0145804,-0.00246682,-0.00480362,0.00283175,-0.0357628,-0.00281871,-0.0204839,-0.0202888,0.0163492,0.0186127,-0.0388879,0.0782518,-0.0915939,-0.000356025,-0.0136417,-0.0194126,0.0346385,0.0537191,0.00573602,-0.0130695,-0.0125728,-0.0560751,0.0109738,0.00618093,0.0218118,0.0823294,0.034931,-0.0143229,-0.00297659,-0.00552913,0.0147969,-0.0107825,-0.0141697,0.0460278,-0.00470077,0.0231847,-0.00802881,-0.0251447,-0.0257436,0.0448347,0.00915604,-0.00652283,0.00896571,0.0386974,0.993347,-0.00412772,-0.0130092,-0.0342615,-0.00831017,-0.0404704,0.00815392,-0.003332,-0.0267963,-0.0204335,0.00399237,-0.0194122,-0.015814,-0.0163399,-0.0194612,-0.0220953,-0.0115289,0.046075,0.115308,-0.0542416,0.0184794,0.015815,0.0204738,0.00620757,0.00152018,0.0197997,0.0803067,-0.106055,-0.0124602,0.0222335,0.00732045,0.0152187,0.011276,0.00279139,0.00113858,-0.0276068,-0.0289254,-0.0108285,-0.002331,0.0747594,-0.0186031,0.00838526,-0.00760032,-0.00257367,-0.00318838,-0.0202402,0.022656,0.0104086,-0.0300594,0.0216893,0.00556073,-0.0226137,0.00521443,0.0022254,0.0423487,0.0432696,-0.0229194,-0.0488269,0.00016106,-0.0183178,-0.0355345,-0.00791265,-0.0157377,-0.00291445,0.0353224,0.00762915,0.00694604,0.0154264,0.0403504,0.000645926,0,0.0171388,-0.0191352,-0.642747,-0.0951288,-0.0516909,-0.0432838,0.0242963,0.00242004,0.0130293,-0.00324066,0.0547465,0.0225253,-0.00392745,-0.228451,0.0118459,-0.0211008,-0.00699769,0.0538497,0.0187817,0.0403777,-0.022497,-0.0147333,-0.00623515,-0.0208944,0.0285693,0.0422819,0.0113873,0.00329956,0.030046,-0.0103115,-0.0155072,0.00226802,0.00988781,-0.0181798,0.0245577,0.0166974,0.00757525,-0.0544341,0.0430066,0.00280706,0.00952778,0.0783359,0.0775385,0.0252013,0.00657775,-0.00308795,0.0274889,-0.0253072,0.010604,-0.00969288,-0.0393548,-0.0189734,0.0224076,0.0304256,-0.00540888,-0.00932179,0.00321252,-0.0244444,-0.166646,-0.0123201,0.00552313,-0.0275171,0.0584768,-0.00523611,0.0103994,1.10913,-0.0940978,-0.0694945,-0.014029,0.0139285,-0.00627237,-0.0084993,0.00348611,-0.0145864,0.0492422,-0.00921352,-0.0184941,-0.0173702,-0.0146983,0.000157788,0.0459693,-0.00142648,-0.0251637,0.00962708,0.0133813,0.00877009,-0.0351682,-0.0194,-0.00701539,0.0235477,-0.0773828,0.0194909,0.00745715,-0.0133558,-0.130497,-0.00917793,-0.0131106,-0.0161146,-0.102625,0.000304672,0.00265905,0.00279933,-8.4354e-05,0.00551484,-0.0197376,0.00398865,-0.00605516,-0.126898,0.00607973,0.00193937,-0.00459925,-0.00671912,-0.00931151,0.0594578,0.0124359,-0.00503059,-0.00661499,0.0293347,-0.00886009,0.0495332,-0.0539976,-0.0509124,-0.00395981,-0.00904032,0.0339731,-0.00527729,-0.0303174,-0.0100959,-0.00217945,0.00562482,0.00887761,-0.00815128,-0.00233379,0.0880785,-0.013902,-0.0166162,-0.00599599,-0.0406993,-0.00836718,-0.000946485,-0.0204572,-0.0152329,0.00202316,-0.00530698,-0.000700557,-0.0276993,-0.0124811,-0.027621,-0.014935,0.00796608,0.0175156,-0.0339451,0.0687196,-0.079025,-0.00731338,-0.00533255,-0.0198442,0.0241698,0.0377761,0.00403139,-0.0143157,-0.0221609,-0.0518233,0.0133242,0.00828059,0.015422,0.0721087,0.0432955,0.0274833,-0.00180944,-0.00380038,0.01427,-0.00705455,-0.0242731,0.0492842,-0.0071823,0.0180111,-0.0100462,-0.0246492,-0.0203207,0.016379,0.0106767,-0.0143599,0.0255706,0.0546334,0.00499035,-0.0150046,-0.00956907,-0.0288165,-0.0034357,0.0515424,0.00433417,0.00346935,0.0147372,-0.0146048,-0.000411575,-0.0187055,-0.0150745,-0.0112694,-0.0155063,-0.0219181,-0.00457057,0.0328039,0.106867,-0.0348988,0.0157001,0.0140802,0.016315,0.00520838,0.0446799,0.0191308,0.0789051,-0.075157,-0.036336,-0.00103178,0.0065032,0.00497074,0.000685794,-0.00762617,-0.00980897,-0.0272003,-0.0250253,-0.00716864,-0.0092781,0.0602093,-0.0255966,0.00540129,-0.020775,-0.00264426,-0.0181743,-0.0160077,0.0199783,0.0106434,-0.0206834,0.0108779,1.30907,-0.0246003,0.0140736,0.00477255,0.0413984,0.00702698,-0.0176433,-0.043903,-0.0170287,0.0553124,-0.0335029,0.0328189,-0.0163417,-0.0122315,0.0298839,-0.0145459,0.00322105,0.0220887,0.0767228,-0.0026469,0,0.0692108,-0.0122964,0.00991614,-0.0751693,-0.0750372,-0.06465,0.0185538,0.00816539,0.0076613,-0.038515,0.052386,0.0179954,-0.00238451,-0.016948,0.00506944,-0.0141854,-0.0107087,0.012061,0.00671892,0.0344366,-0.0185047,-0.0121269,-0.00467371,-0.00682991,0.0279753,0.0459031,0.00352189,-0.0112127,0.0200468,-0.00854699,-0.0135873,0.0356427,0.014184,-0.012256,0.0156019,-0.000136392,-0.00810475,0.152827,0.0679102,0.00366975,-0.00412918,0.00271819,0.0263546,0.0204186,-0.0401397,-0.00428345,0.0246996,0.0163288,-8.58295e-05,-0.365718,0.00297276,-0.00889821,-0.00378978,0.0312827,-0.00648434,0.0045732,-0.00991203,-0.0316249,-0.19719,0.863024,0.000808238,-0.0409197,0.071916,-0.00713509,0.0313427,0.00633217,-0.167945,-0.0597256,-0.012134,0.014466,-0.00353123,0.0187785,0.0190245,0.000660773,0.0317293,-0.0102502,-0.0241328,-0.013873,-0.023346,-0.0190948,0.149151,-0.00429006,-0.0307213,0.0186708,0.0151155,0.00672389,-0.026946,-0.0163457,-0.762788,0.0265197,-0.0609586,0.00915551,0.0332723,-0.0109699,-0.218101,-0.00475014,-0.00674209,0.073444,-0.0851555,-0.0015646,0.0117646,-0.000639337,0.00213524,0.00321588,-0.0185595,0.00447135,-0.00690528,-0.104624,0.000377626,-0.00929343,0.0155408,-0.0124504,0.0130973,0.0526933,0.00897629,0.00124192,-0.000644947,0.014763,-0.00515243,0.0373613,-0.03956,-0.0506157,-0.044056,-0.0167314,0.0333294,-0.016133,-0.0344556,-0.0335614,-0.02401,0.08097,-0.0114671,0.0122617,0.00517318,0.151416,0.0147534,-0.0163517,-0.0134256,-0.032476,-0.784789,-0.0303299,-0.00710672,0.00469428,0.0112792,-0.00514068,-0.0115381,-0.0185158,0.00376987,-0.0823865,0.00299383,0.000408599,-0.0081309,-0.0532144,0.0556038,-0.0548174,0.0125886,-0.0125013,-0.00196261,-0.00655921,0.0432491,0.00578649,-0.00605032,-0.0304409,-0.0440598,0.00150036,0.00509409,0.0105616,0.0411462,0.0473732,-0.0714678,5.97001e-05,0.00137321,0.0143649,-0.0216861,-0.061573,0.114968,-0.00475903,0.0647619,-0.0127618,0.0269531,-0.0165816,-0.0516871,0.0212447,-0.0130699,0.024329,-0.0699103,0.00325676,-0.0341739,-0.00310564,-0.0227194,0.0196887,0.00740701,0.0533687,-0.00514823,0.0488817,-0.0848706,-0.00329011,-0.019141,0.0147661,-0.0488761,-0.012507,-0.0194737,-0.0180222,0.0208847,0.0929732,-0.0197496,0.0702713,0.0117756,0.0251305,-0.0101526,0.0162213,0.0375669,0.0951416,-0.0509819,-0.0444583,-0.0250616,-0.00762437,0.00169857,0.00996864,-0.00534214,-0.00214218,-0.037835,-0.019759,-0.00450576,-0.0314983,0.0498414,0.0600286,0.0526106,-0.00765425,0.00105589,0.00782981,-0.0139215,0.0173629,0.0109845,-0.0125112,0.00291593,-0.00390055,-0.0306013,0.0163044,0.00947825,0.112563,-0.026695,-0.0132013,-0.0477365,-0.00760114,0.0539799,-0.0286886,-0.00732685,-0.0123224,0.00494757,0.072149,-0.0111878,-0.018642,0.0205187,0.0532379,-0.0107217,0,0.0344449,-0.0188412,0.0115769,-0.0550703,-0.0589239,0.0355352,0.0230342,-0.000704525,0.00363252,-0.019931,0.0454695,0.0115696,-0.00165473,-0.00763911,0.0257185,0.00729757,0.0106243,-0.00753093,-0.0136536,0.027569,-0.00661014,0.00962975,-0.00491262,-0.00196419,0.0300935,0.0545298,-0.00437991,-0.0158003,0.0117886,-0.00647902,-0.0149344,0.0114402,-0.00499025,-0.00662499,-0.0063946,0.0084649,-0.00161967,0.101838,0.0367058,0.00346532,-0.0223202,0.0112172,0.0437244,0.0147397,0.0114941,-0.00950508,0.0212369,0.0131271,0.0221276,-0.0320367,0.0333495,-0.0170283,-0.00683917,0.0283451,-0.00478561,6.74975e-05,0.0309883,-0.00990709,-0.142229,-0.00705997,0.0320777,-0.0216699,0.0351885,0.0253412,0.0115384,0.0029546,-0.16905,-0.0453319,-0.0107822,0.0143875,-0.00161024,-0.00387548,-0.00964878,-0.00129301,0.0146186,-0.0092592,0.00251272,-0.0090423,-0.0306345,-0.00313001,-2.56159,0.036994,-0.0635233,0.0226158,0.0247084,0.0036949,-0.0198892,-0.012397,-0.00103849,-0.0237972,-0.0426056,-0.0240175,0.0273235,-0.0070206,-0.149729,1.07988,0.00114672,0.106898,-0.0688925,0.00307053,0.0199815,-0.00202652,-0.00279709,0.00468379,-0.0255513,-0.0130448,-0.00176931,-0.140215,-0.00120147,0.0306431,0.00153732,-0.0252489,0.0199163,0.0418833,0.00684528,0.00661314,-0.000409205,0.0676629,0.00620764,0.00202505,-0.025955,-0.047926,-0.0188875,-0.0224694,0.0297882,-0.0272039,-0.0303795,0.0848664,-0.0302196,0.0405352,-0.00640986,0.00857627,0.00904073,0.106381,0.0123196,0.000221932,-0.023083,-0.0244339,-0.011213,-0.0340229,-0.0025924,0.0564201,0.00778142,-0.00519647,0.00112043,-0.00975413,-0.00367226,-0.016568,0.0158433,-0.000699495,-0.00658542,-0.0182514,0.0402276,-0.185991,0.0273616,-0.0136834,0.0216108,-0.0110293,-0.0106987,0.00628892,-0.00491674,-0.0486758,-0.0328976,-0.0258335,0.0073269,0.00680219,0.0301221,0.0360758,-0.143089,-0.00073214,-0.00673229,0.0110322,-0.0102312,-0.045115,0.040697,0.0085525,0.0361414,0.00737873,0.00795687,-0.0126131,-0.0648229,0.0240645,-0.0184952,0.0187533,-0.0442684,0.00206009,0.00273376,-0.00105257,-0.0154058,0.00607933,-0.0362124,0.0295226,0.00229596,0.0109715,-0.0446116,-0.0100289,-0.0179471,-0.00339999,-0.0044261,0.028292,-0.0149635,-0.0393367,0.0149298,0.0774707,-0.0103551,0.0478332,0.00978523,0.0824479,0.0100144,0.00272477,0.00707746,0.0449757,-0.0350615,0.0106656,-0.0199846,-0.0091895,0.00691716,-0.0249723,-0.00956587,0.0243383,-0.00563373,-0.016945,-0.00266249,-0.0475043,0.0373399,0.0134092,0.0669534,-0.100767,-0.00532086,-0.0538656,0.0290825,0.0122289,0.00368107,-0.0069198,-0.00502517,0.00231799,-0.0301634,0.0206033,0.00315792,0.079265,-0.0502762,-0.00877168,-0.0384377,-0.0146347,0.0450522,-0.0234417,0.0073564,-0.00802423,0.0126858,0.0287081,-0.0161293,-0.00648568,-0.00282835,0.032581,0.00193872,0,-0.017338,-0.0149063,-0.00345421,-0.0403622,-0.0505928,0.0989421,0.00200193,0.00385966,-0.00184147,0.01135,0.0382741,0.00782321,-0.00224043,-0.00183499,-0.0240058,0.0329938,0.0330777,0.00423381,-0.0354631,0.0208265,0.00706745,0.00941001,-0.00449579,0.00151233,0.0332045,0.0168829,-0.0226425,-0.0104682,0.00171157,-0.00488996,-0.00760754,-0.0023868,-0.0296983,-0.00942675,-0.0344945,0.0114472,0.00430565,0.0555177,-0.00500839,0.0039485,-0.00853002,-0.0342426,-0.062152,0.00927999,0.0259156,-0.00303418,0.0188491,0.000228608,0.0255933,0.0162524,0.056864,-0.00327189,-0.0259881,0.0251724,0.000198716,-0.014243,0.0419563,0.0309107,-0.0249359,-0.00779878,0.0349482,0.0233073,0.0024864,2.28851,-0.0012269,-0.0225248,-0.156184,-0.0288255,-0.00852738,0.0152294,0.00149461,-0.0375975,-0.037532,-0.0389618,-0.0122551,-0.00868926,0.0252384,-0.0071843,0.00583376,0.0125396,0.0335032,0.0418666,-0.0551029,0.0290327,0.0288438,0.00185485,-0.0140245,-0.00814239,-0.0112973,-0.013583,-0.026808,-0.0491105,0.011596,-0.00367868,0.0119452,0.0180581,0.0234219,0.0954621,-0.0573436,0.00442985,0.00997534,-0.00636631,-0.00652041,0.00673119,-0.0114947,-0.0135284,0.00468068,-0.145534,-0.00250935,0.0429281,-0.0117527,-0.0256696,0.0118667,0.0343151,0.00737959,0.0030169,0.00114352,0.0771306,0.0266748,-0.0189673,-0.0138646,-0.0426952,0.0139986,-0.0131924,0.0223858,-0.0239299,-0.0264582,0.109298,-0.00383315,0.0130751,0.00596802,0.00584496,0.0119327,-0.0195316,0.0107364,-0.00218542,-0.0422493,-0.0189714,-0.0111089,-0.00319651,0.00304177,0.0530589,-0.00462609,-0.00531936,0.00359736,-0.00324274,-0.00823339,0.0428386,0.0166722,-0.00226251,-0.00296583,0.0216791,0.0257315,0.0338936,0.0295143,0.0030146,0.0255521,-0.0173284,-0.0625797,0.00627527,0.000756891,-0.0591237,-0.0209898,-0.0158536,0.00716037,0.00459902,-0.0707406,0.0316569,-0.14959,-8.80531e-05,-0.00177756,0.00865882,-0.00410779,-0.0285455,-0.0208683,0.0117529,0.00605291,0.0224553,0.0119693,-0.00870465,-0.109381,0.0094414,-0.0112619,0.0417183,0.00785552,0.00132063,0.040356,0.00494206,-0.00944607,0.000615367,0.00891353,-0.00453177,0.00938215,-0.0235265,-0.00647946,-0.0119895,-0.0152857,0.03181,0.0262291,0.0228731,-0.0110841,-0.0217612,0.00917466,0.0663325,0.00545262,0.000316196,0.00829658,0.076816,-0.00302723,0.00418525,-0.00215696,-0.000455043,0.0275888,0.0569581,0.00227153,-0.0398309,0.0017468,-0.0294563,-0.0068663,0.0175104,0.0144434,-0.0140182,-0.00153494,-0.0424369,0.0275759,-0.0135859,0.0546594,-0.0841185,-0.00774493,-0.0753621,0.0371608,0.00750315,-0.00152678,-0.00374607,-0.011903,0.00334046,-0.0314753,0.0193364,-0.00209613,-0.0109367,-0.0359804,-0.00562207,-0.0237528,-0.032089,-0.00425195,-0.0186526,-0.0234555,-0.00529394,0.0211444,-0.0308909,0.0118261,0.00624308,-0.0182883,0.00244402,0.0109504,0,0.0122868,-0.00758396,-0.00467606,-0.0346206,-0.0337719,0.0395537,-0.00530262,-0.00100064,-0.00251047,0.0130203,0.0318923,0.00430725,-0.00124253,-0.00700081,-0.050717,0.0282329,0.0269262,-0.00379534,-0.0230458,0.0160979,0.00528666,-0.00997897,-0.00311981,0.00294972,0.0179781,0.0138315,-0.029023,-0.00585115,-0.000118426,-0.00378248,0.00470054,0.000150384,-0.0237346,-0.01741,-0.0300377,0.0253788,-0.00159963,-0.0354891,0.000903769,0.00382914,0.00119943,-0.0339409,-0.0621166,0.00704688,0.0134131,0.00050013,0.015857,0.0153804,0.00840458,0.0100401,0.0592711,-0.00140888,-0.0198516,0.0236912,0.00344385,-0.0124708,0.0233654,0.0176163,-0.0226052,-0.00837871,0.0222439,0.02638,0.00627124,0.0248264,0.00706801,-0.0053015,-0.104872,-0.0192183,-0.00740144,0.0145174,0.00286843,-0.0444285,-0.0301791,-0.0304568,-0.00291146,-0.00656252,0.0180579,-0.00407901,-0.000221235,0.00711787,0.0495521,0.0225091,-0.014912,0.38749,0.0107736,0.00151336,-0.0109824,-0.00601834,0.000738294,0.0149029,-0.0195402,-0.0517767,0.00804566,-0.00240093,-0.0113861,0.0111407,0.0191932,0.0722288,-0.0498776,0.0020096,0.00399587,0.000111325,0.000814219,0.0072447,-0.00014095,-0.00969614,0.00812498,-0.152024,-0.00275732,0.0204071,-0.00828643,-0.00664966,-0.00116864,0.0296288,0.00522875,0.00140578,0.00309571,0.0427722,0.0121759,-0.0227102,-0.00803413,-0.0397217,0.00211183,-0.00825224,0.0172478,-0.019815,-0.0206979,0.0737884,-0.0051251,0.0173181,0.0156182,0.0048162,0.00937268,-0.0205168,0.0118458,0.00173157,-0.066384,-0.0148888,-0.00606022,-0.000650273,0.004414,0.0230626,-0.0113249,-0.0042333,0.000986664,-2.57274e-05,-0.005826,0.0180229,0.00415013,-0.00285674,-0.00814236,0.0235362,0.0187457,0.010315,0.0104297,0.00281332,0.0267061,-0.018131,-0.0599949,-0.00012554,0.000143486,-0.0586355,-0.0137723,0.0102411,0.0029225,0.00433705,-0.0724359,0.0267043,-0.137254,-0.000104315,-0.000640177,0.00771081,-0.0029021,-0.0138974,-0.0253069,0.0034575,-0.00384817,0.0175341,-0.000787611,-0.00666333,-0.102033,0.00241037,-0.00618043,0.0620904,0.0232838,0.000994149,0.0256422,0.00556147,-0.00634454,0.00118927,0.0278697,-0.00173131,0.00860827,-0.0166996,-0.0231289,-0.00365997,-0.014543,0.0192507,0.00630817,0.0699308,-0.00974331,0.0132349,0.00705861,0.0571734,0.00855767,-0.0124248,0.0071195,0.0422088,-0.0264706,0.0274509,-0.00258309,-0.00650649,0.0363449,0.0432,-0.0115642,-0.0452279,0.000962847,-0.0163688,-0.00571172,0.00263666,0.00399409,-0.00837119,-0.000857897,-0.0154334,0.0238378,0.00153451,0.023793,-0.0466841,-0.00322334,-0.0451851,0.0140733,0.00525936,0.00480981,-0.00243663,-0.011747,0.00227632,-0.0293014,0.0075745,-0.000905624,-0.00904046,-0.0291371,-0.00477489,-0.0176324,-0.0346748,0.00365255,-0.0144425,-0.00112928,-0.00330402,0.0141918,-0.0150154,0.0104055,0.0042504,-0.0048262,0.0150621,0.00644918,0,0.0100415,-0.00579326,-0.00245341,-0.0281172,-0.0290554,0.0430606,-0.00615214,-0.00420629,-0.0024015,0.011332,0.0248473,0.00320469,-0.001105,-0.0038397,-0.0490083,0.0238883,0.0222762,0.00801916,-0.0137439,0.0121647,0.00562381,-0.00805099,-0.00315113,0.00403353,0.0131486,0.0179735,-0.024354,-0.00724777,0.000107705,-0.00289258,0.00398238,0.00226242,-0.0251178,-0.0170063,-0.0263543,0.0237066,-0.00381916,-0.0222132,0.0048553,0.00362045,0.000290327,-0.0408516,-0.0716162,0.00579953,0.0117164,0.000300864,0.0138562,0.0116712,0.00734958,-0.00259031,0.0458129,-0.000168647,-0.024577,0.0196507,0.00476337,-0.00866312,0.0167784,0.0172968,-0.0144257,-0.00712788,0.020048,0.0285118,0.0101426,0.0269356,0.00514373,0.00413364,-0.0953755,-0.0135175,-0.00576006,0.0114691,0.00418192,-0.0395995,-0.0236777,-0.0269669,-0.00735432,-0.00646918,0.0192643,-0.00214055,-0.0021247,0.00185986,0.0466157,0.0186477,-0.016913,0.0237759,0.00995565,0.0012024,-0.00852843,-0.00501848,0.00189293,0.020165,-0.0162862,-0.0479557,0.00586783,1.60039,0.00332726,0.00758494,0.0150924,0.0758787,-0.0410897,0.00192021,0.00362389,-0.0017904,-7.70369e-05,0.00512645,0.000410572,-0.0113015,0.00777966,-0.117275,-0.00333425,0.016919,0.0127266,-0.00330269,0.00239828,0.0249244,0.00374292,0.00262436,0.00235556,0.0351571,0.0126998,-0.0184494,-0.00564794,-0.0330473,-0.000489674,-0.00932711,0.0140379,-0.0209878,-0.0149834,0.0723701,-0.00372479,0.0175753,0.0137822,0.00420151,0.00733949,-0.0108987,0.0143024,-0.000260278,-0.058554,-0.0117393,-0.00212371,-0.00250642,0.0061289,0.0184135,-0.0115241,-0.00348555,0.00125283,0.00308111,-0.00425648,0.0126719,0.00712268,-0.00365044,-0.00985919,0.0225207,0.0143335,0.0121298,0.00967434,0.00329641,0.0243264,-0.0175217,-0.0529576,-0.00080586,-0.000153975,-0.0522611,-0.00989313,0.0110426,0.00245141,0.00370135,0.0934002,0.0236286,-0.146022,-0.000574119,0.00135491,0.0051789,-0.00279116,-0.0148833,-0.0257805,0.00239207,-0.00458343,0.0148405,0.00161023,-0.00542002,-0.112474,-0.000205986,-0.00577366,0.0542177,0.018894,0.000746678,0.0187155,0.0062711,-0.00551412,-0.00040931,0.0299176,-0.00352729,0.00590691,-0.0177562,-0.0260637,-0.00632361,-0.0115243,0.01417,0.0104198,0.0162301,-0.00793113,0.00894753,0.00603054,0.0467994,0.0081826,-0.00921714,0.00601599,0.0331374,-0.025091,0.0288882,-0.457776,-0.000762371,0.0395331,0.0373468,-0.00861495,-0.0398805,0.00292756,-0.0166629,-0.00491211,0.000788788,0.00367216,-0.00574869,-0.000674773,-0.0114473,0.0200337,0.0136583,0.0253427,-0.0454545,-0.00502221,-0.0372501,0.0142133,-0.234286,0.00456392,-0.00145182,-0.00978334,0.00486787,-0.0236523,0.00603503,-0.00130044,-0.0149802,-0.0318167,-0.0039835,-0.011509,-0.0318187,0.00458272,-0.0126789,-0.000960357,-0.00207236,0.012123,-0.000188672,-0.0168265,0.00136134,-0.00620741,0.0168771,0.00586687,0,-0.00675251,-0.00994211,0.00349894,-0.019812,-0.0126123,0.0453524,-0.0110669,0.00240424,-0.000880782,0.0213673,0.0146423,0.00124995,-0.000142316,0.00148647,-0.0241356,0.0201878,0.00832433,0.0181031,-0.013055,0.00774929,0.00492362,0.00898738,-0.00271834,0.00229719,0.0109177,0.00866274,-0.0206346,-0.00267293,8.55689e-05,-0.00193109,3.56485e-05,0.00240218,-0.0212929,-0.00976209,-0.0132108,0.0181552,0.00287124,0.00408717,-0.0063344,0.00357472,0.00237729,-0.0316055,-0.0650088,0.00348814,0.0136677,-0.000992849,0.0100313,0.00742895,0.0134005,0.0465928,0.0511406,0.000244597,-0.0258485,0.0144541,0.00450921,-0.0196486,0.0228692,0.0352312,-0.0077254,-0.00568506,0.0196724,0.0331324,0.00196021,0.0154164,-0.00681819,-0.0243383,-0.0974131,-0.0062691,-0.00440436,0.00904082,0.000351033,-0.0419644,-0.0143085,-0.0285873,-0.0113027,-0.0059937,0.0148955,-0.000195375,0.00882746,0.01747,0.0201697,0.0161351,-0.0240378,0.0195049,0.0246004,0.000472345,-0.00543319,-0.0036307,-0.00557078,-0.000571878,-0.00910022,-0.0363585,0.00180789,0.000117921,0.00314484,0.016814,0.00790889,-0.0088284,-0.0315616,0.00104619,0.00416366,4.5888e-05,-0.00247522,0.00560465,-0.00825868,-0.0132439,0.007211,-0.0890596,-0.00205856,0.018025,-0.0138046,-0.00201339,-0.00887915,0.0185264,0.00236863,0.00105898,0.00221406,0.0495632,0.0221684,-0.0187805,-0.00201966,-0.0245593,0.000571259,-0.0101388,1.36908,-0.0104125,-0.00725152,0.0741443,0.00344276,0.00643287,0.00744416,-0.00133502,0.00398771,-0.041088,0.00939855,0.00192334,-0.029131,-0.00843356,-0.000515017,-0.00252117,0.00393836,0.0264898,-0.0127803,-0.00299448,0.0120192,0.0042313,-0.00562792,0.0385851,0.00436981,-0.00227539,-0.00399375,0.0297645,0.00909626,0.0275302,0.00396851,0.0116467,0.0156601,-0.00213572,-0.0370926,-0.00131459,0.00291475,-0.0439364,-0.00431029,-0.0072972,0.00648033,0.00355471,-0.0550582,0.0140781,-0.111641,-9.66794e-05,0.00121867,0.00299517,0.00327065,-0.00884473,-0.0258797,0.00426097,-0.000974263,0.0122965,0.0059069,-0.00366733,-0.0958597,0.00101835,-0.00108777,0.0339182,0.0442627,0.000531243,0.0240503,0.00331119,-0.00306315,-0.00617321,0.0072086,-0.00896076,0.00604571,-0.0015988,-0.00561687,0.00136476,-0.00797576,0.00721067,0.0318248,0.00986761,-0.005534,0.00737231,0.00395058,0.0344551,0.0049373,-0.0184639,0.00450577,0.0478711,-0.0185194,0.0272119,-0.00710673,-0.00566759,0.0318744,0.0257498,0.000125951,-0.0218094,0.00955151,-0.0317267,-0.00495822,0.00360889,0.0119347,-0.00252843,-0.000123629,-0.0105127,0.0142161,-0.0205814,0.0351255,-0.0473979,-0.00928445,-0.0667605,0.0162307,0.0027247,0.000367172,-0.00130788,-0.00652516,0.00445541,-0.0170036,0.0128396,-0.00213186,-0.0338011,-0.0454076,-0.00323401,-0.00526222,-0.0225461,-0.0103452,-0.00919153,-0.000259329,0.000256379,0.00613636,-0.0137218,0.0163891,0.00296807,-0.0103664,0.000895671,0.00425539,0,0.0052913,-0.0117602,0.00205048,-0.0155609,-0.00899454,0.0307752,-0.00689926,0.00178974,-0.000789771,0.0172571,0.00901982,0.00106914,-0.00044815,0.00141355,-0.0167384,0.0201611,0.00343324,0.00872649,-0.00963079,0.00508863,0.00331809,0.0136891,-0.00220739,0.00124859,0.00292783,0.0106025,-0.0131701,-0.00289859,0.00113813,-0.00126983,-0.00195679,-0.000151381,-0.0132698,-0.00620197,-0.004465,0.0164707,-0.000238945,0.0112,-0.0026673,0.0032766,-0.93715,-0.0311427,-0.0641642,0.00240725,0.00302093,0.574083,0.00694261,0.0111595,0.0106527,0.0354437,0.0427488,0.000474626,-0.0243184,0.00973921,0.00423307,-0.0189674,0.0189446,0.0276175,-0.0264873,-0.00483463,0.0156956,0.0239747,0.00178511,0.00922552,-0.0034868,-0.0257164,-0.551094,-0.00408135,-0.0030432,0.00696726,0.000601792,-0.0399383,-0.00304375,-0.0215452,-0.00932442,-0.00467528,0.0101706,0.000178218,0.000559595,0.0144758,0.0330257,0.0117311,-0.014576,0.00986093,0.0262683,0.000520173,-0.00377716,-0.00281328,-0.00826125,-0.00349015,-0.00622489,-0.0288969,0.00249288,-0.00031711,-0.0298755,0.032177,0.00235671,-0.00866672,-0.0238287,-0.000237377,0.00552407,0.000990993,-0.00455063,0.00554439,-0.0134337,-0.0118155,1.49213,-0.0646286,-0.00123996,0.0116681,-0.00637925,0.000942049,-0.0113718,0.0136853,0.00152633,0.00125745,0.00119196,0.0440147,0.0174905,-0.0164471,-0.000786292,-0.0186362,-0.00390104,-0.00936411,0.00633579,-0.00856866,-0.00331567,0.0674518,-0.00501956,0.00905527,0.00372602,0.00145391,0.00431837,-0.0419868,0.00679411,0.00619703,-0.0166956,-0.00556569,0.00194308,-0.0108534,0.00225013,0.021235,-0.0110108,-0.00215499,0.0162388,0.00262171,-0.00663278,0.02179,0.00222051,-0.00127193,-0.00428985,0.0229751,0.00588503,0.0167928,0.00261198,0.0109893,0.0129599,-0.00737533,-0.0197856,-0.00286728,0.00457687,-0.0348615,-0.00278832,-0.0083086,0.0061835,0.00253721,-0.0437339,0.0110191,-0.0980897,2.32908e-05,0.00202394,0.0021193,0.00283917,-0.0100471,-0.0212508,0.0018823,0.00778328,0.00581967,0.00499252,-0.00275415,-0.08402,0.0029679,-0.00107268,0.0225419,0.0336484,0.000280316,0.0181638,0.0013596,-0.00200094,-0.0030543,0.0173806,-0.00489426,0.00541504,0.00300369,-0.0151138,0.0038396,-0.00539916,0.0081247,0.0269825,0.0107582,-0.00418388,0.00870088,0.00310816,0.0256955,0.00318671,-0.0120921,0.00336901,0.0470054,-0.0199704,0.0247492,-0.00249947,-0.00562391,0.0237946,0.00259142,-0.00275561,-0.0162384,0.0110327,-0.0326804,-0.00440947,0.000988334,0.00837129,-0.000968707,-3.32154e-05,-0.00755302,0.0102963,-0.0121908,0.0332277,-0.0413041,-0.00907509,-0.0459514,0.0128848,0.00243837,0.00200557,-0.000728018,-0.00436987,0.00365158,-0.0121544,0.00904995,0.00153567,-0.0218242,-0.0411035,-0.0024651,-0.00303864,-0.0118901,-0.0110912,-0.00713423,-0.00479764,6.12462e-05,0.00816013,-0.00824042,0.0136494,-0.00204991,-0.00905481,0.00240941,-2.30606e-06,0,0.00830038,-0.00359659,-0.00357172,-0.0106182,-0.00592375,0.0328419,-0.00440599,-0.00130075,-0.000967715,0.00937803,0.00457541,0.000972951,-4.25746e-05,0.00185017,-0.0146303,0.0169959,0.00228847,0.0127066,-0.000837454,0.00260554,0.00706004,0.00620187,-0.00185132,0.000489044,-0.000804633,0.012808,-0.0088395,-0.000464243,0.0010142,-0.000850216,-0.00111029,-2.37201,-0.00701316,-0.00164545,-0.00389535,0.0107003,-0.00369627,0.0177146,0.00120946,0.000430779,-0.00142507,-0.0141885,-0.0437968,0.00145119,-0.00211714,1.83246,0.00485852,0.0059146,0.00254961,0.00378881,0.0357541,0.00161607,-0.0156195,0.006129,0.00321261,-0.00390988,0.00166906,0.0220944,-0.0201836,-0.00294873,0.00665846,0.0182979,0.00366932,0.00847638,0.00256725,-0.00865298,-0.0561655,-0.00191276,-0.00206179,0.00396296,0.00173434,-0.015139,0.00481205,-0.00796282,-0.00647497,-0.00399455,0.0073876,0.000989379,-0.00158314,0.00110441,0.0337763,0.00532877,-0.00977005,0.00276298,1.09192,0.00024987,-0.00275885,-0.00250385,-0.000307281,0.000127502,-0.00368489,-0.0152319,0.00140581,-0.000126781,-0.0193485,0.0087928,0.00228797,0.0250792,-0.0171974,-0.000271364,0.00325669,0.000442967,-0.00156025,0.00363776,-0.000439811,-0.00615232,0.00487186,-0.0431402,-0.000749733,0.00647492,0.0124787,0.00130157,-2.85449e-05,0.0086399,0.0014293,0.00070448,0.000500013,0.0205398,0.00876871,-0.00815732,-0.000535905,-0.0121046,-0.00399795,-0.00746428,0.00281219,-0.00853237,-0.000407692,0.0387142,-0.00450663,0.00150331,0.00593265,0.00423791,0.00444706,-0.013255,0.00563199,0.00464641,-0.0112308,-0.00287515,0.00302118,-0.00843894,0.00103652,0.0140437,-0.00509573,-0.00139364,0.00811672,0.00216903,0.00168397,0.00639037,0.00438243,-0.000750914,-0.00856881,0.0149803,0.00404034,0.0255096,0.00407918,0.00349252,0.0131745,-0.0135636,-0.0114247,-0.00240011,0.00384734,-0.0187936,-0.00178195,-0.00526245,0.00177256,0.00163207,-0.0326374,0.00604756,-0.0784441,0.000303759,0.00165847,0.00102988,0.000369547,-0.00687123,-0.0127386,0.00082099,0.00753303,0.00346521,0.00461968,-0.00139761,-0.0706106,-0.000959162,0.000249262,0.0195426,0.0107473,0.000169808,-0.158575,0.00234721,-0.00130856,-0.00191311,0.0097273,0.00203676,0.00087062,0.0101863,-0.0195808,-0.000946867,-0.00347952,0.00319711,0.0153901,0.0105511,-0.00293655,0.00298586,0.00192465,0.0166683,0.00229293,-0.0076609,0.00224532,0.0211591,-0.0157567,0.0250414,-0.00233225,-0.00150837,0.0204514,-0.00531321,-0.00379428,-0.0107117,0.00651622,-0.0149718,-0.00249862,0.00147664,0.00325808,-5.8613e-05,-7.80543e-05,-0.00266103,0.00599876,0.0150128,0.0275839,-0.0535157,-0.00412476,-0.00889363,0.0083788,0.00179091,0.0024235,-0.000485591,-0.00382084,0.00256631,-0.00715173,0.00497644,0.0027888,-0.0148403,-0.0384357,-0.00131477,0.000554401,-0.0082692,0.00290244,-0.00572807,-0.0123203,-0.000330248,-0.503856,0.372985,0.00809389,-0.00389238,-0.00640505,0.00621457,-0.000752187,0,0.0133903,-0.00212632,-0.000468183,-0.0069388,-0.00595388,0.0134661,-0.00738923,0.00216965,-0.000403111,-0.00210094,0.00314064,0.000707385,8.68769e-05,0.000502774,-0.0119672,0.0105834,0.00104816,0.00472412,0.00179954,0.00123346,0.00581834,0.000282073,-0.000860845,0.000361584,-0.00318998,0.000680551,-0.00478271,-0.000308871,0.000747635,-0.000622406,0.000353275,0.00162507,-0.000772257,-0.00044386,-0.0026879,0.00625745,-0.00459538,0.00730016,-0.000899932,3.43521e-05,-0.00175618,-0.0311518,-0.0392668,0.000839967,-0.00667567,-0.00106183,0.00225547,0.00987665,-0.00420346,-0.0100975,0.0294626,0.0020023,-0.0122775,0.00360329,0.00144878,-0.00864129,-0.00174419,0.0127584,-0.0162212,-0.00183762,0.00281675,0.00545078,0.0008275,0.00430508,0.00392882,0.0161492,-0.0342694,-0.0016248,-0.00132956,0.00191065,0.00150665,0.00877734,0.00634037,0.00870272,-0.00758054,-0.00146197,0.000442357,-2.8659e-05,0.000664963,0.000585981,0.0348529,0.00132309,-0.00137267,0.00223104,-0.00591125,8.84913e-05,-0.000869393,-0.00127092,0.00482795,0.00240196,-0.00261162,-0.00788671,0.00250568,-0.000213142,-0.0145891,0.00470379,0.000871934,0.0225203,-0.00916002,-9.86621e-06,0.00161719,0.000584035,-0.000166471,-0.00213304,0.00770551,-0.00150118,-0.000145486,-0.0142565,-0.000629391,0.00263229,0.00731227,-0.00235479,0.00343205,0.00481021,0.000662478,0.00014522,0.000513933,0.00345305,0.00342887,0.00621042,-0.937538,-0.00738457,-0.00721336,-0.00377218,0.00193287,-0.00292936,-0.000447749,0.00269981,-0.0045029,0.00380788,0.00320618,0.00621704,0.00149962,-0.00749974,0.0060848,0.000277254,-0.00497804,-0.00147023,0.00157843,-0.0106371,0.000759717,0.00740713,-0.00524373,-0.000363413,-0.00165243,0.0017289,-7.04557e-05,-0.00510456,0.00233341,-0.000422193,-0.0114709,0.00428836,0.00251054,0.0120157,0.00263715,-0.00417922,0.0107769,-0.0105852,-0.00851767,-0.000827993,0.00315249,-0.0149161,-0.00126506,-0.00384722,0.000668252,0.00069725,-0.0276742,0.00483963,-0.0614178,7.53915e-05,0.000876174,0.000693465,-0.00624135,-0.00762646,0.00206933,0.000882023,0.00688459,0.00164163,0.0211031,-0.00072312,-0.0675151,0.264665,0.000436265,0.0136953,-0.0169464,7.26818e-05,-0.0033854,0.00164823,-0.000627605,0.00105439,0.0152974,0.00860369,-0.000775505,0.0240387,-0.0226126,-0.00116937,-0.00209497,0.00162189,-0.00192883,0.00749396,-0.00178693,-1.84784,0.00112911,0.00922729,0.000919949,0.000761443,0.00115975,1.6265,-0.0170296,0.00775865,0.00563597,-0.00454892,0.0127824,-0.00837168,-0.00772025,-0.00548717,0.00380124,0.00189136,-7.65795e-06,0.000985064,-0.000520092,0.000126422,-0.000141931,-0.0020137,0.00360793,0.0203301,0.02047,-0.025304,-0.00113673,0.0124513,0.00304316,0.00123107,0.00343385,-0.000419168,-0.00351716,0.00045898,-0.00487525,0.0021334,0.00178759,0.00709159,-0.0361433,-0.000810216,0.000172829,0.00139129,-0.0127246,-0.00272705,-0.0161074,-0.000151553,0.0028274,-0.00110223,0.0103306,-0.00451491,0.000136908,-0.000470607,0.00160489,0,0.00290461,-0.000177765,-0.000544405,-0.0037807,-0.00585028,0.0104157,-0.00752733,0.00119119,-0.00028745,-0.00303544,0.00186711,0.00057018,6.06195e-05,-8.34164e-05,-0.00913191,0.00781221,0.000610362,0.000717087,0.00306234,0.000524527,0.00591975,-0.000573612,-0.000604863,0.000338866,-0.00334688,-0.00191161,-0.00228025,-0.000269704,0.000568183,-0.000401369,0.000804473,0.00158806,0.000296251,7.17844e-05,-0.0031665,0.002921,-0.00421925,0.0067909,0.00192338,-1.27713e-05,-0.00130064,-0.0346016,-0.0356612,0.000488993,0.21483,-0.000299277,0.0012146,0.00535256,-0.00330858,-0.0143946,0.0282103,0.00251751,-0.0105888,0.00213074,0.00156618,-0.00574289,-0.00347417,0.010961,-0.00972183,-0.00126617,0.00133553,0.00525861,0.000572352,0.00270566,0.00463386,0.0211459,-0.0256524,-0.000998288,-0.00079084,0.00087199,0.0011891,0.012138,0.0061836,0.0130815,-0.00704974,-0.000747363,-0.00043032,-0.000191385,0.00254579,-0.00019463,0.0136637,0.000237444,-0.000353411,0.00134375,-0.00636784,6.37941e-05,-0.000285309,-0.000705143,0.00565575,0.00253826,-0.00141703,-0.00647854,0.000757956,-0.000124224,-0.00756678,0.00204158,0.00164488,0.0257669,-0.00508317,-1.0808e-05,0.00154321,-0.00147399,-0.000179255,-0.00224355,0.00839771,-0.000726644,-0.000314537,-0.0114005,-0.000591587,0.00172233,0.00725709,-0.00353032,0.00570658,0.00277588,0.000341096,6.49763e-05,0.000399361,0.000241609,0.00345697,0.00617478,-0.000677497,-0.00448075,-0.00231857,-0.00161263,0.00121608,-0.00233837,-0.000348101,-0.000969115,-0.0039319,0.00202004,0.00294897,0.00595215,0.000904786,0.00686543,0.00632828,-0.000912202,-0.00321676,-0.000836838,0.00102612,-0.00740257,0.000546481,0.00551105,-0.00359629,-0.000103736,-0.00214814,0.00087524,-0.000204604,-0.0042545,0.00454448,-0.000406522,-0.0102132,0.00252688,0.00150997,0.00975985,0.00286501,-0.00297604,0.0102022,-0.00887242,-0.0103542,0.000422235,0.00315609,-0.012163,-0.000806099,-0.00226081,0.000278291,0.000334159,-0.0257017,0.00329612,-0.0510929,3.61083e-05,0.00184722,0.000495613,-0.00564144,-0.638117,0.00529912,0.0019515,0.00606693,0.0012611,0.022578,-0.00038678,-0.0645307,-0.00210357,8.44358e-05,0.0109633,-0.0311916,7.30794e-05,-0.00487101,0.00148698,-0.000521276,0.000482914,0.0142817,0.00696163,-0.00200017,0.0197681,-0.0156823,-0.00321089,-0.0013121,0.00161501,-0.000791956,0.00638456,-0.000981244,-0.00270697,0.000468699,0.004731,0.000546346,0.00351722,0.00059896,-0.0027966,-0.017238,0.00214865,1.36162,-0.00135364,0.0078368,-0.895986,-0.0026281,-0.00356874,0.00228428,0.00558002,0.000951383,0.00108098,-0.00103968,0.000216757,-0.000128769,-0.00189621,0.00215977,0.021133,0.0178886,-0.023568,-0.000431206,0.0162291,0.00218472,0.000729001,0.00190521,-0.00016971,-0.00209879,-2.42768e-05,-0.00333951,0.00118124,0.00116701,0.00729109,-0.0286936,-0.000498075,-5.7969e-05,0.00335023,-0.0178094,-0.00213601,-0.0165456,-0.00023878,-0.00045445,0.00231622,0.00954955,-0.00351651,-0.000109455,0.0011933,0.00357781,0,0.00587126,-0.00241648,0.000933572,-0.00139485,-0.00306636,0.00398798,-0.00897527,0.00132305,-0.000274502,0.000367177,0.0012927,0.000176338,6.59108e-05,-0.000330291,-0.00115359,0.00809711,0.000408529,-0.00394607,-0.000401549,0.000254306,0.0051972,-0.000974945,-0.000332628,0.000400913,0.00150963,-0.0112929,0.000269925,-0.000221443,0.000264001,-0.000145727,0.00171983,0.00188024,-0.00317111,-3.37254e-05,-0.00188554,0.000830207,-0.00362382,0.0020101,0.694099,0.000100841,0.000382786,-0.0478034,-0.0348885,0.000141,-0.00471219,-6.4285e-05,0.000440426,0.00905831,-0.00220456,-0.00277979,0.0274815,0.00225655,-0.0111026,0.00106866,0.000263985,-0.00251106,-0.000264953,0.00871643,-0.00105116,-0.00026359,0.00360477,0.00688443,-0.000136476,0.00256354,0.00351046,0.00174539,-0.0182982,-0.000622484,-0.000220165,0.000602269,-0.000552182,0.00156971,0.00268839,0.000191746,-0.00303258,-0.000424611,0.000489779,0.000197895,0.00478807,0.00351446,0.0187578,0.00174747,-0.000266395,0.0007081,-0.000325959,2.07676e-05,0.000280831,5.16767e-06,0.00126039,0.00180467,-0.000450697,-0.00778087,0.00164801,-0.000104102,-0.00117153,0.00528405,-0.000405436,0.0126121,-0.0016543,3.57544e-05,0.00187195,-0.000439738,-0.000384643,0.000340749,0.00610806,-0.0029262,-5.69796e-05,-0.00403488,-0.000193474,0.00229634,0.00191397,0.866339,0.00227738,0.000798304,0.000146914,6.34515e-05,0.000331446,-0.00105123,0.00319024,-0.0011109,-0.000449421,-0.00190275,-0.00158282,-0.00296097,0.00122112,-0.00312493,-0.00103386,0.00477052,-0.000960711,0.00981013,-0.00055682,0.00358747,0.00107418,0.00195204,0.00488381,-0.000466856,-0.000829052,-0.00019511,0.000446068,-0.00422272,0.000487647,0.00427404,-6.90109e-06,-1.8209e-05,-0.00144884,0.000485366,-0.000455982,-0.0024724,0.00151261,-0.000290782,-0.00722178,0.000338824,0.000457193,0.00629028,0.000766629,8.23681e-05,0.01034,-0.00349683,-0.0100464,-2.31817e-05,0.00154199,-0.00563285,-0.000165972,0.000778928,-0.000158288,3.57492e-05,-0.0250048,0.00193679,0.459902,-0.00023284,0.00242006,0.000264392,-0.00296548,-0.0046163,0.00868064,0.00105942,0.00844598,0.000976688,0.00936467,-0.000171712,-0.0372778,-0.00074002,-7.73753e-05,0.00219986,-0.0154485,4.58866e-05,9.18189e-05,0.000872922,-5.7055e-05,-0.000491347,0.0126065,0.00580485,0.000634954,0.00147911,-0.0168889,8.90523e-05,-0.00059264,0.00162878,0.00015818,0.00558488,-0.000283097,0.00127802,0.000164248,0.00148116,4.7191e-05,0.00434902,0.00025521,0.0029683,-0.0188048,-0.00477636,0.00453332,-0.00224036,0.00340286,0.00217179,-0.00311,-0.00158641,0.000533245,-0.00110275,0.00232602,0.00164788,0.000554492,7.50928e-05,-7.37397e-05,-0.00071951,0.000626859,0.0167535,0.0128953,-0.00922522,-0.000455424,0.00178099,0.00137618,0.000240813,0.00134646,0.000177359,-0.00207507,-5.35768e-05,-0.0012893,0.000546144,-0.000858481,0.00943595,-0.00989533,-0.00015357,-0.00129005,0.00172081,-0.0208298,-0.00051941,-0.0219355,-9.61289e-05,0.00126421,0.000564496,0.0128208,-0.00234425,-0.00221977,-0.000429641,0.00251116,0,0.00368811,-0.00150808,0.000161263,-0.00118955,-0.00201267,0.00272899,-0.00251977,0.000697996,-0.000144727,0.000264881,0.000665314,0.000115591,6.71432e-05,-9.22496e-05,-0.00132077,0.00283594,6.53903e-05,-0.000417574,0.00103655,0.000206659,0.00140917,-0.00208737,-0.000121538,0.000219874,0.000337034,-0.00379331,-0.000765403,-5.92838e-05,0.000137948,-7.77047e-05,0.000631328,0.000537981,-0.00123448,-0.00039801,-0.000585509,0.00120802,-0.000837622,0.00201867,0.000704442,2.43048e-05,0.000502762,-0.0133905,-0.00881517,0.000139078,-0.00102044,-0.000117654,0.000186348,0.00422028,-0.000996859,-0.000959638,0.00855095,8.53571e-05,-0.00373316,0.000598666,0.000243746,-0.00148229,0.000103883,0.00307636,-0.00296164,-0.000255121,0.000994541,0.00105766,0.000256157,0.00204442,0.000347951,0.000991274,-0.00430414,-0.000296488,-1.09812,0.000483331,0.000186633,0.000915919,0.000164649,-0.000579781,-0.00130533,-0.000421128,0.000128841,0.000144082,0.00221524,0.00162276,0.0109069,0.00112183,-0.000256066,7.42959e-05,-0.00066143,9.54178e-06,5.73123e-05,-0.000254518,0.000266913,0.00085551,-0.000409395,-0.00273726,0.000754182,-3.78096e-05,-0.0023466,0.00173254,-0.000622955,0.000871318,-0.00115606,1.63535e-05,0.000309786,0.000101731,-0.000224486,0.000142167,0.0022049,-0.000717398,-5.52788e-05,-0.00411714,-0.000157535,0.000641035,0.000563419,-0.000614444,0.000374935,0.000627533,4.46074e-05,7.88645e-05,0.000222667,0.000306334,0.000731934,-0.000720703,-5.18284e-05,-0.00130835,-0.000336425,-0.00139157,0.000527556,-0.00114939,-0.000503107,0.00334013,-0.000349152,0.0031106,0.00019197,0.000786411,1.08076e-05,0.00146775,0.00111923,-1.00748e-05,-0.000680588,-0.000166591,2.04583e-05,-0.00147448,-1.43374,0.00126174,-0.00039811,-5.06554e-05,-8.50893e-05,0.000794288,-0.000187578,-0.00100674,-0.000395953,-0.000161371,-0.999119,9.48252e-05,0.000450336,0.00380581,0.000406913,-3.77601e-05,0.00279022,-0.00253342,-0.00146572,-0.000217502,-0.0001167,-0.00292734,-0.00014168,-0.000256746,-4.14145e-05,5.80036e-05,-0.00585396,0.0013414,-0.01329,9.18606e-06,0.000351453,0.00013327,-0.000997471,-0.00230936,0.00207797,-0.000257967,0.00232376,0.00026138,0.00234168,-9.68287e-05,-0.0132761,0.000131565,1.17975e-06,0.00177489,-0.00156911,7.73453e-06,-0.000256314,0.000143457,-4.19458e-05,-0.000418662,0.00241893,0.00140572,0.000548461,0.00314425,-0.00496897,-2.37581e-05,-0.000273284,4.0669e-05,0.000214461,0.00135033,-0.000271093,0.00111984,0.000204298,0.00128453,0.000227514,0.000561543,0.000184932,0.000646066,-0.00600503,8.43159e-05,0.000852879,-0.00109043,0.00215598,3.77598e-05,-0.000725924,-0.000759122,0.000356583,-0.00070105,0.00122908,0.00104117,0.000368623,0.000156452,-4.37191e-06,-1.21335e-05,0.000726761,0.00357116,0.00282132,-0.0029248,-0.000280871,-0.000634506,0.00034458,0.000138554,0.000676819,3.23173e-05,-0.00144902,-5.47835e-05,-0.000897502,0.609305,0.00015801,0.00279058,-0.00563789,-6.42673e-05,-0.000283056,-0.00011143,-0.0151729,-0.000232992,-0.00796355,-2.80304e-05,3.38136e-05,0.001351,0.00380241,-0.000353484,-0.000496841,0.00169926,0.000143875,0,-0.000499836,0.00038402,-0.000801451,-0.00045106,-0.000344106,0.00292494,-0.000524199,0.000565075,0.000443713,-0.000500225,0.000199055,0.000314061,6.24609e-05,0.000230856,0.000166236,-0.000485958,-9.81315e-05,-1.46544,0.000417661,7.35545e-05,0.000389827,-0.000149156,-6.85752e-07,4.09287e-05,-0.000755558,-0.00101301,-0.00016044,7.70885e-06,8.40044e-05,-6.66373e-05,0.000140043,-8.16638e-05,0.00020233,-2.29801e-05,-1.86664e-05,-0.00105327,-0.000119977,0.00839237,0.000469697,-0.000145072,0.000432814,-0.00607682,-0.00037243,0.000129172,-0.000789494,-0.000908715,2.23877e-05,-0.000511402,-0.000620606,-0.00309375,0.003293,0.000324743,-0.000311698,0.000122459,-0.000840602,0.00138234,-0.00137487,0.0014444,-0.000421967,-2.17661e-05,0.000322551,-0.000241898,0.000129063,-3.57992e-05,-0.000504594,0.00158768,-0.000204871,-0.000202259,-1.65698e-05,-5.9848e-05,-0.000585803,0.00273303,0.000242862,0.000899404,-0.00118758,-6.85076e-05,0.000167602,-0.000221376,0.000520519,-0.0008823,-0.000904385,0.000444896,-0.000460171,-6.60261e-05,-8.74338e-05,4.95175e-05,6.05179e-06,-0.000148379,-0.000186526,-0.000705134,-0.000506979,0.0032949,-0.000106362,-0.000108336,-0.000565857,-0.000323252,-0.000653276,0.0038651,-0.000545193,-3.93786e-06,0.000147076,3.28294e-05,-0.000148027,-0.000856998,0.00045277,0.000867067,-7.26945e-06,0.0149685,-7.50576e-05,0.00012156,5.95577e-05,-4.81372e-05,0.00158153,0.000279851,1.42752e-05,-6.08562e-05,8.95414e-05,-0.000491964,0.000403721,0.000992,-0.000282279,0.0475441,-0.000117721,-3.86901e-05,-0.000107749,0.000421159,5.68347e-05,-0.00167416,-0.00105648,-0.00194812,-0.000738616,0.000217661,-0.000172042,0.000831679,0.000538808,-6.59989e-05,0.000542681,-0.00015981,1.95302e-06,-0.000994793,0.000134309,0.000408574,0.000129136,3.33945e-05,-0.000124881,-0.000132723,-0.000598113,-0.000421723,-0.000743929,-8.21175e-05,-0.00048834,-0.00116879,0.000311644,0.00410614,0.000421175,-0.000134626,-2.01226e-05,-0.00151017,2.61485e-06,0.000143488,0.000906921,-0.395457,-0.00026776,-0.00136322,-1.8426e-05,1.45418e-05,-0.00179716,-0.000160832,-0.000670276,-2.07407e-05,0.000487703,2.67925e-05,-0.000589832,-0.000636266,5.7574e-05,-0.000477411,-5.09123e-05,-1.49371e-05,0.000710484,-1.16296e-05,0.0075272,-0.000258912,-0.000727961,-0.00370986,-0.00661777,5.72792e-06,-0.000735778,-0.000489255,-0.000219205,-0.000810395,9.75359e-05,0.731834,-0.00012015,0.00179353,-0.000363916,6.06575e-05,2.47174e-05,-8.06676e-07,-0.000523143,0.000387015,-0.000186644,-0.000506115,0.000114516,0.000222928,-2.48283e-05,-0.000277805,2.03568e-05,-0.000149797,-0.00030126,-0.00109493,5.86327e-05,0.000674479,0.00461506,-0.00197005,1.49499e-05,0.000286339,7.84727e-05,0.000346359,-0.000232463,4.49632e-05,0.000305093,2.83518e-05,-4.98128e-05,-0.000113958,0.0002024,5.87136e-05,0.00042309,-0.000779378,0.000465005,0.00171128,0.000877618,0.000111568,-3.47915e-06,-0.000153604,0.000142474,2.30018e-07,0.000154102,5.57835e-06,-0.000300647,0.00018352,0.000143071,-4.77797e-05,0.000117219,0.00199776,-0.00268413,-3.65189e-05,-0.00199183,-4.22587e-05,0.000539371,0.000838184,0.000421096,-0.000427316,-0.000965973,-0.000775264,0.000261328,0,0,0,0,0,0,0,0,0,0,0,0,0,0,0,0,0,0,0,0,0,0,0,0,0,0,0,0,0,0,0,0,0,0,0,0,0,0,0,0,0,0,-1.31896,0,0,0,0,0,0,0,0,0,0,0,0,0,0,0,0,0,0,0,0,0,0,0,0,0,0,0,0,0,0,0,0,0,0,0,0,0,0,0,0,0,0,0,0,0,0,0,0,0.669665,0,0,0,0,0,0,0,0,0,0,0,0,0,0,0,0,0,0,0,0,0,0,0,0,0,0,0,0,0,0,0,0,0,0,0,0,0,0,0,0,0,0,0,0,0,0,0,0,0,0,0,0,0,0,0,0,0,0,0,-1.65871,0,0,0,0,0,0,0,0,0,0,0,0,0,0,0,0,0,0,0,0,0,0,0,0,0,0,0,0,0,0,0,0,0,0,0,0,0,0,0,0,0,0,0,0,0,0,0,0,0,0,0,0,0,0,0,0,0,0,0,0,0,0,0,0,0,0,0,0,0,0,0,0,0,0,0,0,0,0,0,0,0,0,0,0,0,0,0,0,0,0,0,0,0,0,0,0,0,0,0,0,0,0,0,0,0,0,0,0,0,0,0,0,0,0,0,0,0,0,0,0,0,0,0,0,0,0,0,0,1.18568,0,0,0,0,0,0,0,0,0,0,0,0,0,0,0,0,0,0,0,0,0,0,0,0,0,0,0,0,0,0,0,0,0,0,0,0,0,0,0,0,0,0,0,0,0,0,0,0,0,0,0,0,0,0,0,0,0,0,0,0,0,0,0,0,0,0,0,0,0,0,0,0,0,0,0,0,0,0,0,0,0,0,0,0,0,0,0,0,0,-0.305024,0,0,0,0,0,0,0,0,0,0,0,0,0,0,0,0,0,0,0,0,0,0,0,0,0,0,0,0,0,0,0,0,0,0,0,0,0,0,0,0,0,0,0,0,0,0,0,0,0,0,0,0,0,0,0,0,0,0,0,0,0,0,0,0,0,0,0,0,0,0,0,0,0,0,0,0,0,0,0,0,0,0,0,0,0,0,0,0,0,0,0,0,0,0,0,0,0,0,0,0,0,0,0,0,0,0,0,0,0,0,0,0,0,0,0,0,0,0,0,0,0,0,0,0,0,0,0,0,0,0,0,0,0,0,0,0,0,0,0,0,0,0,0,0,0,0,0,0,0,0,0,0,0,0,0,0,0,0,0,0,0,0,0,0,0,0,0,0,0,0,0,0,0,0,0,0,0,0,0,0,0,0,0,0,0,0,0,0,0,0,0,0,0,0,0,0,0,0,0,0,0,0,0,0,0,0,0,0,0,0,0,0,0,0,0,0,0,0,0,0,0,0,0,0,0,0,0,0,0,0,0,0,0,0,0,0,0,0,0,0,0,0,0,0,0,0,0,0,0,0,0,0,-1.32561,0,0,0,0,0,0,0,0,0,0,0,0,0,0,0,0,0,0,0,0,0,0,0,0,0,0,0,0,0,0,0,0,0,0,0,0,0,0,0,0,0,0,0,0,0,0,0,0,0,0,0,0,0,0,0,0,0,0,0,0,0,0,0,0,0,0,0,0,0,0,0,0,0,0,0,0,0,0,0,0,0,0,0,0,0,0,0,0,0,0,0,0,0,0,0,0,0,0,0,0,0,0,0,0,0,0,0,0,0,0,0,0,0,0,0,0,0,0,0,0,0,0,0,0,0,0,0,0,0,0,0,0,0,0,0,0,0,0,0,0,0,0,0,0,0,0,0,0,0,0,0,0,0,0,0,0,0,0,0,0,0,0,0,0,0,0,0,0,0,0,0,0,0,0,0,0,0,0,0,0,0,0,0,0,0,0,0,0,0,0,0,0,0,0,0,0,0,0,0,0,0,0,0.0592451,0,0,0,0,0,0,0,0,0,0,0,0,0,0,0,0,0,0,0,0,0,0,0,0,0,0,0,0,0,0,0,0,0,0,0,0,0,0,0,0,0,0,0,0,0,0,0,0,0,0,0,0,0,0,0,0,0,0,0,0,0,0,0,0,0,0,0,0,0,1.99686,0,0,0,0,0,0,0,0,0,0,0,0,0,0,0,0,0,0,0,0,0,0,0,0,0,0,0,0,0,0,0.801642,0,0,0,0,0,0,0,0,1.76724,0,0,0,0,0,0,-0.0440178,0,0,0,0,0,0,0,0,0,0,0,0,0,0,0,0,0,0,0,0,0,0,0,0,0,0,0,0,0,0,0,0,0,0,0,0,0,0,0,0,0,0,0,0,0,0,0,0,0,0,0,0,0,0,0,0,0,0,0,0,0,0,0,0,0,0,0.168441,0,0,0,0,0,0,0,0,0,0,0,0,0,0,0,0,0,0,0,0,0,0,0,0,0,0,0,0,0,0,0,0,0,0,0,0,0,0,0,0,0,0,0,0,0,0,0,0,0,0,0,0,0,0,0,0,0,0,0,0,0,0,0,0,0,0,0,0,0,0,0,0,0,0,0,0,0,0,0,0,0,0,0,0,0,0,0,0,0,0,0,0,0,0,0,0,0,0,0,0,0,0,0,0,0,0,0,0,0,0,0,0,0,0,0,0,0,0,0,-0.610507,0,0,0,0,0,0,0,0,0,0,0,0,0,0,0,0,0,0,0.931395,0,0,0,0,0,0,0,0,0,0,0,0,0,0,0,0.726639,0,0,0,0,0,0,0,0,0,0,0,0,0,0,0,0,0,0,0,0,0,0,0,0,0,0,0,0,0,-1.96119,0,0,0,0,0,0,0,0,0,0,0,0,0,0,0,0,0,0,0,0,0,0,0,0,0,0,0,0,0,0,0,0,0,0,0,0,0,0,0,0,0,0,0,0,0,0,0,0,0,0,0,0,0,0,0,0,0,0,0,0,0,0,0,0,0,0,0,0,0,0,0,0,0,0,0,0,0,0,0,0,0,0,0,0,0,0,0.563243,0,0,0,0,0,0,0,0,0,0,0,0,0,0,0,0,0,0,0,0,0,0,0,0,0,0,0,0,0,0,0,0,0,0,0,0,0,0,0,0,0,0,0,0,0,0,0,0,0,0,0,0,0,0,0,0,0,0,0,0,0,0,0,0,0,0,0,0,0,0,0,0,0,0,0,0,0,0,0,0,0,0,0,0,0,0,0,0,0,0,0,0,0,0,0,0,0,0,0,0,0,0,0,0,0,0,0,0,0,0,0,0,0,0,0,0,0,0,0,0,0,0,0,0,0,0,0,0,0,0,0,0,0,0,0,0,0,0,0,0,0,0,0,0,0,0,0,0.815733,0,0,0,0,0,0,0,0,0,0,0,0,0,0,0,0,0,0,0,0,0,0,0,0,0,0,0,0,0,0,0.218793,0,0,0,0,0,0,-0.041062,0,0,0,0,0,0,0,0,0,0,0,0,0,0,0,0,0,0,0,0,0,0,0,0,0,0,0,0,0,0,0,0,0,0,0,0,0,0,0,0,0,0,0,0,0,0,0,0,0,0,0,-1.04884,0,0,0,0,0,0,0,0,0,0,0,0,0,0,0,0,0.00262167,-0.000371818,0.00141544,-0.00161758,0.000133153,-0.014692,0.000579878,0.000226372,0.000272148,0.000343858,-0.00122014,-0.000216415,0.000514441,-0.000350791,-0.00218477,-0.000796908,1.55128,0.00134896,-0.000538416,0.0001488,-0.00136529,0.0010531,-7.16318e-05,-2.47689e-05,0.00130619,0.00171442,0.00208551,0.00110775,0.00142426,-0.0002376,-0.00134624,-0.000137661,0.000733134,-0.000717191,0.00260307,3.79137e-07,-0.0002186,0.000782155,0.000730275,8.0604e-05,-0.00148855,0.00833511,-0.00132426,0.000404061,0.00120369,-1.45504e-05,-0.000560881,-0.000240022,0.000726095,0.00183587,-0.00672086,0.000251399,-0.000699628,-1.59834e-05,0.000191148,-0.000607794,0.000790122,-0.00274143,-0.00504325,4.01768e-06,-0.000443633,0.00119894,0.00200954,-1.36973e-05,0.000556328,-0.00323649,-0.00206901,-0.000442272,-0.000507716,4.69255e-05,0.000127164,-0.000842241,0.00116305,-0.00015245,0.00242571,-5.64742e-05,-0.00145939,3.25472e-05,-0.000298084,7.12205e-05,0.0047583,-0.000732371,0.000561781,-0.00207625,0.00218762,-0.000357028,-0.000311867,-0.000448879,-0.000771062,-0.00099052,-0.0013067,-0.000592016,-0.000187428,0.00014311,-0.00465228,0.000321871,-0.000952287,-0.00133764,-0.000510605,-0.000157536,0.000268647,0.000134337,0.000436339,0.000169553,-0.00201703,-0.000851628,3.26531e-06,-0.00470135,-4.72272e-05,-0.00033854,-0.000600493,0.000553009,-0.000448087,0.000315715,-0.00034145,0.000324739,-2.50337e-05,0.00142029,-0.000631623,0.00228262,0.000235064,-0.000415546,0.839373,-7.56983e-05,0.000834077,0.000173469,-0.00173744,0.00215601,0.000147912,0.00156101,-0.000510241,-7.11184e-05,-1.23733e-05,-0.00351754,0.00071139,0.000194121,0.00055424,-0.000518161,0.000124022,-0.000997098,-4.02319e-06,-0.000229729,-0.000374526,1.8943e-05,0.000665891,0.000593528,0.00183983,-0.00148213,0.000212142,-9.47973e-05,0.000545607,-0.000934778,0.00101246,-0.0110658,-0.00197529,0.000227566,-0.000993387,0.00264746,0.00626475,-0.000124695,-0.000859219,-0.000788119,-0.000600119,-0.000358428,-0.000187497,0.00043202,0.00664678,0.000621413,-0.00563107,2.33578e-05,-0.000223578,-1.19737e-05,0.000803352,-0.000213558,0.000722046,0.000600275,0.00266003,-0.00107644,0.000543786,-0.000519937,-0.00796667,0.000651783,-0.000724548,0.000961036,0.00665146,-5.58538e-05,-0.000197424,-0.000517477,-0.000451131,0.000952692,0.00113105,0.00061862,0.000104721,-0.00136899,-0.00206084,-0.000393276,-0.000235995,0.00329414,0.00209842,9.05386e-05,-0.000146258,-0.00199032,-0.13463,0.00053226,-0.0027914,0.000747476,4.99208e-05,0.000507126,0.00250293,0.00315054,-2.79692e-05,0.00539531,-0.0144786,-0.00155421,-0.000577129,-0.000554444,0.000788031,-0.000846519,-0.000158134,-0.000782811,-0.00109521,9.56774e-05,8.94514e-05,-0.000246442,0.00150882,-0.00299696,0.000700609,-0.000961591,-0.000557837,-0.00107286,-0.000480356,0.000162012,-0.000261624,-0.000465336,0.00262848,-4.77215e-05,0.000195496,0.000142493,-9.4509e-05,-0.000357981,-0.00286749,-0.000489684,-0.00236364,-0.00107867,0.00311905,-0.000266083,0.00117975,0.000442953,-0.000240096,0.00293666,-0.00036882,-0.000402635,0.000504126,0.00225985,-0.000651943,0,0.0345842,-0.00448865,0.00371262,-0.00856253,-0.00575223,-0.000402422,0.00735186,-0.00161301,-0.000773852,0.000879526,0.00317827,-0.000397105,-0.00137198,0.000827763,-0.00355094,0.00323571,0.000856319,0.00333469,0.00455309,0.00244038,-0.00335537,0.0124915,-0.00102882,-0.00515067,0.00174404,0.0156422,0.00823109,0.000477603,0.0041477,-0.00134901,-0.00807459,-0.0057003,0.00570955,-0.00140034,0.00261897,0.00229174,0.00130564,0.00856741,0.00196353,0.000779909,-0.00460828,0.0415457,0.0563871,0.00235958,-0.00139039,-0.00456479,0.00213674,0.00901216,0.00317621,0.0178092,-0.00819323,-0.00241552,-0.00602074,0.00255327,0.00178056,-0.00349547,0.00284638,0.00580216,-0.0292448,-0.000526899,0.00185365,-0.00709356,0.00370366,0.00326048,-0.00218226,-0.0159163,-0.0130222,-0.00482051,-0.00333525,0.00178778,0.000530678,-0.0201653,0.00270961,0.000500982,-0.00112955,-2.15661e-06,0.000686452,-0.000378795,-0.0123493,-0.00326258,0.04591,0.00367651,-0.0023223,-0.000268001,0.0119251,-0.000750501,-0.0050968,-0.00267659,-0.00515268,-0.0162881,-0.00474949,0.000755445,-0.00141956,0.0002691,-0.0190963,0.00383375,-0.00684834,-0.0256118,-0.0081357,-1.67661e-05,0.00215161,0.00752197,-0.00222266,0.00325009,-0.00938547,-0.00249466,-2.46812e-06,-0.00452566,0.00350605,-0.000821791,0.0034509,0.00760554,-0.00645381,0.00269713,-0.000364699,0.00206916,-0.00430365,0.0105389,-0.00318615,-0.00652449,-0.00388403,-0.00489542,-0.0047069,-0.0035716,0.00259713,-0.00264519,-0.00349941,0.0197544,-0.00145206,0.0235567,0.002201,-0.00182433,0.00160166,-0.00570485,0.00151523,0.00405158,0.000559293,-0.00272155,0.000181219,-0.00364467,-0.00827512,0.00303914,-0.00363869,-0.00170658,0.0118279,0.00341247,0.0107489,0.00016238,-0.00206387,0.00459748,0.00245934,0.00370455,0.00421638,-0.00339314,0.00261531,-0.00208399,-0.0038302,0.00293666,0.00634417,-0.00174401,0.000217945,-0.00161895,-0.00309869,-0.00854339,0.000211608,0.00193248,0.00229733,0.00196363,-0.00770795,-0.000131059,-0.00947133,0.00217721,0.00411687,0.00392154,-0.0005847,-0.00362328,0.00505563,-0.00286645,-0.0112225,-0.00267186,-0.0056158,0.00304745,-0.000377844,-0.00332971,0.0145758,0.00233702,0.000620516,-0.000939703,-0.00221124,-0.00919688,-0.0336031,0.00845819,0.00272132,-0.00828688,0.000528477,0.00516381,-0.00411695,-0.0294865,0.00552183,0.00341099,-0.00193095,-0.000177888,0.00690609,0.00686364,-0.00945723,-0.00314035,0.00117147,0.00923144,0.011665,0.0303139,-0.0182991,-0.00129112,0.0104046,-0.0110963,0.00200506,0.787863,0.00539847,-0.0118402,-0.0047406,-0.00145502,0.00175307,-1.38639,-0.00165424,0.00331639,0.00524815,-0.0108393,0.00541424,-0.0306139,-0.00146196,-0.0471449,0.00132113,0.000599377,0.00194674,-0.0025094,0.00213744,-0.000266401,-0.00411997,0.00125311,0.00642422,-0.00445564,-0.00909015,-0.00193057,-0.00558985,-0.0148276,0.0186897,-0.00386117,0.0275008,0.000999899,-0.00226039,0.00783392,-0.000594387,-0.00225409,0.00140088,0.00574049,-0.00297695,0,0.0582218,0.0155288,0.00138627,-0.0225821,-0.0433722,0.0392125,0.00497397,0.00314772,-0.00319683,-0.016201,0.0176183,0.00105986,-0.00478787,0.00349256,-0.00765751,-0.0101345,0.00773137,-0.00786609,0.00366202,0.00966191,-0.00028344,0.00913476,-0.00377574,-0.0183685,0.00262631,0.0279838,0.0331443,-0.0207128,0.0148385,-0.00439854,-0.00915455,-0.000302217,0.0180817,0.00359945,-0.0072327,-0.00238087,-0.00539993,0.0176013,0.0116138,0.0002966,-0.021347,0.383901,0.0375456,0.00672318,-0.00528919,-0.00565117,0.00708741,-0.00504148,0.00518201,-0.03363,0.0165928,-0.00367952,0.00780637,0.00950582,0.000495567,0.0162798,-0.00591693,0.00958454,-0.0307556,-0.00199225,-0.00152621,-0.0339809,0.0079903,0.00695123,0.00893493,0.0718998,-0.0620837,-0.0180461,-0.00687165,0.00331699,0.0026939,0.00888265,0.0158362,0.0357272,-0.0110572,-0.0016943,-0.0198974,0.000971183,-0.0170117,-0.0184652,0.0286694,0.00206677,-0.00445469,0.0139491,-0.00553728,-0.00161851,-0.0170032,-0.00649163,0.0154002,-0.018516,-0.0141354,-0.0111508,-0.00491111,9.14279e-06,-0.0189243,-0.00970204,-0.00669166,0.0308236,-0.0238568,0.00120139,0.00536793,-0.0161204,0.00337762,-0.00602272,-0.00341006,-0.00315094,-0.0014921,0.000311643,0.0106953,-0.0051203,0.0221382,-0.00773785,0.00499565,0.00806497,-0.000136613,0.000686399,0.296935,0.0143968,-7.90688e-05,-0.00278761,-0.0195736,-0.0130937,-0.0137005,0.00211304,0.0121475,-0.00150128,-0.0124796,-0.00911263,0.0026913,0.047825,-0.00799979,0.00931674,-0.00175145,0.0496801,0.012046,-0.00310386,-0.00620511,-0.00656137,0.00189282,-0.0126048,-0.0245877,0.015966,-0.00379457,-0.000142455,-0.0121948,0.0110153,0.0390855,-0.0197256,0.019732,0.0132587,-0.00543363,-0.00344952,0.0123086,0.0270909,0.00731543,-0.0147563,0.00576662,-0.0210295,-0.0201179,8.75336e-05,-0.000739246,0.0108375,-0.0090549,-0.0159222,-0.00149163,0.00516589,-0.0243606,0.00806228,-0.114655,0.000345165,-0.0173858,0.00808086,-0.00710201,-0.0120177,0.0269271,0.00579321,0.0153165,-0.00293721,0.0593415,-0.00741361,-0.0830082,-0.000300354,0.0040939,-0.0103433,-0.0410402,0.0078089,-0.0121924,0.00506392,-0.00634093,-0.00340792,-0.024463,0.0117756,-0.00608118,0.0307949,-0.0226488,-0.0201046,-0.0128422,-0.044836,0.00365038,0.00861189,-0.00409143,-0.0253494,0.0222467,0.0232088,-0.03193,0.0170458,0.00376175,0.012077,0.0209786,0.0537552,-0.0185176,0.0106573,0.0586308,-0.0311617,0.0165798,0.0146938,0.00061568,0.000606727,-0.00234302,0.00655382,-0.00409055,-0.00327193,-0.00656049,-0.0103663,0.0144126,0.0272058,0.0335156,-0.0442542,0.00583262,-0.0234255,0.00624575,0.00204232,-0.000778646,-0.00590271,0.000913178,-0.000217034,-0.0109716,0.00572577,0.00532302,0.0265438,-0.069158,-0.00470265,-0.0193773,-0.0240363,0.0500764,-0.017205,0.0668268,0.00169791,-0.00794512,0.0276111,-0.00370978,-0.0106903,0.0129249,0.0221567,-0.00347512,0,0.0907782,0.00820349,0.00481435,-0.0439166,-0.0671597,0.045755,0.000962415,0.00854455,-0.00403908,-0.0134468,0.0392465,0.00236431,-0.00447776,0.000945307,-0.00979416,-0.00330959,0.00718086,-0.0442348,0.00117007,0.0197141,-0.00520494,0.00457668,-0.00539467,-0.0341667,0.012652,0.0301384,0.0512488,-0.0394138,0.0230898,-0.00777432,-0.0146597,0.0188379,0.0222844,0.00419246,0.00151799,-0.00223564,-0.00752368,0.0314085,0.0246103,0.000148518,-0.0332808,0.0643651,0.0413535,0.01228,-0.0174804,-0.00901504,0.0130247,0.0194369,0.00162407,-0.0413856,0.0248213,-0.0100011,0.00417639,0.0198489,-0.00208956,0.0137649,-0.00429237,0.00447446,-0.0639783,-0.00290178,-0.000147252,-0.0491464,0.0223429,0.012428,0.0142907,0.0780881,-0.0876706,-0.0388553,-0.0126276,0.00755424,0.00198072,0.0235461,0.017743,0.0433534,-0.0103456,-0.00241058,-0.0310402,-0.000675549,-0.0253609,-0.0186925,0.0664827,0.00381959,8.75059e-05,0.0251958,-0.00691338,-0.00153247,-0.0347767,-0.0101709,0.0233853,-0.0124576,-0.0277167,-0.0190169,0.00965286,-0.00105977,-0.0711981,-0.00412811,-0.019829,0.0240342,-0.0443227,0.00304957,0.00793462,-0.0127776,0.00837447,-0.00950188,0.000387862,-0.0051425,-0.00337643,-0.00965463,0.0178685,-0.00350981,0.0364861,-0.0141648,0.000794186,0.0163415,0.00136998,-0.0014428,-0.0272528,0.0121391,-0.00461017,-0.0117775,-0.0372503,-0.0276506,-0.0311938,0.000268177,0.0236648,0.000711704,-0.0243957,-0.0285117,0.00478493,0.0969202,-0.0107063,0.01689,-0.00354671,0.0754692,0.0131187,-0.00694027,-0.0164898,-0.0138157,0.00167691,-0.0284837,-0.042658,0.0187828,-0.00806128,-0.000978721,-0.017515,0.00816355,0.0504414,-0.0379082,0.0175463,0.0220476,-0.0154751,-0.0130259,0.0235869,0.0443438,0.00316326,-0.0172875,0.0102193,-0.0367027,-0.0362923,0.00169657,-0.00561339,0.00415874,-0.0171652,-0.0131483,-0.00288231,0.00948152,-0.0257963,0.0157271,-0.16817,-0.000708265,-0.0278986,0.0171262,-0.00886462,-0.0298879,0.0720173,0.0102022,0.024262,-0.00757708,0.0785264,-0.0144159,-0.128767,0.00237333,0.00948154,0.000450138,-0.0489482,0.014377,-0.0179619,0.00245832,-0.0122736,0.00370231,-0.0404671,0.0256939,-0.00662873,0.00477458,-0.0586996,-0.0228717,-0.02151,-0.0564909,-0.012285,0.0103243,-0.0076506,-0.0329493,0.0393425,0.0470342,-0.0503274,0.0518937,0.00712583,0.0155359,0.0241391,0.0265438,-0.0336072,0.0279609,0.0894706,-0.0375779,0.0137498,0.00423004,0.000171344,-0.00391395,0.0121543,0.0131639,-0.00752287,-0.00836123,-0.0120479,-0.00861693,0.0258998,0.0869588,0.0420892,-0.0325503,0.0075914,-0.0258907,-0.00383832,0.00526845,-0.00126083,-0.0113532,0.00383465,0.000544275,-0.0176796,0.00742425,0.00635807,0.0877767,-0.067682,-0.00894257,-0.0336435,-0.0188687,0.055153,-0.0321637,0.0609828,0.00175432,0.0075597,0.0380923,-0.00152295,-0.0161745,0.0233636,0.0336888,-0.00326708,0,0.0550813,0.0129077,0.0136048,-0.0830451,-0.0826879,0.0904989,0.00306132,-0.00241012,-0.00162973,-0.0137437,0.0635953,0.00245082,-0.00774416,0.00659563,0.00820045,-0.0241956,0.0121841,0.0116616,0.0448813,0.0339328,-0.00137439,0.00839639,-0.0132297,-0.0561562,0.0404649,0.0249761,0.0644067,-0.0537054,0.0424399,-0.0128529,-0.0179421,0.0138945,0.0174106,-0.00168351,0.0199259,0.00218061,-0.0135536,-0.0496923,0.0350448,-0.00208661,-0.026939,0.0450498,0.0995763,0.0231013,-0.00360947,-0.0130737,0.0219233,-0.00397301,0.00744192,-0.0458401,0.010915,-0.00764989,0.00234708,0.034447,-0.00158086,0.0104885,0.0133743,0.00269037,-0.00814967,-0.00740596,0.00975081,-0.0494619,0.0355407,0.0293121,0.00532051,0.0921698,-0.0905162,-0.067726,-0.0223829,0.0113457,0.000319828,0.0343056,0.00858868,0.0619774,-0.0190727,-0.00291492,-0.0262565,-0.0034685,-0.0155562,-0.0187898,0.00593537,0.0186343,-0.0532463,0.0332622,-0.0196285,-0.00157785,-0.0600552,-0.0217319,0.0206719,-0.0249636,-0.058955,-0.0105405,0.00674706,-0.001808,-0.0164776,-0.0164089,-0.0354386,-0.0226169,-0.0833082,0.00734578,0.00940722,-0.0171086,-8.8926e-05,-0.0167208,0.0125935,-0.00395538,-0.00517451,0.0389636,0.0278658,0.0120257,0.0412314,-0.0278284,0.0139817,0.0331604,0.00241898,-0.00248181,-0.0381798,0.0363057,-0.00130967,0.0134689,-0.0559449,-0.0498172,-0.0141432,-0.000838288,0.0419804,0.000399839,-0.04419,-0.00993474,0.0277785,0.0760947,0.0038175,0.0125564,-0.00385911,0.154467,0.011892,-0.0204909,-0.050672,-0.0327416,-0.00310076,-0.0214663,-0.0711707,0.0380159,-0.008684,-0.0055902,-0.0228519,8.91029e-05,0.0327046,-0.0222716,0.010042,0.0355251,-0.0127826,-0.0248656,0.0441432,0.0581941,0.0225405,-0.0273093,0.0164331,-0.0166344,-0.0475216,0.012599,-0.00636472,0.00581305,-0.0327466,-0.0155732,-0.00249533,0.0183808,0.011937,0.0310088,-0.141372,-0.00280496,-0.0388159,0.0268242,-0.0185797,-0.0117332,0.0498623,0.0113523,-0.000139058,-0.00208891,0.0658104,-0.0271426,-0.0724188,-0.00384879,-0.000749707,0.027874,0.444226,0.0222766,-0.000804768,-0.00150836,-0.0226375,-0.0221381,-0.102063,0.0074839,-0.0110913,-0.021833,-0.0872679,-0.0296039,-0.0334051,-0.118409,0.0016388,0.0158788,-0.0132215,-0.0519617,0.0658922,0.0878109,-0.0775194,0.0412065,0.0131636,0.0188991,0.0408266,-0.027045,-0.0499928,0.061397,0.0994978,0.00151961,0.022681,0.0301688,0.0101417,-0.00974524,0.00513708,0.036771,-0.0114621,-0.0151618,-0.0192325,-0.0308266,0.0549537,0.0876775,0.0362044,-0.0864254,0.00508683,-0.0529053,0.00177255,0.0103319,0.00719047,-0.0241251,0.016463,0.00480826,-0.0269662,0.0166907,-0.00964063,0.0582931,-0.0551571,-0.0179721,-0.0567046,-0.0138998,0.0659301,-0.0486709,0.0266319,0.00545982,-0.00586304,0.0132062,-0.0170452,0.00251654,0.0184934,0.0463681,0.00835388,0,0.0528555,0.00317109,0.00409638,-0.11705,-0.107874,0.087391,0.00682736,-0.0104505,-0.00344294,-0.00711495,0.0861333,0.00629324,-0.0148043,0.00710052,0.257758,0.00901139,0.0407158,-0.0220246,0.0450809,0.316201,-0.000372412,0.0337075,-0.0191509,-0.0721757,0.0506674,0.023911,0.0746376,-0.0492872,0.0559091,-0.0159854,-0.0212892,-0.0161634,0.0181161,-0.00329526,0.00779974,0.00914707,-0.0142385,-0.0991652,0.0270218,-0.00341369,-0.0230411,0.0292661,-0.493993,0.0332812,-0.00309369,-0.0134592,0.0347784,0.00117553,0.0136007,-0.0729118,0.019634,-0.00401899,-0.0132939,0.0450364,0.000244424,0.00407199,0.0197249,0.0276219,0.0453158,-0.0100822,0.0118778,-0.0335029,0.0218952,0.0339319,0.000803955,0.102387,-0.10916,-0.0957898,-0.0271609,-0.0538559,-0.00261028,0.0243976,0.92234,0.0597119,-0.0384531,-0.00557206,-0.0196074,-0.00855296,-0.00929846,-1.38754,0.0379079,0.0234659,-0.0534807,0.0247157,-0.0188705,0.000219896,-0.0794428,-0.0310342,0.0188143,-0.0331368,-0.0960113,-0.0257062,-0.00702272,-0.00420058,0.0500281,-0.00172103,-0.0304235,0.0133159,-0.12236,0.00714015,0.0124861,-0.0187021,-0.00539226,-0.014541,0.0068159,-0.0123937,-0.00795469,-0.00938677,0.0341736,0.018334,0.0550456,-0.0115071,0.0068145,0.0508979,0.00542839,-0.00900482,-0.0455333,0.0373715,-0.00082101,-0.00478884,-0.0723942,-0.0663515,-0.0119294,-0.0080375,0.0622654,-0.0178382,-0.0569781,0.0462911,0.0182926,0.088611,0.0125968,0.0130234,0.00250378,0.175263,0.0119014,-0.00625248,-0.0745507,-0.0504519,-0.00644729,-0.0275176,-0.0900754,0.0465567,-0.00816204,-0.00580487,-0.0136178,-0.00627145,0.00694165,-0.0178258,0.0140066,0.0444602,-0.0165641,-0.0200904,0.0691077,0.0873638,0.0358779,-0.0251325,0.0244927,-0.0430073,-0.0551633,0.0128562,-0.00390185,-0.0054489,-0.0535705,-0.00776686,-0.00372649,0.0257006,-0.00988771,0.0398676,-0.162393,-0.00325649,-0.0328535,0.0302196,-0.0188514,-0.0104973,0.00730859,0.00778082,-0.00275513,0.00394326,0.0716245,-0.0398288,-0.13269,-0.00437251,0.00286344,0.0424323,-0.145559,0.0268239,-0.0069818,-0.000443866,-0.0336085,-0.0247787,-0.0882321,0.00597599,-0.0101505,0.0133,-0.056802,-0.031221,-0.0377872,-0.0818035,0.0127843,0.0163252,-0.0159782,-0.0406378,0.0803208,0.12964,-0.100591,0.0187068,0.018593,0.022111,0.0258718,0.0207421,-0.0546594,0.0431083,0.104574,0.00345653,0.0191441,-0.00475684,0.020191,-0.0314945,0.00930994,0.0424954,0.00428591,-0.0277743,-0.0233856,-0.0164616,0.0742661,0.0535833,0.065968,-0.122953,-0.00206219,-0.0714783,0.00403275,0.0163232,0.0100976,-0.0335977,0.0228646,0.015567,-0.0372419,0.0181772,-0.00553171,0.0440458,-0.0719629,-0.0259069,-0.0726326,-0.00563244,0.0779357,-0.0601385,0.0227225,0.00341702,-0.00402584,0.0171043,-0.0155209,0.00294224,0.012402,0.0282681,0.0049616,0,0.0653673,0.00245892,-0.0150198,-0.150427,-0.0990251,0.0699166,0.00566742,-0.00142406,-0.00169142,-0.00161263,0.613373,0.0109908,-0.0230551,-0.000414917,0.0108889,0.0278695,0.0567157,-0.0184202,0.032405,0.0623642,-0.00514486,0.00421166,-0.020278,-0.0940354,0.0449974,-0.0032171,0.0728541,-0.0410365,0.0642897,-0.0193285,-0.00983381,-0.0207749,0.0174748,-0.0143119,-0.00408419,0.0133544,-0.00244231,-0.167157,-0.00316856,-0.00189775,-0.00507349,0.0242999,0.000967388,0.0422754,-0.0264114,-0.0109076,0.0447584,0.552588,0.00796772,-0.0317622,-0.0312265,-0.00467996,-0.00440369,0.0495186,-0.00186607,-0.00729749,0.0134634,0.0210208,0.0461954,-0.0130784,0.00619812,-0.034014,-0.00837267,0.020833,-0.00119076,0.0738676,-0.0479681,-0.118347,-0.0348901,0.018106,-0.00796418,0.0077999,0.0159786,0.0280341,-0.0251738,-0.00534023,-0.0120921,-0.0173491,0.00731169,-0.00494546,0.0423484,0.0174861,-0.0355016,0.00918188,-0.0281398,0.00352088,-0.101727,-0.0380321,0.00295557,-0.0231311,-0.128661,-0.0202828,-0.000428475,-0.00695493,0.0900258,-0.00209902,-0.0336624,-0.0433805,-0.156639,0.00638272,0.00421729,-0.00865567,-0.00910113,-0.0111418,0.00385384,-0.00387703,-0.00968196,-0.0489851,0.0446326,0.00677286,0.0509529,0.00477781,-0.0085712,0.0714226,0.0111389,-0.0187325,-0.0552855,0.0379449,0.00179723,-0.0149292,-0.0900477,-0.0775907,-0.00861968,-0.00845043,0.0694117,-0.00488012,-0.0622657,0.044433,0.0174989,0.118093,0.0213612,0.00565654,-0.000367834,0.0839533,-0.000799909,0.00836364,-0.0817855,-0.0680206,-0.0126047,-0.0241284,-0.115928,0.0260361,-0.0124574,-0.00518154,0.332287,-0.0232821,0.000956183,0.00591718,-0.00475684,0.0567115,-0.00265151,-0.0239762,0.0911521,0.0751763,0.0158046,-0.019204,0.0078364,0.000101466,-0.0390244,0.00765764,-0.00409744,-0.0107647,-0.0717824,-0.0013738,7.65241e-05,0.033849,-0.0352072,0.0336816,-0.00946164,-0.00404452,-0.0206366,0.0307981,-0.0164906,0.0118112,-0.0446243,-0.00617338,-0.0116612,0.000343451,0.046324,-0.0492216,-0.0544002,-0.00320002,0.00431988,0.0588794,-0.106115,0.0302516,-0.00181284,-0.00882333,-0.04453,-0.0259243,-0.0560653,0.00976463,-0.00682493,-0.0187469,-0.00299692,-0.0155825,-0.0401551,-0.0392353,0.0186425,-0.00979031,-0.0214569,-0.00972268,0.0937333,0.166819,-0.115718,-0.0286749,0.0236268,0.0146561,0.0243623,0.0135316,-0.040798,0.0127088,0.094536,-0.00308449,0.0115549,-0.0314523,0.0228057,-0.0231778,0.00712606,0.0215871,0.00630865,-0.0370446,-0.0274446,0.00174034,0.0979655,-0.00441122,0.0243343,-0.0929842,-0.00124705,-0.0818052,-0.000863105,0.022253,0.0189584,-0.0459145,0.0292114,0.0200642,-0.0412573,0.0156816,0.000137172,0.0216939,-0.0271589,-0.0334307,-0.0783319,-0.0295718,0.0133816,-0.0698475,0.0047961,-0.000665502,-0.0107727,-0.0132225,0.0100101,0.00943597,0.0104283,0.00627182,-0.00365475,0,0.0592322,0.00762009,-0.0119825,-0.176959,-0.0824919,0.055727,0.0128292,-0.00294017,-0.00100766,-0.0227068,0.110806,0.0165107,-0.0247571,-0.00527299,0.022753,0.0274784,0.0303398,-0.0370997,0.0223442,