0.0189446601,-0.0221347619,-0.0582272562,-0.0099727197,-0.0393431849,-0.0206064338,-0.0498955102,-0.0452010872,-0.0185204114,-0.0007745234,0.0073066231,-0.0305041794,0.0179612793,0.0053733742,-0.0322811276,0.049344077,-0.0097388327,-0.0583177417,-0.0129416185,-0.0083325802,0.0079270017,-0.0196376873,0.0048946841,0.0286003284
-0.0209664895,-0.004206415,0.0391113449,-0.005562878,-0.0206329044,0.0113266121,0.0178922764,0.0510590914,-0.0135520885,0.0028072051,0.0107555477,0.0164766708,0.0091504058,-0.0258361639,-0.00065249,-0.020038494,0.0212968611,-0.0164318523,-0.0263422343,0.0083024701,0.0425700703,0.0349701116,-0.0319554839,-0.0151858234
0.0052902617,-0.0107534566,-0.0333103804,0.0040387949,-0.0399114932,-0.0778576609,-0.031091583,0.05022952,-0.006658862,0.0069001852,-0.0067671263,0.0123093051,-0.0226658696,-0.0116898932,0.0001378629,-0.0019227896,-0.0045757117,0.0096863738,0.0060705416,-0.0478014197,-0.0141826641,0.0087300049,-0.0126282046,-0.0323565006
0.040309269,-0.0185977618,0.0171728789,-0.0295801451,-0.02005751,-0.0052134088,0.001865442,0.0244620063,0.0071673942,0.0035668031,-0.0158806339,0.006145292,0.0313443781,0.0042009912,0.0097661783,-0.0180640614,0.0332510457,-0.0352910099,0.007623289,0.0301264484,-0.0330929109,0.0291246879,0.0089940925,0.0551461228
0.03634919,-0.0073620287,0.0156375396,-0.0355221221,0.0363194967,0.0111360148,0.0149359286,0.0068257008,-0.0454694777,0.0716031569,-0.0247048434,-0.0114707976,-0.0073490179,-0.0063048832,0.0244701646,0.0018567042,-0.0054390838,0.0028015186,-0.0378397081,0.0230105784,-0.0463148317,-0.0497019651,0.0117580391,-0.0121116932
0.0178654113,0.0123770485,-0.0078136819,-0.0141707119,0.0064818051,0.0193014954,-0.038154087,-0.0048203675,-0.0523414415,-0.0093535886,-0.0274982319,-0.0373448663,-0.0143343288,-0.0041885566,-0.0314985122,-0.0368237297,-0.0105090627,0.0143303941,0.0006761329,0.0320623973,0.0336670508,0.0235319793,-0.0145697666,0.0110689425
-0.0090344358,0.0341590648,-0.0400641125,-0.0363328851,0.003656491,0.0299512573,0.0282879179,0.0153227255,0.0020525861,0.0135092342,-0.0265973034,-0.0111569874,-0.0238820817,-0.0075264783,-0.0163002693,-0.0350096599,-0.0028274135,0.0214271496,0.0421179832,0.0234776836,0.0269534021,-0.0477302935,0.0083123205,-0.0027007269
0.0456571147,0.0321111584,0.0647047169,0.0057907357,0.0073687779,0.011838311,-0.011864478,-0.0357749655,-0.0439925108,0.0364733519,0.0440980811,0.0427877671,0.0422599369,0.0260522148,-0.0025525759,-0.0120483465,-0.0099173312,-0.0016213337,-0.0108287883,0.0077645272,0.0158294025,0.0231245991,-0.0457836206,0.0191819897
0.0020024472,-0.0050565198,0.0194992712,0.0099391713,0.0433129268,0.0269406744,-0.0274679913,0.0248780212,-0.008533364,-0.0344092867,-0.0243854606,-0.0065168305,0.0155304086,0.0011525207,0.0348541236,-0.0225446178,0.0200361642,0.0247176631,0.0321490752,-0.032632371,-0.0253345949,0.0202827682,-0.0530576433,-0.0089199557
-0.0216496752,0.0307726663,-0.0184180089,-0.0074708496,-0.0372240246,0.0190468481,0.0172368246,-0.0324674476,0.051278676,-0.0043166231,0.0365835228,-0.0096419396,0.004078589,0.0093713019,0.0134799987,-0.010441013,-0.0370745813,0.0264140957,0.0254437568,-0.0418434649,-0.0184201757,-0.0057495437,-0.0097278846,-0.0198742848
0.0049094945,-0.0366386782,-0.0092602969,0.0225791625,0.0357574377,0.008890593,0.0248780413,-0.0003396439,0.0003574339,0.0210936946,-0.0082725308,-0.0173872468,0.0252658703,-0.0017251678,-0.0294170749,0.0249019389,0.0017281353,0.0061014482,0.01076646,0.015329196,-0.00756367,0.0188911042,0.0042634978,-0.0015401517
0.0050396266,-0.0108588776,-0.0324898737,-0.0205555465,0.0217540551,-0.0185024216,-0.0565136434,-0.0550458517,-0.0144021992,-0.02631001,0.030312626,0.0958601881,-0.0450246899,-0.0548627861,-0.025907494,-0.0146185501,0.0047254359,0.0376099721,-0.022904985,-0.0161945378,0.0138760809,0.0156181966,0.0050626566,-0.0005964582
-0.0225432666,-0.0060452831,-0.0077595362,-0.0557088681,0.0263371673,-0.0165275265,-0.0211910361,0.0210856106,-0.0227176416,0.0274344591,0.0218886119,-0.0106186791,0.0038352605,0.0043093194,0.0264853888,-0.0063655527,0.0006505702,0.0218836387,0.0134685775,-0.026214734,-0.0151456666,0.0026119972,-0.0145854914,-0.000057552
-0.050477514,-0.0047988402,0.0270382687,-0.0490838509,0.0060773482,-0.0107893656,0.0178521333,0.0463289164,0.0117345143,0.0109539593,0.0418316715,-0.0094709238,-0.0273800386,-0.0087032815,-0.0124611904,0.0063778443,0.0514817585,-0.0059134142,0.0048182907,0.0112243463,-0.0114414972,-0.045479375,-0.0178390641,-0.0108227107
-0.0165745167,-0.0325508923,-0.0473827196,0.0403047099,0.0217859594,0.0032292126,0.0115282791,-0.0495752308,0.0279780746,-0.0328990598,-0.0016907716,-0.0059603768,-0.0130095048,-0.0086675261,-0.031294372,-0.0142020119,0.0120560141,-0.009395071,0.0063901381,-0.0002230815,-0.0184996096,0.0166701189,0.0040241756,-0.0133644871
0.037471096,0.0030591639,-0.0219608553,-0.0134873214,0.04679565,-0.0055980287,-0.0057187362,-0.0056243087,-0.0193007068,-0.0321711021,-0.0053171876,-0.0257358626,0.0372518797,0.0273973459,-0.0437892539,-0.0230101691,0.0680314455,-0.0182827626,0.0064683796,-0.0225425932,-0.007305712,-0.0189190868,-0.062450092,0.0597724414
-0.0022204629,0.0125490354,0.0756421744,-0.0512321897,0.0112701946,0.0239779663,-0.0268712094,-0.0042521784,-0.0137657648,-0.0202909949,-0.0028090189,0.045177686,-0.0114579686,0.0111298707,0.0407935466,0.0258306675
0.0994828714,0.0344183684,0.0560206582,0.0869627034,-0.001573256,0.0113643674,0.0056356753,0.0443127112,-0.0304483427,0.0076459082,-0.0057779961,-0.0277681578,-0.1174962752,0.0328168706,-0.0423282719,-0.0563983573
0.0072433678,-0.0309453373,-0.0209825955,-0.0483560407,-0.0060442055,-0.0550026666,-0.0195466271,-0.0116708063,0.0652137593,0.0092560621,-0.0029646649,-0.0295833342,0.0032533779,0.0881960685,0.0095289077,-0.0288105627
0.0106607271,0.0398828911,0.0427878407,0.0122874557,0.0172336979,0.0637140326,-0.009247374,-0.0161865622,0.0042245608,0.0343135212,0.0174879336,0.0458212953,-0.0275541587,-0.0721810179,-0.0306542113,0.0024475436
-0.0045717603,0.0472537134,-0.0244063738,-0.0622183973,0.0418027197,-0.0282530412,0.0250947494,0.036912566,0.0488402988,0.0450157681,-0.1030719894,0.0322211961,0.0134852053,-0.0270958358,-0.0121379404,-0.0380809978
-0.0394233574,0.0548936323,-0.0604623771,0.0359158407,0.0173709751,-0.0127936685,-0.031399823,-0.021325785,-0.0452501043,-0.0243312798,0.042227101,-0.0596273612,-0.0102400681,-0.0077626576,0.0069308861,0.005774177
0.0149724983,0.0489543462,0.0174904282,-0.0058981158,0.048125615,-0.0998072816,-0.0425277657,0.0493957557,-0.0159470628,-0.0064522324,-0.061315968,0.0062276338,-0.0632191184,-0.0232241641,0.0331942292,-0.066510117
-0.0385272093,0.0543727924,0.0322355089,-0.0634321169,0.0148170641,0.0482721893,-0.0494206353,-0.0203914525,-0.0600285118,-0.0311253742,-0.0185435947,0.0488102396,0.0159580455,0.0753167098,-0.0709624275,0.0118299371
-0.0639785128,0.01893197,0.0200667955,-0.0615027582,0.0614440342,0.0287424449,-0.0204683575,0.0507419207,-0.0695057723,0.0489727036,-0.0167184006,-0.0282666137,-0.0021254248,0.0057279741,-0.0237929063,0.0033876727
0.0263557508,-0.0595263293,-0.0247213,0.0631727555,0.1316467096,0.0527964178,-0.0330483077,0.0061055328,-0.0254142851,0.0335267667,0.0491388502,0.0689383097,0.0411286171,-0.1078347636,0.0173017399,0.0529722771
0.0347730332,0.009685732,-0.0227105437,0.0173624302,0.0241404267,0.0121316084,-0.0366110976,0.0436717987,0.0189938106,0.0317097637,0.0183947197,0.0323873899,-0.0139395689,-0.0103935435,-0.0157716456,0.0441169444
-0.0230896878,0.0069599749,-0.0215113986,-0.0203683254,-0.0019169699,0.0864087527,-0.012796062,0.0071239461,0.02285436,0.0562176586,0.033168423,0.0011087711,-0.0271645055,0.007857342,0.0317512251,0.0201992472
-0.0095274349,0.0506225134,-0.0687834019,0.0201238866,0.0045452531,0.0128774906,0.0074422399,0.030194764,-0.0169233618,-0.0342154443,0.082518322,0.0196808903,0.0134439638,0.0038933006,-0.0460523724,0.0155117023
-0.0796031683,-0.0190497171,0.0474207467,0.0073633538,0.0012554655,0.0004484257,0.0390949556,0.0550866413,-0.0262059669,0.0297039631,-0.0270795791,0.0220959812,0.0008003428,0.001326761,0.0224854071,0.0632189645
-0.0272694179,0.0250843339,0.0276380214,0.0013240561,-0.0487023749,0.0632313321,-0.0336080941,-0.0049056488,0.0036715037,-0.0144193653,0.0061550554,0.0027853611,0.0306226786,-0.0255896889,0.0122820657,-0.0497679839
-0.0274277453,0.0061796575,0.0553016199,0.0943432783,-0.0599272718,0.065489664,0.030383171,-0.0533889577,0.0205578306,-0.085554094,-0.0056101211,0.019451663,-0.0550630455,0.0012720947,-0.0085086309,-0.0489138244
0.0946870097,0.0268183374,0.0066250633,0.0265086711,0.0163801506,0.0117467302,-0.0365468843,-0.0032315746,-0.0260685163,0.0189342296,0.0417512348,-0.002667876,-0.0158905298,-0.0024688348,-0.0520104656,-0.0377161156
0.088575846,-0.0012443216,0.0418566998,-0.0272366827,0.0015049178,0.0117805898,0.0228239447,0.0088148408,0.0208175297,0.0378806048,-0.0482016816,-0.0068640251,-0.048103408,0.1115918202,-0.0014769573,-0.015295541
0.0077623939,0.0030532376,0.0315845052,0.0306092942,0.0195143775,0.0263321832,-0.0982654421,-0.0450295964,-0.0445967378,0.0218036864,-0.0074205275,-0.0036464068,-0.0234917586,0.015693557,0.0179944576,0.0023268395
-0.0017864894,-0.0474551509,-0.0559744757,-0.0006882047,0.0347379573,-0.0127083866,-0.0325176383,-0.0205608142,0.0660406929,-0.0376046327,-0.0232829601,0.0014580049,0.0249215286,-0.044005742,-0.0265591403,-0.0419849351
0.0217868606,-0.0318939446,0.0027444636,-0.0005891243,0.0237638683,-0.0475164208,0.010209746,0.0467243907,0.0015512943,0.0053453929,-0.0351008689,0.0815217958,-0.0602542793,0.0113055334,-0.0062084669,0.0071390703
-0.0408633696,-0.0601700934,-0.0215749731,-0.0805585344,0.0184818549,0.0297834794,-0.0258759262,0.0329001279,-0.0120997796,-0.0396688397,0.0607196196,-0.0302505544,0.0075038947,0.0692582769,-0.0483801443,0.0328897453
-0.0013401488,0.0856387558,0.0658117614,-0.0063467868,0.0158538764,0.0205711405,-0.0129815911,-0.1076654085,-0.0369121448,0.004630548,-0.0034608028,0.0082629271,0.0384433943,-0.0979409724,-0.0443585135,-0.0021713899
-0.0139303506,0.0572856626,-0.0417543348,0.0537935998,-0.0056332745,-0.0265810235,0.0192628367,0.0253096143,0.0168937788,-0.0028120571,-0.0515219686,0.0286538182,0.0017391431,-0.0307954755,-0.0016123962,-0.0095717274
0.0544139079,-0.029308346,0.0135425952,0.0459041715,0.106275468,-0.0179861379,0.0638054346,0.0046332969
-0.0536246983,-0.0737227992,0.0029512054,0.0149911486,-0.0618889186,0.0218335659,-0.0599979924,-0.006356022
-0.0135429059,-0.0619389699,-0.0050716685,0.0512555612,0.0448104745,-0.0360101628,0.0034595147,-0.0212566084
-0.036609587,-0.0316497037,0.0091176878,0.0985288766,-0.0644920226,0.1138470615,0.0448782208,0.0576985
0.0006005366,0.0124356652,-0.0204162242,-0.0220648622,0.0512159959,0.0135183896,-0.0055170837,-0.0196793216
0.0559113068,0.0523428679,0.0145320179,0.0553300266,-0.054991729,-0.1027498666,-0.0239795263,-0.0527204444
0.0772295422,-0.0594384901,0.035133815,0.0935213623,-0.0222485883,-0.0524411442,0.0280140978,0.0126068426
0.0476820431,0.0809307648,0.07195776,0.0714710387,0.0379543024,-0.1209212166,-0.032320524,0.0802473917
-0.0438230285,-0.020140416,-0.0369047408,-0.0032672672,-0.0446661972,0.0281514436,0.0031291511,-0.0995857828
-0.0255616939,0.0084616887,0.0293029451,-0.0469584675,-0.0373271891,-0.0307993749,-0.0112857755,-0.0012890988
0.0340978339,0.0559313766,0.0115433099,0.06299891,0.0004332911,0.0699948198,-0.0618990025,0.048700537
-0.0011687683,0.035640416,-0.0657869968,0.0085669507,0.0200409272,0.0984695689,0.0209719693,-0.0060088532
-0.0156240664,-0.0479472955,-0.0200991721,-0.0327617771,0.0663555518,-0.0185384729,-0.1097765556,0.0522098584
0.0008461353,0.1211141,-0.0195484028,-0.0086964452,-0.0178104719,-0.0144474928,0.0418063297,0.0783287892
-0.0738146783,0.0620016472,0.1057627696,-0.0210042982,0.0205476594,-0.0338860839,0.0175260704,0.0468904516
-0.0089254353,-0.0055711707,-0.0269439263,0.0223167322,0.0928014645,-0.0295742235,-0.0324268252,0.0430492683

